[{"node_count": 383, "children_left": [1, -1, 3, -1, 5, 6, 7, 8, 9, -1, 11, -1, 13, -1, 15, -1, -1, 18, -1, 20, 21, 22, -1, -1, 25, -1, 27, -1, 29, -1, -1, -1, 33, 34, -1, 36, -1, 38, -1, 40, -1, -1, -1, 44, 45, 46, -1, 48, -1, 50, 51, -1, 53, 54, -1, -1, -1, -1, 59, 60, 61, -1, -1, -1, -1, 66, -1, 68, 69, -1, 71, -1, 73, 74, 75, 76, -1, 78, 79, -1, 81, -1, 83, 84, 85, -1, 87, -1, -1, -1, -1, -1, -1, -1, -1, 96, -1, 98, 99, 100, -1, 102, 103, -1, -1, -1, 107, 108, -1, -1, 111, -1, 113, -1, 115, -1, -1, 118, 119, -1, 121, -1, -1, -1, 125, 126, -1, 128, -1, 130, -1, 132, 133, -1, 135, -1, -1, -1, 139, 140, 141, -1, 143, 144, -1, -1, 147, -1, 149, -1, 151, -1, -1, 154, 155, -1, 157, 158, -1, 160, 161, -1, 163, -1, 165, 166, -1, 168, -1, 170, 171, 172, -1, 174, -1, -1, -1, -1, 179, 180, -1, 182, 183, -1, 185, -1, -1, 188, -1, 190, -1, 192, 193, -1, -1, -1, 197, -1, 199, -1, 201, 202, 203, -1, 205, -1, 207, -1, 209, 210, -1, 212, -1, -1, -1, -1, -1, 218, 219, -1, -1, 222, 223, 224, -1, -1, -1, 228, -1, 230, -1, -1, 233, -1, 235, -1, 237, -1, -1, 240, -1, 242, 243, 244, -1, -1, 247, -1, 249, 250, -1, -1, -1, 254, -1, -1, 257, 258, 259, 260, -1, 262, -1, 264, -1, 266, -1, -1, -1, -1, 271, 272, 273, 274, -1, 276, 277, -1, 279, -1, 281, -1, 283, -1, 285, -1, -1, 288, -1, -1, 291, 292, -1, 294, 295, -1, -1, -1, 299, -1, 301, 302, -1, 304, -1, 306, -1, 308, -1, 310, -1, -1, 313, 314, -1, -1, -1, -1, 319, 320, 321, 322, -1, -1, -1, -1, 327, 328, -1, 330, 331, 332, 333, 334, -1, 336, 337, -1, -1, -1, -1, 342, -1, 344, -1, -1, -1, 348, 349, 350, -1, -1, -1, 354, 355, 356, -1, -1, 359, 360, 361, -1, -1, 364, 365, -1, 367, -1, -1, -1, -1, 372, 373, -1, -1, 376, -1, 378, -1, -1, 381, -1, -1], "children_right": [2, -1, 4, -1, 124, 43, 32, 17, 10, -1, 12, -1, 14, -1, 16, -1, -1, 19, -1, 31, 24, 23, -1, -1, 26, -1, 28, -1, 30, -1, -1, -1, 42, 35, -1, 37, -1, 39, -1, 41, -1, -1, -1, 65, 58, 47, -1, 49, -1, 57, 52, -1, 56, 55, -1, -1, -1, -1, 64, 63, 62, -1, -1, -1, -1, 67, -1, 95, 70, -1, 72, -1, 94, 93, 92, 77, -1, 91, 80, -1, 82, -1, 90, 89, 86, -1, 88, -1, -1, -1, -1, -1, -1, -1, -1, 97, -1, 117, 106, 101, -1, 105, 104, -1, -1, -1, 110, 109, -1, -1, 112, -1, 114, -1, 116, -1, -1, 123, 120, -1, 122, -1, -1, -1, 138, 127, -1, 129, -1, 131, -1, 137, 134, -1, 136, -1, -1, -1, 256, 153, 142, -1, 146, 145, -1, -1, 148, -1, 150, -1, 152, -1, -1, 239, 156, -1, 232, 159, -1, 217, 162, -1, 164, -1, 178, 167, -1, 169, -1, 177, 176, 173, -1, 175, -1, -1, -1, -1, 196, 181, -1, 187, 184, -1, 186, -1, -1, 189, -1, 191, -1, 195, 194, -1, -1, -1, 198, -1, 200, -1, 216, 215, 204, -1, 206, -1, 208, -1, 214, 211, -1, 213, -1, -1, -1, -1, -1, 221, 220, -1, -1, 227, 226, 225, -1, -1, -1, 229, -1, 231, -1, -1, 234, -1, 236, -1, 238, -1, -1, 241, -1, 253, 246, 245, -1, -1, 248, -1, 252, 251, -1, -1, -1, 255, -1, -1, 270, 269, 268, 261, -1, 263, -1, 265, -1, 267, -1, -1, -1, -1, 318, 317, 290, 275, -1, 287, 278, -1, 280, -1, 282, -1, 284, -1, 286, -1, -1, 289, -1, -1, 298, 293, -1, 297, 296, -1, -1, -1, 300, -1, 312, 303, -1, 305, -1, 307, -1, 309, -1, 311, -1, -1, 316, 315, -1, -1, -1, -1, 326, 325, 324, 323, -1, -1, -1, -1, 380, 329, -1, 347, 346, 341, 340, 335, -1, 339, 338, -1, -1, -1, -1, 343, -1, 345, -1, -1, -1, 353, 352, 351, -1, -1, -1, 371, 358, 357, -1, -1, 370, 363, 362, -1, -1, 369, 366, -1, 368, -1, -1, -1, -1, 375, 374, -1, -1, 377, -1, 379, -1, -1, 382, -1, -1], "feature": [34, -2, 215, -2, 106, 0, 7, 105, 223, -2, 18, -2, 117, -2, 5, -2, -2, 20, -2, 115, 9, 19, -2, -2, 11, -2, 107, -2, 223, -2, -2, -2, 10, 117, -2, 120, -2, 223, -2, 20, -2, -2, -2, 18, 20, 105, -2, 8, -2, 7, 17, -2, 3, 115, -2, -2, -2, -2, 3, 115, 17, -2, -2, -2, -2, 17, -2, 15, 105, -2, 3, -2, 27, 15, 9, 20, -2, 14, 2, -2, 58, -2, 107, 12, 223, -2, 7, -2, -2, -2, -2, -2, -2, -2, -2, 7, -2, 20, 107, 8, -2, 2, 115, -2, -2, -2, 120, 19, -2, -2, 19, -2, 5, -2, 9, -2, -2, 14, 9, -2, 115, -2, -2, -2, 8, 121, -2, 5, -2, 115, -2, 14, 7, -2, 115, -2, -2, -2, 12, 5, 17, -2, 18, 19, -2, -2, 15, -2, 16, -2, 107, -2, -2, 20, 58, -2, 11, 3, -2, 7, 16, -2, 121, -2, 2, 17, -2, 105, -2, 27, 8, 14, -2, 15, -2, -2, -2, -2, 27, 7, -2, 1, 107, -2, 223, -2, -2, 20, -2, 4, -2, 9, 14, -2, -2, -2, 105, -2, 0, -2, 107, 19, 17, -2, 4, -2, 1, -2, 7, 115, -2, 14, -2, -2, -2, -2, -2, 115, 115, -2, -2, 115, 105, 14, -2, -2, -2, 223, -2, 17, -2, -2, 223, -2, 115, -2, 2, -2, -2, 3, -2, 19, 18, 223, -2, -2, 15, -2, 7, 2, -2, -2, -2, 115, -2, -2, 15, 10, 115, 223, -2, 14, -2, 107, -2, 15, -2, -2, -2, -2, 1, 10, 8, 16, -2, 19, 20, -2, 27, -2, 107, -2, 115, -2, 3, -2, -2, 7, -2, -2, 18, 0, -2, 2, 6, -2, -2, -2, 27, -2, 107, 17, -2, 223, -2, 4, -2, 115, -2, 7, -2, -2, 2, 9, -2, -2, -2, -2, 17, 19, 115, 20, -2, -2, -2, -2, 115, 6, -2, 107, 19, 115, 27, 120, -2, 115, 223, -2, -2, -2, -2, 27, -2, 7, -2, -2, -2, 223, 10, 115, -2, -2, -2, 27, 4, 14, -2, -2, 223, 9, 115, -2, -2, 11, 58, -2, 10, -2, -2, -2, -2, 107, 7, -2, -2, 20, -2, 115, -2, -2, 115, -2, -2], "threshold": [Infinity, -2.0, Infinity, -2.0, 0.0, 0.0, 0.5, 0.0, 0.5, -2.0, 0.0, -2.0, 0.0, -2.0, 0.0, -2.0, -2.0, -0.5, -2.0, 6748.5, 0.0, 0.0, -2.0, -2.0, 0.5, -2.0, -0.5, -2.0, 0.0, -2.0, -2.0, -2.0, 0.0, 0.0, -2.0, 0.0, -2.0, 0.5, -2.0, -0.5, -2.0, -2.0, -2.0, 0.0, 0.5, 0.0, -2.0, 0.5, -2.0, 0.5, 0.0, -2.0, 0.0, 7578.5, -2.0, -2.0, -2.0, -2.0, 0.0, 7648.0, 0.0, -2.0, -2.0, -2.0, -2.0, 0.0, -2.0, 0.5, 0.0, -2.0, 0.0, -2.0, 0.0, -0.5, 0.0, -0.5, -2.0, -0.5, 0.0, -2.0, 0.0, -2.0, 0.5, 0.0, 0.5, -2.0, -0.5, -2.0, -2.0, -2.0, -2.0, -2.0, -2.0, -2.0, -2.0, -0.5, -2.0, 0.5, -0.5, 0.5, -2.0, 0.0, 8491.5, -2.0, -2.0, -2.0, 0.0, 0.0, -2.0, -2.0, 0.0, -2.0, 0.0, -2.0, 0.0, -2.0, -2.0, -0.5, 0.0, -2.0, 6359.5, -2.0, -2.0, -2.0, -0.5, 0.0, -2.0, 0.0, -2.0, 3710.0, -2.0, -0.5, -0.5, -2.0, 3957.0, -2.0, -2.0, -2.0, 0.0, 0.0, 0.0, -2.0, 0.0, 0.5, -2.0, -2.0, 0.5, -2.0, 0.0, -2.0, 0.5, -2.0, -2.0, 0.5, 0.0, -2.0, 0.5, 0.0, -2.0, 0.5, 0.0, -2.0, 0.0, -2.0, 0.0, 0.0, -2.0, 0.0, -2.0, 0.0, 0.5, -0.5, -2.0, 0.0, -2.0, -2.0, -2.0, -2.0, 0.0, -0.5, -2.0, 0.0, 0.5, -2.0, 0.0, -2.0, -2.0, -0.5, -2.0, 0.0, -2.0, 0.0, -0.5, -2.0, -2.0, -2.0, 0.0, -2.0, 0.0, -2.0, -0.5, 0.0, 0.0, -2.0, 0.0, -2.0, 0.0, -2.0, -0.5, 9037.5, -2.0, -0.5, -2.0, -2.0, -2.0, -2.0, -2.0, 763.0, 405.0, -2.0, -2.0, 5636.0, 0.0, 0.0, -2.0, -2.0, -2.0, 0.5, -2.0, 0.0, -2.0, -2.0, 0.5, -2.0, 6138.5, -2.0, 0.0, -2.0, -2.0, 0.0, -2.0, 0.0, 0.0, 0.0, -2.0, -2.0, 0.5, -2.0, 0.0, 0.0, -2.0, -2.0, -2.0, 5231.0, -2.0, -2.0, 0.5, 0.0, 2812.5, 0.5, -2.0, 0.0, -2.0, -0.5, -2.0, -0.5, -2.0, -2.0, -2.0, -2.0, 0.0, 0.0, 0.5, 0.0, -2.0, -0.5, -0.5, -2.0, 0.0, -2.0, 0.0, -2.0, 3664.5, -2.0, 0.0, -2.0, -2.0, 0.0, -2.0, -2.0, 0.0, 0.0, -2.0, 0.0, 0.0, -2.0, -2.0, -2.0, 0.0, -2.0, 0.5, 0.0, -2.0, -0.5, -2.0, 0.0, -2.0, 2624.0, -2.0, -0.5, -2.0, -2.0, 0.0, 0.0, -2.0, -2.0, -2.0, -2.0, 0.0, 0.0, 5863.0, -0.5, -2.0, -2.0, -2.0, -2.0, 10673.5, 0.0, -2.0, -0.5, 0.0, 3804.0, 0.0, 0.0, -2.0, 2225.0, 0.5, -2.0, -2.0, -2.0, -2.0, 0.0, -2.0, -0.5, -2.0, -2.0, -2.0, -0.5, 0.0, 9081.0, -2.0, -2.0, -2.0, 0.0, 0.0, 0.0, -2.0, -2.0, 0.5, 0.0, 8197.5, -2.0, -2.0, 0.5, 0.0, -2.0, 0.0, -2.0, -2.0, -2.0, -2.0, 0.5, -0.5, -2.0, -2.0, 0.5, -2.0, 6443.5, -2.0, -2.0, 10772.5, -2.0, -2.0], "value": [[0.5021694742215416, 0.4978305257784584], [0.0, 1.0], [0.7706619663141402, 0.22933803368585978], [0.0, 1.0], [0.9701676528599605, 0.029832347140039447], [0.9765572672471534, 0.02344273275284662], [0.9504132231404959, 0.049586776859504134], [0.9078014184397163, 0.09219858156028368], [0.9418604651162791, 0.05813953488372093], [1.0, 0.0], [0.868421052631579, 0.13157894736842105], [1.0, 0.0], [0.5833333333333334, 0.4166666666666667], [1.0, 0.0], [0.16666666666666666, 0.8333333333333334], [0.0, 1.0], [1.0, 0.0], [0.8545454545454545, 0.14545454545454545], [1.0, 0.0], [0.6521739130434783, 0.34782608695652173], [0.5294117647058824, 0.47058823529411764], [0.5833333333333334, 0.4166666666666667], [0.0, 1.0], [1.0, 0.0], [0.4, 0.6], [0.0, 1.0], [0.5, 0.5], [0.0, 1.0], [0.6666666666666666, 0.3333333333333333], [1.0, 0.0], [0.0, 1.0], [1.0, 0.0], [0.9774774774774775, 0.02252252252252252], [0.9908675799086758, 0.0091324200913242], [1.0, 0.0], [0.9775280898876404, 0.02247191011235955], [1.0, 0.0], [0.9622641509433962, 0.03773584905660377], [1.0, 0.0], [0.8571428571428571, 0.14285714285714285], [1.0, 0.0], [0.0, 1.0], [0.0, 1.0], [0.9849557522123894, 0.01504424778761062], [0.96875, 0.03125], [0.9864864864864865, 0.013513513513513514], [1.0, 0.0], [0.9591836734693877, 0.04081632653061224], [1.0, 0.0], [0.9130434782608695, 0.08695652173913043], [0.8333333333333334, 0.16666666666666666], [1.0, 0.0], [0.8181818181818182, 0.18181818181818182], [0.5, 0.5], [1.0, 0.0], [0.0, 1.0], [1.0, 0.0], [1.0, 0.0], [0.75, 0.25], [0.7, 0.3], [0.25, 0.75], [1.0, 0.0], [0.0, 1.0], [1.0, 0.0], [1.0, 0.0], [0.9876288659793815, 0.012371134020618556], [1.0, 0.0], [0.9855595667870036, 0.01444043321299639], [0.9985935302390999, 0.0014064697609001407], [1.0, 0.0], [0.9984894259818731, 0.0015105740181268882], [1.0, 0.0], [0.9984301412872841, 0.0015698587127158557], [0.9965753424657534, 0.003424657534246575], [0.9956331877729258, 0.004366812227074236], [0.9875, 0.0125], [1.0, 0.0], [0.9714285714285714, 0.02857142857142857], [0.9666666666666667, 0.03333333333333333], [1.0, 0.0], [0.9523809523809523, 0.047619047619047616], [1.0, 0.0], [0.9444444444444444, 0.05555555555555555], [0.9333333333333333, 0.06666666666666667], [0.9090909090909091, 0.09090909090909091], [1.0, 0.0], [0.8571428571428571, 0.14285714285714285], [1.0, 0.0], [0.0, 1.0], [1.0, 0.0], [1.0, 0.0], [1.0, 0.0], [1.0, 0.0], [1.0, 0.0], [1.0, 0.0], [0.9083333333333333, 0.09166666666666666], [1.0, 0.0], [0.8135593220338984, 0.1864406779661017], [0.92, 0.08], [0.7142857142857143, 0.2857142857142857], [1.0, 0.0], [0.3333333333333333, 0.6666666666666666], [0.5, 0.5], [1.0, 0.0], [0.0, 1.0], [0.0, 1.0], [0.9534883720930233, 0.046511627906976744], [0.75, 0.25], [1.0, 0.0], [0.0, 1.0], [0.9743589743589743, 0.02564102564102564], [1.0, 0.0], [0.6666666666666666, 0.3333333333333333], [1.0, 0.0], [0.5, 0.5], [1.0, 0.0], [0.0, 1.0], [0.2222222222222222, 0.7777777777777778], [0.3333333333333333, 0.6666666666666666], [0.0, 1.0], [0.6666666666666666, 0.3333333333333333], [1.0, 0.0], [0.0, 1.0], [0.0, 1.0], [0.9664455715957861, 0.03355442840421381], [0.9883720930232558, 0.011627906976744186], [1.0, 0.0], [0.9857142857142858, 0.014285714285714285], [1.0, 0.0], [0.9814814814814815, 0.018518518518518517], [1.0, 0.0], [0.96, 0.04], [0.9444444444444444, 0.05555555555555555], [1.0, 0.0], [0.9, 0.1], [0.0, 1.0], [1.0, 0.0], [1.0, 0.0], [0.9656842955187727, 0.03431570448122729], [0.9813153961136024, 0.01868460388639761], [0.9819819819819819, 0.018018018018018018], [1.0, 0.0], [0.9733333333333334, 0.02666666666666667], [0.5, 0.5], [0.0, 1.0], [1.0, 0.0], [0.9863013698630136, 0.0136986301369863], [1.0, 0.0], [0.8888888888888888, 0.1111111111111111], [1.0, 0.0], [0.8571428571428571, 0.14285714285714285], [1.0, 0.0], [0.0, 1.0], [0.9812550937245313, 0.018744906275468622], [0.9889455782312925, 0.011054421768707483], [1.0, 0.0], [0.988734835355286, 0.011265164644714038], [0.9910313901345291, 0.008968609865470852], [1.0, 0.0], [0.9892588614393125, 0.010741138560687433], [0.9919816723940436, 0.008018327605956471], [1.0, 0.0], [0.991907514450867, 0.008092485549132947], [1.0, 0.0], [0.9918887601390498, 0.008111239860950173], [0.9878542510121457, 0.012145748987854251], [1.0, 0.0], [0.9871244635193133, 0.012875536480686695], [1.0, 0.0], [0.9859154929577465, 0.014084507042253521], [0.9779411764705882, 0.022058823529411766], [0.9736842105263158, 0.02631578947368421], [1.0, 0.0], [0.8, 0.2], [1.0, 0.0], [0.0, 1.0], [1.0, 0.0], [1.0, 0.0], [0.9935064935064936, 0.006493506493506494], [0.9942196531791907, 0.005780346820809248], [1.0, 0.0], [0.9823008849557522, 0.017699115044247787], [0.9838709677419355, 0.016129032258064516], [1.0, 0.0], [0.75, 0.25], [1.0, 0.0], [0.0, 1.0], [0.9803921568627451, 0.0196078431372549], [1.0, 0.0], [0.8888888888888888, 0.1111111111111111], [1.0, 0.0], [0.8, 0.2], [0.6666666666666666, 0.3333333333333333], [0.0, 1.0], [1.0, 0.0], [1.0, 0.0], [0.9925925925925926, 0.007407407407407408], [1.0, 0.0], [0.9917695473251029, 0.00823045267489712], [1.0, 0.0], [0.9915611814345991, 0.008438818565400843], [0.9710144927536232, 0.028985507246376812], [0.9701492537313433, 0.029850746268656716], [1.0, 0.0], [0.9666666666666667, 0.03333333333333333], [1.0, 0.0], [0.9523809523809523, 0.047619047619047616], [1.0, 0.0], [0.9310344827586207, 0.06896551724137931], [0.8888888888888888, 0.1111111111111111], [1.0, 0.0], [0.6666666666666666, 0.3333333333333333], [1.0, 0.0], [0.0, 1.0], [1.0, 0.0], [1.0, 0.0], [1.0, 0.0], [0.9482758620689655, 0.05172413793103448], [0.75, 0.25], [1.0, 0.0], [0.0, 1.0], [0.9629629629629629, 0.037037037037037035], [0.9777777777777777, 0.022222222222222223], [0.5, 0.5], [1.0, 0.0], [0.0, 1.0], [1.0, 0.0], [0.8888888888888888, 0.1111111111111111], [1.0, 0.0], [0.5, 0.5], [0.0, 1.0], [1.0, 0.0], [0.9230769230769231, 0.07692307692307693], [1.0, 0.0], [0.8, 0.2], [1.0, 0.0], [0.625, 0.375], [1.0, 0.0], [0.0, 1.0], [0.803921568627451, 0.19607843137254902], [0.0, 1.0], [0.8541666666666666, 0.14583333333333334], [0.8863636363636364, 0.11363636363636363], [0.6666666666666666, 0.3333333333333333], [1.0, 0.0], [0.0, 1.0], [0.9024390243902439, 0.0975609756097561], [1.0, 0.0], [0.2, 0.8], [0.25, 0.75], [0.0, 1.0], [1.0, 0.0], [0.0, 1.0], [0.5, 0.5], [0.0, 1.0], [1.0, 0.0], [0.9473222124670764, 0.05267778753292362], [0.9955005624296963, 0.0044994375703037125], [0.9977452085682075, 0.002254791431792559], [0.9938461538461538, 0.006153846153846154], [1.0, 0.0], [0.9746835443037974, 0.02531645569620253], [1.0, 0.0], [0.8181818181818182, 0.18181818181818182], [1.0, 0.0], [0.75, 0.25], [0.0, 1.0], [1.0, 0.0], [1.0, 0.0], [0.0, 1.0], [0.776, 0.224], [0.8285714285714286, 0.17142857142857143], [0.8529411764705882, 0.14705882352941177], [0.9375, 0.0625], [1.0, 0.0], [0.9347826086956522, 0.06521739130434782], [0.9767441860465116, 0.023255813953488372], [1.0, 0.0], [0.9722222222222222, 0.027777777777777776], [1.0, 0.0], [0.9230769230769231, 0.07692307692307693], [1.0, 0.0], [0.9, 0.1], [1.0, 0.0], [0.6666666666666666, 0.3333333333333333], [0.0, 1.0], [1.0, 0.0], [0.3333333333333333, 0.6666666666666666], [1.0, 0.0], [0.0, 1.0], [0.7777777777777778, 0.2222222222222222], [0.8461538461538461, 0.15384615384615385], [1.0, 0.0], [0.8181818181818182, 0.18181818181818182], [0.5, 0.5], [0.0, 1.0], [1.0, 0.0], [1.0, 0.0], [0.7560975609756098, 0.24390243902439024], [1.0, 0.0], [0.6666666666666666, 0.3333333333333333], [0.625, 0.375], [1.0, 0.0], [0.6086956521739131, 0.391304347826087], [0.0, 1.0], [0.7777777777777778, 0.2222222222222222], [1.0, 0.0], [0.7333333333333333, 0.26666666666666666], [1.0, 0.0], [0.3333333333333333, 0.6666666666666666], [1.0, 0.0], [0.0, 1.0], [0.8333333333333334, 0.16666666666666666], [0.6666666666666666, 0.3333333333333333], [1.0, 0.0], [0.0, 1.0], [1.0, 0.0], [0.0, 1.0], [0.7379310344827587, 0.2620689655172414], [0.125, 0.875], [0.14285714285714285, 0.8571428571428571], [0.3333333333333333, 0.6666666666666666], [1.0, 0.0], [0.0, 1.0], [0.0, 1.0], [0.0, 1.0], [0.7737226277372263, 0.22627737226277372], [0.7894736842105263, 0.21052631578947367], [1.0, 0.0], [0.78125, 0.21875], [0.8947368421052632, 0.10526315789473684], [0.8857142857142857, 0.11428571428571428], [0.9629629629629629, 0.037037037037037035], [0.95, 0.05], [1.0, 0.0], [0.9411764705882353, 0.058823529411764705], [0.875, 0.125], [1.0, 0.0], [0.0, 1.0], [1.0, 0.0], [1.0, 0.0], [0.625, 0.375], [1.0, 0.0], [0.4, 0.6], [1.0, 0.0], [0.0, 1.0], [1.0, 0.0], [0.7333333333333333, 0.26666666666666666], [0.2222222222222222, 0.7777777777777778], [0.3333333333333333, 0.6666666666666666], [0.0, 1.0], [1.0, 0.0], [0.0, 1.0], [0.7901234567901234, 0.20987654320987653], [0.6666666666666666, 0.3333333333333333], [0.8333333333333334, 0.16666666666666666], [1.0, 0.0], [0.0, 1.0], [0.6296296296296297, 0.37037037037037035], [0.8947368421052632, 0.10526315789473684], [0.8888888888888888, 0.1111111111111111], [1.0, 0.0], [0.0, 1.0], [0.9, 0.1], [0.8333333333333334, 0.16666666666666666], [1.0, 0.0], [0.8, 0.2], [1.0, 0.0], [0.0, 1.0], [1.0, 0.0], [0.0, 1.0], [0.875, 0.125], [0.8695652173913043, 0.13043478260869565], [1.0, 0.0], [0.0, 1.0], [0.88, 0.12], [1.0, 0.0], [0.4, 0.6], [0.0, 1.0], [1.0, 0.0], [0.25, 0.75], [0.0, 1.0], [1.0, 0.0]], "impurity": [0.4999905867632042, 0.0, 0.3534841999819265, 0.0, 0.057884756408311255, 0.04578634206785048, 0.09425585684037974, 0.16739600623711082, 0.1095186587344511, 0.0, 0.2285318559556787, 0.0, 0.48611111111111116, 0.0, 0.2777777777777778, 0.0, 0.0, 0.24859504132231403, 0.0, 0.45368620037807184, 0.4982698961937716, 0.48611111111111116, 0.0, 0.0, 0.48, 0.0, 0.5, 0.0, 0.4444444444444444, 0.0, 0.0, 0.0, 0.04403051700348992, 0.01809803798919951, 0.0, 0.04393384673652312, 0.0, 0.07262370950516195, 0.0, 0.24489795918367352, 0.0, 0.0, 0.0, 0.02963583679223114, 0.060546875, 0.02666179693206716, 0.0, 0.07830070803831735, 0.0, 0.1587901701323251, 0.2777777777777778, 0.0, 0.2975206611570248, 0.5, 0.0, 0.0, 0.0, 0.0, 0.375, 0.42000000000000004, 0.375, 0.0, 0.0, 0.0, 0.0, 0.024436178127324903, 0.0, 0.02846381420323474, 0.002808983207423621, 0.0, 0.0030165843685252547, 0.0, 0.003134788512675901, 0.006825858510039362, 0.008695486356095405, 0.024687499999999973, 0.0, 0.05551020408163265, 0.06444444444444442, 0.0, 0.09070294784580502, 0.0, 0.1049382716049383, 0.12444444444444447, 0.1652892561983471, 0.0, 0.24489795918367352, 0.0, 0.0, 0.0, 0.0, 0.0, 0.0, 0.0, 0.0, 0.16652777777777783, 0.0, 0.30336110313128406, 0.1472, 0.40816326530612246, 0.0, 0.4444444444444444, 0.5, 0.0, 0.0, 0.0, 0.08869659275283936, 0.375, 0.0, 0.0, 0.04996712689020377, 0.0, 0.4444444444444444, 0.0, 0.5, 0.0, 0.0, 0.345679012345679, 0.4444444444444444, 0.0, 0.4444444444444444, 0.0, 0.0, 0.0, 0.06485705747736059, 0.02298539751216877, 0.0, 0.028163265306122454, 0.0, 0.036351165980795574, 0.0, 0.07679999999999998, 0.1049382716049383, 0.0, 0.18000000000000005, 0.0, 0.0, 0.0, 0.06627627381436874, 0.03667097892801208, 0.03538673808944082, 0.0, 0.05191111111111113, 0.5, 0.0, 0.0, 0.027021955338712655, 0.0, 0.19753086419753085, 0.0, 0.24489795918367352, 0.0, 0.0, 0.036787069528385063, 0.021864443056133998, 0.0, 0.022276521420483086, 0.01777634780510362, 0.0, 0.021251533006215073, 0.01590806805672007, 0.0, 0.016053994453540055, 0.0, 0.016090895297736663, 0.02399645953875662, 0.0, 0.02541951408204235, 0.0, 0.027772267407260465, 0.0431444636678201, 0.05124653739612184, 0.0, 0.31999999999999995, 0.0, 0.0, 0.0, 0.0, 0.012902681733850563, 0.011493868822880837, 0.0, 0.03477171274179658, 0.031737773152965665, 0.0, 0.375, 0.0, 0.0, 0.03844675124951946, 0.0, 0.19753086419753085, 0.0, 0.31999999999999995, 0.4444444444444444, 0.0, 0.0, 0.0, 0.01470507544581623, 0.0, 0.01632542464732678, 0.0, 0.01673520981324217, 0.05629069523209407, 0.05791935843172202, 0.0, 0.06444444444444442, 0.0, 0.09070294784580502, 0.0, 0.1284185493460166, 0.19753086419753085, 0.0, 0.4444444444444444, 0.0, 0.0, 0.0, 0.0, 0.0, 0.09809750297265163, 0.375, 0.0, 0.0, 0.07133058984910834, 0.04345679012345682, 0.5, 0.0, 0.0, 0.0, 0.19753086419753085, 0.0, 0.5, 0.0, 0.0, 0.14201183431952658, 0.0, 0.31999999999999995, 0.0, 0.46875, 0.0, 0.0, 0.31526336024605917, 0.0, 0.24913194444444442, 0.20144628099173556, 0.4444444444444444, 0.0, 0.0, 0.17608566329565734, 0.0, 0.31999999999999995, 0.375, 0.0, 0.0, 0.0, 0.5, 0.0, 0.0, 0.09980567646711958, 0.00895838526370929, 0.004499414694783321, 0.012231952662721923, 0.0, 0.04935106553436952, 0.0, 0.2975206611570248, 0.0, 0.375, 0.0, 0.0, 0.0, 0.0, 0.34764799999999996, 0.2840816326530612, 0.25086505190311414, 0.1171875, 0.0, 0.12192816635160686, 0.045429962141698255, 0.0, 0.054012345679012363, 0.0, 0.14201183431952658, 0.0, 0.18000000000000005, 0.0, 0.4444444444444444, 0.0, 0.0, 0.4444444444444444, 0.0, 0.0, 0.345679012345679, 0.2603550295857988, 0.0, 0.2975206611570248, 0.5, 0.0, 0.0, 0.0, 0.3688280785246877, 0.0, 0.4444444444444444, 0.46875, 0.0, 0.4763705103969754, 0.0, 0.345679012345679, 0.0, 0.3911111111111111, 0.0, 0.4444444444444444, 0.0, 0.0, 0.2777777777777778, 0.4444444444444444, 0.0, 0.0, 0.0, 0.0, 0.38677764565992867, 0.21875, 0.24489795918367352, 0.4444444444444444, 0.0, 0.0, 0.0, 0.0, 0.35015184612925565, 0.332409972299169, 0.0, 0.341796875, 0.18836565096952906, 0.20244897959183672, 0.07133058984910834, 0.09499999999999997, 0.0, 0.11072664359861595, 0.21875, 0.0, 0.0, 0.0, 0.0, 0.46875, 0.0, 0.48, 0.0, 0.0, 0.0, 0.3911111111111111, 0.345679012345679, 0.4444444444444444, 0.0, 0.0, 0.0, 0.3316567596402987, 0.4444444444444444, 0.2777777777777778, 0.0, 0.0, 0.46639231824417005, 0.18836565096952906, 0.19753086419753085, 0.0, 0.0, 0.18000000000000005, 0.2777777777777778, 0.0, 0.31999999999999995, 0.0, 0.0, 0.0, 0.0, 0.21875, 0.22684310018903586, 0.0, 0.0, 0.21120000000000005, 0.0, 0.48, 0.0, 0.0, 0.375, 0.0, 0.0]}, {"node_count": 439, "children_left": [1, 2, 3, 4, 5, -1, 7, 8, -1, -1, -1, -1, 13, -1, 15, 16, -1, 18, 19, 20, 21, 22, -1, -1, -1, 26, -1, 28, 29, 30, -1, -1, -1, 34, -1, -1, 37, -1, 39, -1, -1, 42, 43, 44, -1, 46, -1, -1, -1, 50, -1, 52, 53, 54, -1, 56, -1, -1, 59, -1, -1, -1, 63, -1, 65, -1, 67, 68, -1, -1, -1, 72, 73, 74, -1, 76, 77, 78, -1, -1, -1, 82, 83, -1, 85, -1, 87, -1, -1, 90, -1, -1, 93, 94, -1, 96, 97, 98, 99, -1, -1, -1, -1, -1, 105, 106, 107, 108, 109, -1, 111, 112, -1, 114, -1, 116, -1, -1, -1, 120, -1, 122, -1, -1, 125, -1, 127, -1, -1, 130, 131, -1, 133, 134, -1, 136, 137, -1, 139, 140, -1, 142, -1, -1, 145, -1, 147, -1, -1, -1, 151, 152, -1, 154, -1, 156, -1, -1, -1, 160, 161, 162, 163, -1, 165, -1, 167, -1, 169, -1, 171, -1, 173, -1, -1, -1, -1, 178, -1, 180, -1, 182, 183, -1, 185, -1, 187, -1, -1, 190, -1, 192, -1, 194, 195, -1, -1, -1, 199, 200, 201, 202, -1, 204, -1, 206, -1, 208, 209, -1, -1, -1, -1, 214, 215, -1, 217, -1, 219, -1, 221, 222, 223, -1, -1, -1, -1, 228, 229, 230, -1, -1, 233, -1, 235, -1, 237, -1, -1, 240, -1, 242, 243, -1, 245, -1, 247, -1, 249, -1, -1, -1, -1, 254, 255, -1, 257, -1, 259, 260, 261, -1, 263, 264, -1, 266, -1, 268, -1, 270, -1, 272, 273, -1, 275, 276, -1, -1, -1, -1, 281, 282, -1, 284, 285, -1, 287, -1, 289, 290, 291, 292, -1, -1, -1, -1, 297, -1, 299, -1, 301, 302, 303, -1, -1, -1, -1, -1, 309, 310, 311, -1, 313, -1, 315, -1, 317, -1, -1, -1, 321, -1, -1, 324, 325, -1, -1, 328, -1, 330, -1, -1, 333, 334, 335, -1, 337, -1, 339, 340, -1, -1, -1, 344, 345, 346, 347, -1, 349, -1, 351, -1, -1, 354, -1, 356, -1, -1, 359, -1, -1, 362, 363, 364, -1, 366, 367, -1, 369, 370, -1, -1, -1, 374, 375, -1, 377, 378, -1, 380, 381, -1, 383, 384, -1, -1, 387, -1, -1, 390, -1, 392, -1, 394, -1, -1, -1, -1, -1, 400, -1, 402, 403, 404, -1, 406, -1, -1, -1, 410, -1, 412, -1, -1, 415, -1, 417, 418, -1, 420, -1, 422, 423, 424, -1, -1, -1, -1, 429, -1, 431, -1, -1, 434, -1, 436, -1, -1, -1], "children_right": [438, 71, 12, 11, 6, -1, 10, 9, -1, -1, -1, -1, 14, -1, 62, 17, -1, 41, 36, 25, 24, 23, -1, -1, -1, 27, -1, 33, 32, 31, -1, -1, -1, 35, -1, -1, 38, -1, 40, -1, -1, 49, 48, 45, -1, 47, -1, -1, -1, 51, -1, 61, 58, 55, -1, 57, -1, -1, 60, -1, -1, -1, 64, -1, 66, -1, 70, 69, -1, -1, -1, 253, 92, 75, -1, 81, 80, 79, -1, -1, -1, 89, 84, -1, 86, -1, 88, -1, -1, 91, -1, -1, 104, 95, -1, 103, 102, 101, 100, -1, -1, -1, -1, -1, 198, 129, 124, 119, 110, -1, 118, 113, -1, 115, -1, 117, -1, -1, -1, 121, -1, 123, -1, -1, 126, -1, 128, -1, -1, 159, 132, -1, 150, 135, -1, 149, 138, -1, 144, 141, -1, 143, -1, -1, 146, -1, 148, -1, -1, -1, 158, 153, -1, 155, -1, 157, -1, -1, -1, 177, 176, 175, 164, -1, 166, -1, 168, -1, 170, -1, 172, -1, 174, -1, -1, -1, -1, 179, -1, 181, -1, 189, 184, -1, 186, -1, 188, -1, -1, 191, -1, 193, -1, 197, 196, -1, -1, -1, 252, 213, 212, 203, -1, 205, -1, 207, -1, 211, 210, -1, -1, -1, -1, 227, 216, -1, 218, -1, 220, -1, 226, 225, 224, -1, -1, -1, -1, 239, 232, 231, -1, -1, 234, -1, 236, -1, 238, -1, -1, 241, -1, 251, 244, -1, 246, -1, 248, -1, 250, -1, -1, -1, -1, 433, 256, -1, 258, -1, 332, 323, 262, -1, 280, 265, -1, 267, -1, 269, -1, 271, -1, 279, 274, -1, 278, 277, -1, -1, -1, -1, 308, 283, -1, 307, 286, -1, 288, -1, 296, 295, 294, 293, -1, -1, -1, -1, 298, -1, 300, -1, 306, 305, 304, -1, -1, -1, -1, -1, 320, 319, 312, -1, 314, -1, 316, -1, 318, -1, -1, -1, 322, -1, -1, 327, 326, -1, -1, 329, -1, 331, -1, -1, 414, 343, 336, -1, 338, -1, 342, 341, -1, -1, -1, 361, 358, 353, 348, -1, 350, -1, 352, -1, -1, 355, -1, 357, -1, -1, 360, -1, -1, 399, 398, 365, -1, 373, 368, -1, 372, 371, -1, -1, -1, 397, 376, -1, 396, 379, -1, 389, 382, -1, 386, 385, -1, -1, 388, -1, -1, 391, -1, 393, -1, 395, -1, -1, -1, -1, -1, 401, -1, 409, 408, 405, -1, 407, -1, -1, -1, 411, -1, 413, -1, -1, 416, -1, 428, 419, -1, 421, -1, 427, 426, 425, -1, -1, -1, -1, 430, -1, 432, -1, -1, 435, -1, 437, -1, -1, -1], "feature": [106, 0, 120, 223, 7, -2, 2, 10, -2, -2, -2, -2, 3, -2, 2, 20, -2, 115, 16, 17, 19, 27, -2, -2, -2, 18, -2, 7, 107, 1, -2, -2, -2, 107, -2, -2, 8, -2, 18, -2, -2, 27, 14, 15, -2, 7, -2, -2, -2, 18, -2, 16, 7, 17, -2, 105, -2, -2, 19, -2, -2, -2, 15, -2, 17, -2, 1, 20, -2, -2, -2, 107, 18, 106, -2, 115, 3, 6, -2, -2, -2, 1, 2, -2, 115, -2, 20, -2, -2, 10, -2, -2, 16, 223, -2, 14, 17, 27, 12, -2, -2, -2, -2, -2, 19, 223, 115, 14, 115, -2, 7, 5, -2, 20, -2, 15, -2, -2, -2, 17, -2, 15, -2, -2, 106, -2, 107, -2, -2, 115, 15, -2, 27, 120, -2, 2, 17, -2, 1, 58, -2, 10, -2, -2, 107, -2, 106, -2, -2, -2, 9, 8, -2, 17, -2, 7, -2, -2, -2, 8, 9, 107, 27, -2, 8, -2, 2, -2, 14, -2, 115, -2, 115, -2, -2, -2, -2, 117, -2, 15, -2, 107, 115, -2, 115, -2, 12, -2, -2, 27, -2, 3, -2, 7, 20, -2, -2, -2, 11, 27, 20, 20, -2, 14, -2, 4, -2, 2, 107, -2, -2, -2, -2, 105, 8, -2, 14, -2, 120, -2, 15, 14, 107, -2, -2, -2, -2, 14, 9, 10, -2, -2, 15, -2, 7, -2, 120, -2, -2, 5, -2, 2, 12, -2, 15, -2, 7, -2, 223, -2, -2, -2, -2, 11, 16, -2, 115, -2, 12, 19, 121, -2, 106, 4, -2, 120, -2, 17, -2, 2, -2, 14, 8, -2, 223, 10, -2, -2, -2, -2, 15, 17, -2, 9, 2, -2, 7, -2, 223, 7, 8, 20, -2, -2, -2, -2, 4, -2, 8, -2, 1, 7, 27, -2, -2, -2, -2, -2, 7, 14, 18, -2, 223, -2, 105, -2, 20, -2, -2, -2, 17, -2, -2, 9, 10, -2, -2, 27, -2, 15, -2, -2, 7, 4, 13, -2, 20, -2, 7, 1, -2, -2, -2, 18, 120, 115, 13, -2, 106, -2, 2, -2, -2, 15, -2, 115, -2, -2, 3, -2, -2, 9, 20, 3, -2, 115, 27, -2, 223, 8, -2, -2, -2, 2, 106, -2, 19, 115, -2, 27, 1, -2, 7, 223, -2, -2, 15, -2, -2, 115, -2, 15, -2, 7, -2, -2, -2, -2, -2, 3, -2, 19, 10, 223, -2, 20, -2, -2, -2, 17, -2, 14, -2, -2, 20, -2, 1, 15, -2, 3, -2, 115, 14, 115, -2, -2, -2, -2, 4, -2, 2, -2, -2, 7, -2, 15, -2, -2, -2], "threshold": [Infinity, 0.0, 0.0, 0.5, 0.5, -2.0, 0.0, 0.0, -2.0, -2.0, -2.0, -2.0, 0.0, -2.0, 0.0, -0.5, -2.0, 6155.5, 0.0, 0.0, 0.0, 0.0, -2.0, -2.0, -2.0, 0.0, -2.0, -0.5, 0.5, 0.0, -2.0, -2.0, -2.0, 0.5, -2.0, -2.0, 0.5, -2.0, 0.0, -2.0, -2.0, 0.0, 0.0, 0.0, -2.0, 0.0, -2.0, -2.0, -2.0, 0.0, -2.0, 0.0, -0.5, 0.0, -2.0, 0.0, -2.0, -2.0, 0.0, -2.0, -2.0, -2.0, 0.5, -2.0, 0.0, -2.0, 0.0, -0.5, -2.0, -2.0, -2.0, 0.5, 0.0, 0.0, -2.0, 486.5, 0.0, 0.0, -2.0, -2.0, -2.0, 0.0, 0.0, -2.0, 4109.0, -2.0, 0.5, -2.0, -2.0, 0.0, -2.0, -2.0, 0.0, -0.5, -2.0, 0.0, 0.0, 0.0, 0.0, -2.0, -2.0, -2.0, -2.0, -2.0, 0.5, 0.5, 10705.5, 0.5, 10443.5, -2.0, -0.5, 0.0, -2.0, -0.5, -2.0, 0.0, -2.0, -2.0, -2.0, 0.0, -2.0, 0.5, -2.0, -2.0, 0.0, -2.0, -0.5, -2.0, -2.0, 5500.0, 0.5, -2.0, 0.0, 0.0, -2.0, 0.0, 0.0, -2.0, 0.0, 0.0, -2.0, 0.0, -2.0, -2.0, -0.5, -2.0, 0.0, -2.0, -2.0, -2.0, 0.0, -0.5, -2.0, 0.0, -2.0, -0.5, -2.0, -2.0, -2.0, 0.5, 0.0, -0.5, 0.0, -2.0, -0.5, -2.0, 0.0, -2.0, -0.5, -2.0, 8972.5, -2.0, 9326.5, -2.0, -2.0, -2.0, -2.0, 0.0, -2.0, 0.5, -2.0, -0.5, 8626.5, -2.0, 9603.0, -2.0, 0.0, -2.0, -2.0, 0.0, -2.0, 0.0, -2.0, -0.5, -0.5, -2.0, -2.0, -2.0, 0.5, 0.0, 0.5, -0.5, -2.0, 0.5, -2.0, 0.0, -2.0, 0.0, -0.5, -2.0, -2.0, -2.0, -2.0, 0.0, -0.5, -2.0, -0.5, -2.0, 0.0, -2.0, -0.5, 0.5, -0.5, -2.0, -2.0, -2.0, -2.0, 0.5, 0.0, 0.0, -2.0, -2.0, 0.5, -2.0, 0.0, -2.0, 0.0, -2.0, -2.0, 0.0, -2.0, 0.0, 0.0, -2.0, 0.5, -2.0, 0.0, -2.0, 0.5, -2.0, -2.0, -2.0, -2.0, 0.5, 0.0, -2.0, 46.0, -2.0, 0.0, 0.5, 0.0, -2.0, 0.0, 0.0, -2.0, 0.0, -2.0, 0.0, -2.0, 0.0, -2.0, -0.5, 0.5, -2.0, -0.5, 0.0, -2.0, -2.0, -2.0, -2.0, 0.5, 0.0, -2.0, 0.0, 0.0, -2.0, -0.5, -2.0, 0.5, 0.5, 0.5, -0.5, -2.0, -2.0, -2.0, -2.0, 0.0, -2.0, 0.5, -2.0, 0.0, 0.5, 0.0, -2.0, -2.0, -2.0, -2.0, -2.0, 0.5, -0.5, 0.0, -2.0, -0.5, -2.0, 0.0, -2.0, 0.5, -2.0, -2.0, -2.0, 0.0, -2.0, -2.0, 0.0, 0.0, -2.0, -2.0, 0.0, -2.0, 0.5, -2.0, -2.0, 0.5, 0.0, 0.0, -2.0, 0.5, -2.0, -0.5, 0.0, -2.0, -2.0, -2.0, 0.0, 0.0, 8199.0, 0.0, -2.0, 0.0, -2.0, 0.0, -2.0, -2.0, 0.5, -2.0, 8905.0, -2.0, -2.0, 0.0, -2.0, -2.0, 0.0, 0.5, 0.0, -2.0, 1425.5, 0.0, -2.0, 0.5, 0.5, -2.0, -2.0, -2.0, 0.0, 0.0, -2.0, 0.0, 4412.0, -2.0, 0.0, 0.0, -2.0, -0.5, -0.5, -2.0, -2.0, 0.5, -2.0, -2.0, 6694.0, -2.0, 0.0, -2.0, -0.5, -2.0, -2.0, -2.0, -2.0, -2.0, 0.0, -2.0, 0.0, 0.0, 0.5, -2.0, 0.5, -2.0, -2.0, -2.0, 0.0, -2.0, 0.0, -2.0, -2.0, -0.5, -2.0, 0.0, 0.0, -2.0, 0.0, -2.0, 4182.0, 0.0, 2088.5, -2.0, -2.0, -2.0, -2.0, 0.0, -2.0, 0.0, -2.0, -2.0, 0.5, -2.0, 0.5, -2.0, -2.0, -2.0], "value": [[0.5063808065339459, 0.4936191934660541], [0.9678048780487805, 0.03219512195121951], [0.9520958083832335, 0.04790419161676647], [0.9927272727272727, 0.007272727272727273], [0.9884393063583815, 0.011560693641618497], [1.0, 0.0], [0.9823008849557522, 0.017699115044247787], [0.9733333333333334, 0.02666666666666667], [1.0, 0.0], [0.0, 1.0], [1.0, 0.0], [1.0, 0.0], [0.9026548672566371, 0.09734513274336283], [1.0, 0.0], [0.9017857142857143, 0.09821428571428571], [0.8611111111111112, 0.1388888888888889], [1.0, 0.0], [0.6610169491525424, 0.3389830508474576], [0.8275862068965517, 0.1724137931034483], [0.8095238095238095, 0.19047619047619047], [0.75, 0.25], [0.5, 0.5], [0.0, 1.0], [1.0, 0.0], [1.0, 0.0], [0.8235294117647058, 0.17647058823529413], [1.0, 0.0], [0.8, 0.2], [0.5, 0.5], [0.3333333333333333, 0.6666666666666666], [1.0, 0.0], [0.0, 1.0], [1.0, 0.0], [0.9090909090909091, 0.09090909090909091], [0.0, 1.0], [1.0, 0.0], [0.875, 0.125], [1.0, 0.0], [0.5, 0.5], [1.0, 0.0], [0.0, 1.0], [0.5, 0.5], [0.3, 0.7], [0.6, 0.4], [1.0, 0.0], [0.3333333333333333, 0.6666666666666666], [1.0, 0.0], [0.0, 1.0], [0.0, 1.0], [0.6, 0.4], [1.0, 0.0], [0.5294117647058824, 0.47058823529411764], [0.5625, 0.4375], [0.45454545454545453, 0.5454545454545454], [1.0, 0.0], [0.4, 0.6], [0.0, 1.0], [1.0, 0.0], [0.8, 0.2], [0.0, 1.0], [1.0, 0.0], [0.0, 1.0], [0.975, 0.025], [1.0, 0.0], [0.8333333333333334, 0.16666666666666666], [1.0, 0.0], [0.75, 0.25], [0.5, 0.5], [1.0, 0.0], [0.0, 1.0], [1.0, 0.0], [0.9699916643512086, 0.03000833564879133], [0.9835072366206664, 0.016492763379333558], [0.9782135076252724, 0.02178649237472767], [1.0, 0.0], [0.9668874172185431, 0.033112582781456956], [0.5, 0.5], [0.3333333333333333, 0.6666666666666666], [0.0, 1.0], [1.0, 0.0], [1.0, 0.0], [0.9862068965517241, 0.013793103448275862], [0.9929078014184397, 0.0070921985815602835], [1.0, 0.0], [0.9838709677419355, 0.016129032258064516], [1.0, 0.0], [0.875, 0.125], [1.0, 0.0], [0.0, 1.0], [0.9798657718120806, 0.020134228187919462], [1.0, 0.0], [0.0, 1.0], [0.9844745222929936, 0.01552547770700637], [0.9803921568627451, 0.0196078431372549], [1.0, 0.0], [0.9642857142857143, 0.03571428571428571], [0.96, 0.04], [0.8, 0.2], [0.5, 0.5], [1.0, 0.0], [0.0, 1.0], [1.0, 0.0], [1.0, 0.0], [1.0, 0.0], [0.9845591223080049, 0.015440877691995123], [0.9866156787762906, 0.01338432122370937], [0.9964564138908576, 0.003543586109142452], [0.9985580389329488, 0.0014419610670511895], [0.9992592592592593, 0.0007407407407407407], [1.0, 0.0], [0.9615384615384616, 0.038461538461538464], [0.9375, 0.0625], [1.0, 0.0], [0.9166666666666666, 0.08333333333333333], [1.0, 0.0], [0.6666666666666666, 0.3333333333333333], [1.0, 0.0], [0.0, 1.0], [1.0, 0.0], [0.972972972972973, 0.02702702702702703], [1.0, 0.0], [0.9523809523809523, 0.047619047619047616], [1.0, 0.0], [0.0, 1.0], [0.875, 0.125], [1.0, 0.0], [0.7272727272727273, 0.2727272727272727], [1.0, 0.0], [0.0, 1.0], [0.9662261380323054, 0.033773861967694566], [0.9498069498069498, 0.05019305019305019], [1.0, 0.0], [0.7936507936507936, 0.20634920634920634], [0.8627450980392157, 0.13725490196078433], [1.0, 0.0], [0.8409090909090909, 0.1590909090909091], [0.7083333333333334, 0.2916666666666667], [1.0, 0.0], [0.6818181818181818, 0.3181818181818182], [0.7692307692307693, 0.23076923076923078], [1.0, 0.0], [0.6666666666666666, 0.3333333333333333], [1.0, 0.0], [0.0, 1.0], [0.5555555555555556, 0.4444444444444444], [1.0, 0.0], [0.2, 0.8], [1.0, 0.0], [0.0, 1.0], [1.0, 0.0], [0.5, 0.5], [0.5454545454545454, 0.45454545454545453], [0.0, 1.0], [0.6, 0.4], [0.0, 1.0], [0.6666666666666666, 0.3333333333333333], [1.0, 0.0], [0.0, 1.0], [0.0, 1.0], [0.976303317535545, 0.023696682464454975], [0.9965397923875432, 0.0034602076124567475], [0.9956896551724138, 0.004310344827586207], [0.9893617021276596, 0.010638297872340425], [1.0, 0.0], [0.9882352941176471, 0.011764705882352941], [1.0, 0.0], [0.9879518072289156, 0.012048192771084338], [1.0, 0.0], [0.9791666666666666, 0.020833333333333332], [1.0, 0.0], [0.9, 0.1], [1.0, 0.0], [0.8, 0.2], [0.0, 1.0], [1.0, 0.0], [1.0, 0.0], [1.0, 0.0], [0.9323308270676691, 0.06766917293233082], [1.0, 0.0], [0.9274193548387096, 0.07258064516129033], [1.0, 0.0], [0.64, 0.36], [0.625, 0.375], [1.0, 0.0], [0.14285714285714285, 0.8571428571428571], [0.0, 1.0], [0.5, 0.5], [1.0, 0.0], [0.0, 1.0], [0.6666666666666666, 0.3333333333333333], [1.0, 0.0], [0.5714285714285714, 0.42857142857142855], [1.0, 0.0], [0.5, 0.5], [0.4, 0.6], [1.0, 0.0], [0.0, 1.0], [1.0, 0.0], [0.9728997289972899, 0.02710027100271003], [0.9712643678160919, 0.028735632183908046], [0.9545454545454546, 0.045454545454545456], [0.963302752293578, 0.03669724770642202], [1.0, 0.0], [0.8333333333333334, 0.16666666666666666], [1.0, 0.0], [0.7333333333333333, 0.26666666666666666], [1.0, 0.0], [0.6923076923076923, 0.3076923076923077], [0.3333333333333333, 0.6666666666666666], [1.0, 0.0], [0.0, 1.0], [1.0, 0.0], [0.0, 1.0], [0.9789915966386554, 0.02100840336134454], [0.9487179487179487, 0.05128205128205128], [1.0, 0.0], [0.9459459459459459, 0.05405405405405406], [1.0, 0.0], [0.9, 0.1], [1.0, 0.0], [0.8947368421052632, 0.10526315789473684], [0.5, 0.5], [0.3333333333333333, 0.6666666666666666], [0.0, 1.0], [1.0, 0.0], [1.0, 0.0], [1.0, 0.0], [0.9849246231155779, 0.01507537688442211], [0.986013986013986, 0.013986013986013986], [0.9722222222222222, 0.027777777777777776], [1.0, 0.0], [0.0, 1.0], [0.9906542056074766, 0.009345794392523364], [1.0, 0.0], [0.9090909090909091, 0.09090909090909091], [1.0, 0.0], [0.75, 0.25], [1.0, 0.0], [0.0, 1.0], [0.9821428571428571, 0.017857142857142856], [1.0, 0.0], [0.9818181818181818, 0.01818181818181818], [0.9787234042553191, 0.02127659574468085], [1.0, 0.0], [0.9782608695652174, 0.021739130434782608], [1.0, 0.0], [0.6666666666666666, 0.3333333333333333], [1.0, 0.0], [0.5, 0.5], [1.0, 0.0], [0.0, 1.0], [1.0, 0.0], [1.0, 0.0], [0.9060509554140127, 0.09394904458598727], [0.8987783595113438, 0.1012216404886562], [1.0, 0.0], [0.897887323943662, 0.10211267605633803], [0.0, 1.0], [0.901060070671378, 0.0989399293286219], [0.9290123456790124, 0.07098765432098765], [0.9504950495049505, 0.04950495049504951], [1.0, 0.0], [0.943609022556391, 0.05639097744360902], [0.9891304347826086, 0.010869565217391304], [1.0, 0.0], [0.987012987012987, 0.012987012987012988], [1.0, 0.0], [0.9866666666666667, 0.013333333333333334], [1.0, 0.0], [0.9859154929577465, 0.014084507042253521], [1.0, 0.0], [0.9811320754716981, 0.018867924528301886], [0.9777777777777777, 0.022222222222222223], [1.0, 0.0], [0.9655172413793104, 0.034482758620689655], [0.9166666666666666, 0.08333333333333333], [1.0, 0.0], [0.0, 1.0], [1.0, 0.0], [1.0, 0.0], [0.9195402298850575, 0.08045977011494253], [0.9699248120300752, 0.03007518796992481], [1.0, 0.0], [0.967741935483871, 0.03225806451612903], [0.9649122807017544, 0.03508771929824561], [1.0, 0.0], [0.9545454545454546, 0.045454545454545456], [1.0, 0.0], [0.8918918918918919, 0.10810810810810811], [0.9444444444444444, 0.05555555555555555], [0.9166666666666666, 0.08333333333333333], [0.8571428571428571, 0.14285714285714285], [1.0, 0.0], [0.0, 1.0], [1.0, 0.0], [1.0, 0.0], [0.8421052631578947, 0.15789473684210525], [1.0, 0.0], [0.8, 0.2], [1.0, 0.0], [0.7272727272727273, 0.2727272727272727], [0.6666666666666666, 0.3333333333333333], [0.5, 0.5], [0.0, 1.0], [1.0, 0.0], [1.0, 0.0], [1.0, 0.0], [1.0, 0.0], [0.7560975609756098, 0.24390243902439024], [0.8055555555555556, 0.19444444444444445], [0.8529411764705882, 0.14705882352941177], [1.0, 0.0], [0.8484848484848485, 0.15151515151515152], [1.0, 0.0], [0.7222222222222222, 0.2777777777777778], [1.0, 0.0], [0.6875, 0.3125], [1.0, 0.0], [0.0, 1.0], [0.0, 1.0], [0.4, 0.6], [0.0, 1.0], [1.0, 0.0], [0.6190476190476191, 0.38095238095238093], [0.75, 0.25], [1.0, 0.0], [0.0, 1.0], [0.5384615384615384, 0.46153846153846156], [1.0, 0.0], [0.45454545454545453, 0.5454545454545454], [1.0, 0.0], [0.0, 1.0], [0.8636363636363636, 0.13636363636363635], [0.8495145631067961, 0.15048543689320387], [0.9487179487179487, 0.05128205128205128], [1.0, 0.0], [0.9459459459459459, 0.05405405405405406], [1.0, 0.0], [0.5, 0.5], [0.3333333333333333, 0.6666666666666666], [0.0, 1.0], [1.0, 0.0], [1.0, 0.0], [0.8263473053892215, 0.17365269461077845], [0.7083333333333334, 0.2916666666666667], [0.5714285714285714, 0.42857142857142855], [0.16666666666666666, 0.8333333333333334], [0.0, 1.0], [0.25, 0.75], [0.0, 1.0], [0.5, 0.5], [0.0, 1.0], [1.0, 0.0], [0.875, 0.125], [1.0, 0.0], [0.6666666666666666, 0.3333333333333333], [1.0, 0.0], [0.0, 1.0], [0.9, 0.1], [0.0, 1.0], [1.0, 0.0], [0.8461538461538461, 0.15384615384615385], [0.8947368421052632, 0.10526315789473684], [0.9272727272727272, 0.07272727272727272], [1.0, 0.0], [0.9230769230769231, 0.07692307692307693], [0.8, 0.2], [1.0, 0.0], [0.7142857142857143, 0.2857142857142857], [0.8333333333333334, 0.16666666666666666], [1.0, 0.0], [0.0, 1.0], [0.0, 1.0], [0.9361702127659575, 0.06382978723404255], [0.9230769230769231, 0.07692307692307693], [1.0, 0.0], [0.8636363636363636, 0.13636363636363635], [0.8604651162790697, 0.13953488372093023], [1.0, 0.0], [0.7272727272727273, 0.2727272727272727], [0.7272727272727273, 0.2727272727272727], [1.0, 0.0], [0.6666666666666666, 0.3333333333333333], [0.8333333333333334, 0.16666666666666666], [0.0, 1.0], [1.0, 0.0], [0.3333333333333333, 0.6666666666666666], [1.0, 0.0], [0.0, 1.0], [0.7272727272727273, 0.2727272727272727], [0.0, 1.0], [0.8, 0.2], [1.0, 0.0], [0.5, 0.5], [1.0, 0.0], [0.0, 1.0], [1.0, 0.0], [1.0, 0.0], [0.0, 1.0], [0.6551724137931034, 0.3448275862068966], [1.0, 0.0], [0.6296296296296297, 0.37037037037037035], [0.7368421052631579, 0.2631578947368421], [0.8235294117647058, 0.17647058823529413], [1.0, 0.0], [0.25, 0.75], [0.0, 1.0], [1.0, 0.0], [0.0, 1.0], [0.375, 0.625], [1.0, 0.0], [0.16666666666666666, 0.8333333333333334], [1.0, 0.0], [0.0, 1.0], [0.9444444444444444, 0.05555555555555555], [1.0, 0.0], [0.9259259259259259, 0.07407407407407407], [0.9411764705882353, 0.058823529411764705], [1.0, 0.0], [0.9166666666666666, 0.08333333333333333], [1.0, 0.0], [0.9090909090909091, 0.09090909090909091], [0.8, 0.2], [0.5, 0.5], [1.0, 0.0], [0.0, 1.0], [1.0, 0.0], [1.0, 0.0], [0.9, 0.1], [1.0, 0.0], [0.8888888888888888, 0.1111111111111111], [1.0, 0.0], [0.0, 1.0], [0.9818181818181818, 0.01818181818181818], [1.0, 0.0], [0.8333333333333334, 0.16666666666666666], [1.0, 0.0], [0.0, 1.0], [0.0, 1.0]], "impurity": [0.4999185706159527, 0.062317192147531286, 0.09121876008462115, 0.014439669421487555, 0.022854088008286255, 0.0, 0.03477171274179658, 0.05191111111111113, 0.0, 0.0, 0.0, 0.0, 0.17573811574907983, 0.0, 0.17713647959183676, 0.23919753086419748, 0.0, 0.4481470841712152, 0.2853745541022592, 0.308390022675737, 0.375, 0.5, 0.0, 0.0, 0.0, 0.2906574394463668, 0.0, 0.31999999999999995, 0.5, 0.4444444444444444, 0.0, 0.0, 0.0, 0.1652892561983471, 0.0, 0.0, 0.21875, 0.0, 0.5, 0.0, 0.0, 0.5, 0.42000000000000004, 0.48, 0.0, 0.4444444444444444, 0.0, 0.0, 0.0, 0.48, 0.0, 0.4982698961937716, 0.4921875, 0.49586776859504134, 0.0, 0.48, 0.0, 0.0, 0.31999999999999995, 0.0, 0.0, 0.0, 0.04874999999999996, 0.0, 0.2777777777777778, 0.0, 0.375, 0.5, 0.0, 0.0, 0.0, 0.05821567088076163, 0.03244150427089376, 0.04262368224946722, 0.0, 0.0640322792859962, 0.5, 0.4444444444444444, 0.0, 0.0, 0.0, 0.027205707491082087, 0.014083798601679964, 0.0, 0.031737773152965665, 0.0, 0.21875, 0.0, 0.0, 0.039457682086392554, 0.0, 0.0, 0.030568874497951204, 0.03844675124951946, 0.0, 0.06887755102040816, 0.07679999999999998, 0.31999999999999995, 0.5, 0.0, 0.0, 0.0, 0.0, 0.0, 0.03040491397619194, 0.026410362338179838, 0.007062058213259115, 0.0028797636306645558, 0.0014803840877914975, 0.0, 0.07396449704142016, 0.1171875, 0.0, 0.1527777777777778, 0.0, 0.4444444444444444, 0.0, 0.0, 0.0, 0.05259313367421481, 0.0, 0.09070294784580502, 0.0, 0.0, 0.21875, 0.0, 0.39669421487603307, 0.0, 0.0, 0.06526637643096334, 0.09534741581073625, 0.0, 0.327538422776518, 0.23683198769703961, 0.0, 0.2675619834710744, 0.4131944444444444, 0.0, 0.43388429752066116, 0.3550295857988166, 0.0, 0.4444444444444444, 0.0, 0.0, 0.49382716049382713, 0.0, 0.31999999999999995, 0.0, 0.0, 0.0, 0.5, 0.49586776859504134, 0.0, 0.48, 0.0, 0.4444444444444444, 0.0, 0.0, 0.0, 0.046270299409267523, 0.0068964691514709076, 0.008583531510107045, 0.02105024898143959, 0.0, 0.02325259515570932, 0.0, 0.023806067644070228, 0.0, 0.04079861111111116, 0.0, 0.18000000000000005, 0.0, 0.31999999999999995, 0.0, 0.0, 0.0, 0.0, 0.12618011193397027, 0.0, 0.13462539021852238, 0.0, 0.4608, 0.46875, 0.0, 0.24489795918367352, 0.0, 0.5, 0.0, 0.0, 0.4444444444444444, 0.0, 0.4897959183673469, 0.0, 0.5, 0.48, 0.0, 0.0, 0.0, 0.05273169262857935, 0.055819791253798434, 0.08677685950413228, 0.07070111943439106, 0.0, 0.2777777777777778, 0.0, 0.3911111111111111, 0.0, 0.42603550295857984, 0.4444444444444444, 0.0, 0.0, 0.0, 0.0, 0.04113410069910317, 0.09730440499671267, 0.0, 0.1022644265887509, 0.0, 0.18000000000000005, 0.0, 0.18836565096952906, 0.5, 0.4444444444444444, 0.0, 0.0, 0.0, 0.0, 0.029696219792429535, 0.027580810797594002, 0.054012345679012363, 0.0, 0.0, 0.018516901039392075, 0.0, 0.1652892561983471, 0.0, 0.375, 0.0, 0.0, 0.035076530612244916, 0.0, 0.03570247933884296, 0.041647804436396596, 0.0, 0.042533081285444196, 0.0, 0.4444444444444444, 0.0, 0.5, 0.0, 0.0, 0.0, 0.0, 0.1702452432147349, 0.18195163997088282, 0.0, 0.18337135488990275, 0.0, 0.17830163942613841, 0.13189681450998325, 0.09410842074306436, 0.0, 0.10642207021312677, 0.02150283553875232, 0.0, 0.02563670096137627, 0.0, 0.026311111111111063, 0.0, 0.027772267407260465, 0.0, 0.03702385190459234, 0.04345679012345682, 0.0, 0.06658739595719376, 0.1527777777777778, 0.0, 0.0, 0.0, 0.0, 0.14797199101598624, 0.05834134207699704, 0.0, 0.06243496357960454, 0.06771314250538629, 0.0, 0.08677685950413228, 0.0, 0.19284149013878749, 0.1049382716049383, 0.1527777777777778, 0.24489795918367352, 0.0, 0.0, 0.0, 0.0, 0.2659279778393352, 0.0, 0.31999999999999995, 0.0, 0.39669421487603307, 0.4444444444444444, 0.5, 0.0, 0.0, 0.0, 0.0, 0.0, 0.3688280785246877, 0.31327160493827155, 0.25086505190311414, 0.0, 0.25711662075298436, 0.0, 0.4012345679012346, 0.0, 0.4296875, 0.0, 0.0, 0.0, 0.48, 0.0, 0.0, 0.47165532879818595, 0.375, 0.0, 0.0, 0.4970414201183432, 0.0, 0.49586776859504134, 0.0, 0.0, 0.23553719008264462, 0.2556791403525309, 0.09730440499671267, 0.0, 0.1022644265887509, 0.0, 0.5, 0.4444444444444444, 0.0, 0.0, 0.0, 0.28699487253038836, 0.4131944444444444, 0.4897959183673469, 0.2777777777777778, 0.0, 0.375, 0.0, 0.5, 0.0, 0.0, 0.21875, 0.0, 0.4444444444444444, 0.0, 0.0, 0.18000000000000005, 0.0, 0.0, 0.2603550295857988, 0.18836565096952906, 0.13487603305785123, 0.0, 0.14201183431952658, 0.31999999999999995, 0.0, 0.40816326530612246, 0.2777777777777778, 0.0, 0.0, 0.0, 0.11951109099139878, 0.14201183431952658, 0.0, 0.23553719008264462, 0.24012979989183347, 0.0, 0.39669421487603307, 0.39669421487603307, 0.0, 0.4444444444444444, 0.2777777777777778, 0.0, 0.0, 0.4444444444444444, 0.0, 0.0, 0.39669421487603307, 0.0, 0.31999999999999995, 0.0, 0.5, 0.0, 0.0, 0.0, 0.0, 0.0, 0.4518430439952438, 0.0, 0.46639231824417005, 0.38781163434903043, 0.2906574394463668, 0.0, 0.375, 0.0, 0.0, 0.0, 0.46875, 0.0, 0.2777777777777778, 0.0, 0.0, 0.1049382716049383, 0.0, 0.13717421124828533, 0.11072664359861595, 0.0, 0.1527777777777778, 0.0, 0.1652892561983471, 0.31999999999999995, 0.5, 0.0, 0.0, 0.0, 0.0, 0.18000000000000005, 0.0, 0.19753086419753085, 0.0, 0.0, 0.03570247933884296, 0.0, 0.2777777777777778, 0.0, 0.0, 0.0]}, {"node_count": 435, "children_left": [1, -1, 3, -1, 5, 6, 7, 8, 9, 10, -1, -1, -1, -1, -1, 16, 17, -1, 19, -1, 21, 22, 23, -1, 25, 26, -1, 28, 29, -1, 31, -1, 33, -1, -1, -1, -1, -1, -1, 40, 41, 42, 43, -1, -1, 46, 47, 48, -1, 50, -1, -1, 53, -1, -1, -1, 57, 58, -1, -1, 61, 62, 63, -1, 65, -1, 67, -1, -1, 70, -1, 72, -1, -1, -1, 76, 77, 78, -1, -1, -1, 82, -1, 84, 85, 86, 87, 88, -1, 90, -1, -1, 93, -1, -1, 96, -1, 98, -1, -1, 101, -1, -1, 104, -1, 106, 107, 108, 109, 110, -1, 112, -1, 114, -1, -1, 117, -1, -1, 120, 121, 122, 123, -1, 125, 126, -1, 128, -1, 130, -1, -1, 133, -1, 135, -1, -1, 138, 139, -1, 141, 142, -1, -1, -1, -1, -1, 148, 149, 150, 151, -1, -1, -1, -1, -1, -1, -1, 159, 160, 161, 162, 163, 164, -1, 166, -1, 168, -1, -1, -1, 172, 173, -1, 175, -1, 177, -1, 179, -1, 181, 182, -1, -1, -1, 186, 187, 188, -1, 190, -1, -1, 193, -1, -1, -1, 197, -1, 199, 200, 201, 202, 203, -1, 205, -1, 207, -1, -1, 210, -1, 212, -1, 214, -1, -1, 217, 218, 219, -1, 221, -1, 223, -1, 225, 226, -1, 228, 229, 230, -1, -1, -1, -1, -1, -1, 237, -1, 239, -1, -1, 242, 243, -1, 245, -1, 247, -1, -1, -1, -1, 252, 253, 254, 255, 256, 257, -1, -1, -1, -1, -1, -1, 264, 265, 266, -1, 268, -1, 270, 271, -1, 273, -1, 275, -1, -1, -1, 279, 280, -1, -1, 283, -1, 285, -1, 287, -1, 289, -1, 291, 292, -1, 294, 295, 296, -1, 298, -1, -1, -1, -1, -1, 304, 305, 306, 307, 308, -1, -1, -1, -1, -1, 314, 315, -1, -1, 318, 319, 320, -1, 322, -1, 324, 325, 326, -1, -1, -1, -1, 331, -1, -1, 334, -1, 336, -1, 338, -1, 340, -1, 342, -1, -1, 345, 346, -1, 348, 349, 350, -1, 352, 353, -1, 355, 356, 357, -1, 359, -1, -1, -1, -1, 364, -1, -1, 367, 368, -1, 370, 371, -1, -1, -1, 375, -1, -1, 378, 379, 380, -1, 382, -1, -1, 385, -1, 387, 388, -1, -1, 391, 392, -1, -1, 395, -1, 397, -1, -1, 400, -1, 402, 403, -1, -1, -1, 407, 408, -1, 410, 411, 412, -1, -1, -1, 416, -1, 418, -1, -1, 421, -1, 423, 424, -1, 426, -1, -1, 429, -1, 431, -1, 433, -1, -1], "children_right": [2, -1, 4, -1, 158, 15, 14, 13, 12, 11, -1, -1, -1, -1, -1, 39, 18, -1, 20, -1, 38, 37, 24, -1, 36, 27, -1, 35, 30, -1, 32, -1, 34, -1, -1, -1, -1, -1, -1, 75, 56, 45, 44, -1, -1, 55, 52, 49, -1, 51, -1, -1, 54, -1, -1, -1, 60, 59, -1, -1, 74, 69, 64, -1, 66, -1, 68, -1, -1, 71, -1, 73, -1, -1, -1, 81, 80, 79, -1, -1, -1, 83, -1, 103, 100, 95, 92, 89, -1, 91, -1, -1, 94, -1, -1, 97, -1, 99, -1, -1, 102, -1, -1, 105, -1, 157, 156, 119, 116, 111, -1, 113, -1, 115, -1, -1, 118, -1, -1, 147, 146, 137, 124, -1, 132, 127, -1, 129, -1, 131, -1, -1, 134, -1, 136, -1, -1, 145, 140, -1, 144, 143, -1, -1, -1, -1, -1, 155, 154, 153, 152, -1, -1, -1, -1, -1, -1, -1, 344, 251, 196, 171, 170, 165, -1, 167, -1, 169, -1, -1, -1, 185, 174, -1, 176, -1, 178, -1, 180, -1, 184, 183, -1, -1, -1, 195, 192, 189, -1, 191, -1, -1, 194, -1, -1, -1, 198, -1, 250, 241, 216, 209, 204, -1, 206, -1, 208, -1, -1, 211, -1, 213, -1, 215, -1, -1, 236, 235, 220, -1, 222, -1, 224, -1, 234, 227, -1, 233, 232, 231, -1, -1, -1, -1, -1, -1, 238, -1, 240, -1, -1, 249, 244, -1, 246, -1, 248, -1, -1, -1, -1, 263, 262, 261, 260, 259, 258, -1, -1, -1, -1, -1, -1, 303, 278, 267, -1, 269, -1, 277, 272, -1, 274, -1, 276, -1, -1, -1, 282, 281, -1, -1, 284, -1, 286, -1, 288, -1, 290, -1, 302, 293, -1, 301, 300, 297, -1, 299, -1, -1, -1, -1, -1, 313, 312, 311, 310, 309, -1, -1, -1, -1, -1, 317, 316, -1, -1, 333, 330, 321, -1, 323, -1, 329, 328, 327, -1, -1, -1, -1, 332, -1, -1, 335, -1, 337, -1, 339, -1, 341, -1, 343, -1, -1, 406, 347, -1, 377, 366, 351, -1, 363, 354, -1, 362, 361, 358, -1, 360, -1, -1, -1, -1, 365, -1, -1, 374, 369, -1, 373, 372, -1, -1, -1, 376, -1, -1, 399, 384, 381, -1, 383, -1, -1, 386, -1, 390, 389, -1, -1, 394, 393, -1, -1, 396, -1, 398, -1, -1, 401, -1, 405, 404, -1, -1, -1, 420, 409, -1, 415, 414, 413, -1, -1, -1, 417, -1, 419, -1, -1, 422, -1, 428, 425, -1, 427, -1, -1, 430, -1, 432, -1, 434, -1, -1], "feature": [76, -2, 125, -2, 223, 117, 17, 6, 0, 5, -2, -2, -2, -2, -2, 15, 120, -2, 1, -2, 12, 15, 7, -2, 8, 2, -2, 9, 4, -2, 16, -2, 115, -2, -2, -2, -2, -2, -2, 106, 5, 17, 20, -2, -2, 19, 58, 107, -2, 11, -2, -2, 223, -2, -2, -2, 115, 115, -2, -2, 11, 12, 27, -2, 4, -2, 10, -2, -2, 107, -2, 115, -2, -2, -2, 3, 8, 20, -2, -2, -2, 105, -2, 223, 8, 7, 14, 20, -2, 107, -2, -2, 20, -2, -2, 17, -2, 115, -2, -2, 2, -2, -2, 17, -2, 11, 7, 27, 14, 5, -2, 7, -2, 20, -2, -2, 7, -2, -2, 2, 20, 115, 5, -2, 7, 107, -2, 1, -2, 8, -2, -2, 107, -2, 115, -2, -2, 19, 107, -2, 7, 8, -2, -2, -2, -2, -2, 107, 14, 7, 20, -2, -2, -2, -2, -2, -2, -2, 107, 107, 17, 4, 2, 20, -2, 16, -2, 3, -2, -2, -2, 8, 8, -2, 5, -2, 27, -2, 105, -2, 7, 20, -2, -2, -2, 117, 115, 20, -2, 10, -2, -2, 16, -2, -2, -2, 4, -2, 10, 11, 1, 2, 27, -2, 16, -2, 15, -2, -2, 20, -2, 15, -2, 7, -2, -2, 7, 14, 117, -2, 106, -2, 20, -2, 27, 12, -2, 2, 115, 115, -2, -2, -2, -2, -2, -2, 15, -2, 8, -2, -2, 0, 117, -2, 8, -2, 9, -2, -2, -2, -2, 120, 7, 1, 2, 13, 27, -2, -2, -2, -2, -2, -2, 12, 2, 20, -2, 121, -2, 27, 106, -2, 15, -2, 115, -2, -2, -2, 0, 20, -2, -2, 18, -2, 1, -2, 117, -2, 4, -2, 106, 115, -2, 9, 27, 115, -2, 8, -2, -2, -2, -2, -2, 5, 16, 0, 115, 19, -2, -2, -2, -2, -2, 17, 19, -2, -2, 115, 14, 7, -2, 20, -2, 9, 27, 15, -2, -2, -2, -2, 9, -2, -2, 15, -2, 105, -2, 1, -2, 106, -2, 115, -2, -2, 8, 3, -2, 27, 9, 12, -2, 20, 1, -2, 2, 14, 115, -2, 115, -2, -2, -2, -2, 15, -2, -2, 20, 115, -2, 115, 14, -2, -2, -2, 11, -2, -2, 20, 105, 15, -2, 14, -2, -2, 106, -2, 17, 9, -2, -2, 1, 4, -2, -2, 4, -2, 19, -2, -2, 12, -2, 7, 4, -2, -2, -2, 0, 18, -2, 115, 7, 14, -2, -2, -2, 9, -2, 115, -2, -2, 58, -2, 6, 20, -2, 27, -2, -2, 15, -2, 27, -2, 2, -2, -2], "threshold": [Infinity, -2.0, Infinity, -2.0, 0.5, 0.0, 0.0, 0.0, 0.0, 0.0, -2.0, -2.0, -2.0, -2.0, -2.0, 0.5, 0.0, -2.0, 0.0, -2.0, 0.0, -0.5, -0.5, -2.0, 0.5, 0.0, -2.0, 0.0, 0.0, -2.0, 0.0, -2.0, 10918.0, -2.0, -2.0, -2.0, -2.0, -2.0, -2.0, 0.0, 0.0, 0.0, 0.5, -2.0, -2.0, 0.0, 0.0, 0.5, -2.0, 0.5, -2.0, -2.0, -0.5, -2.0, -2.0, -2.0, 5194.0, 3859.0, -2.0, -2.0, 0.5, 0.0, 0.0, -2.0, 0.0, -2.0, 0.0, -2.0, -2.0, 0.5, -2.0, 10284.5, -2.0, -2.0, -2.0, 0.0, 0.5, 0.5, -2.0, -2.0, -2.0, 0.0, -2.0, -0.5, 0.5, -0.5, -0.5, -0.5, -2.0, 0.0, -2.0, -2.0, -0.5, -2.0, -2.0, 0.0, -2.0, 2368.0, -2.0, -2.0, 0.0, -2.0, -2.0, 0.0, -2.0, 0.5, 0.5, 0.0, 0.0, 0.0, -2.0, -0.5, -2.0, 0.5, -2.0, -2.0, -0.5, -2.0, -2.0, 0.0, 0.5, 1612.0, 0.0, -2.0, -0.5, 0.5, -2.0, 0.0, -2.0, 0.5, -2.0, -2.0, 0.0, -2.0, 1147.0, -2.0, -2.0, 0.0, 0.5, -2.0, -0.5, 0.5, -2.0, -2.0, -2.0, -2.0, -2.0, -0.5, -0.5, -0.5, -0.5, -2.0, -2.0, -2.0, -2.0, -2.0, -2.0, -2.0, 0.5, -0.5, 0.0, 0.0, 0.0, -0.5, -2.0, 0.0, -2.0, 0.0, -2.0, -2.0, -2.0, 0.5, -0.5, -2.0, 0.0, -2.0, 0.0, -2.0, 0.0, -2.0, -0.5, -0.5, -2.0, -2.0, -2.0, 0.0, 4180.5, 0.0, -2.0, 0.0, -2.0, -2.0, 0.0, -2.0, -2.0, -2.0, 0.0, -2.0, 0.0, 0.5, 0.0, 0.0, 0.0, -2.0, 0.0, -2.0, 0.0, -2.0, -2.0, -0.5, -2.0, 0.0, -2.0, -0.5, -2.0, -2.0, -0.5, -0.5, 0.0, -2.0, 0.0, -2.0, -0.5, -2.0, 0.0, 0.0, -2.0, 0.0, 2258.0, 1644.0, -2.0, -2.0, -2.0, -2.0, -2.0, -2.0, 0.5, -2.0, 0.5, -2.0, -2.0, 0.0, 0.0, -2.0, 0.5, -2.0, 0.0, -2.0, -2.0, -2.0, -2.0, 0.0, -0.5, 0.0, 0.0, 0.0, 0.0, -2.0, -2.0, -2.0, -2.0, -2.0, -2.0, 0.0, 0.0, -0.5, -2.0, 0.0, -2.0, 0.0, 0.0, -2.0, 0.5, -2.0, 3876.0, -2.0, -2.0, -2.0, 0.0, 0.5, -2.0, -2.0, 0.0, -2.0, 0.0, -2.0, 0.0, -2.0, 0.0, -2.0, 0.0, 5217.5, -2.0, 0.0, 0.0, 6604.0, -2.0, 0.5, -2.0, -2.0, -2.0, -2.0, -2.0, 0.0, 0.0, 0.0, 1071.0, 0.0, -2.0, -2.0, -2.0, -2.0, -2.0, 0.0, 0.0, -2.0, -2.0, 3978.5, 0.0, -0.5, -2.0, -0.5, -2.0, 0.0, 0.0, 0.0, -2.0, -2.0, -2.0, -2.0, 0.0, -2.0, -2.0, 0.5, -2.0, 0.0, -2.0, 0.0, -2.0, 0.0, -2.0, 5841.0, -2.0, -2.0, 0.5, 0.0, -2.0, 0.0, 0.0, 0.0, -2.0, 0.5, 0.0, -2.0, 0.0, -0.5, 6620.0, -2.0, 8916.0, -2.0, -2.0, -2.0, -2.0, 0.0, -2.0, -2.0, 0.5, 5678.0, -2.0, 8022.0, -0.5, -2.0, -2.0, -2.0, 0.5, -2.0, -2.0, 0.5, 0.0, 0.0, -2.0, 0.0, -2.0, -2.0, 0.0, -2.0, 0.0, 0.0, -2.0, -2.0, 0.0, 0.0, -2.0, -2.0, 0.0, -2.0, 0.0, -2.0, -2.0, 0.0, -2.0, 0.5, 0.0, -2.0, -2.0, -2.0, 0.0, 0.0, -2.0, 7158.0, 0.5, 0.5, -2.0, -2.0, -2.0, 0.0, -2.0, 10143.0, -2.0, -2.0, 0.0, -2.0, 0.0, 0.5, -2.0, 0.0, -2.0, -2.0, 0.5, -2.0, 0.0, -2.0, 0.0, -2.0, -2.0], "value": [[0.4993619193466054, 0.5006380806533945], [0.0, 1.0], [0.7590688651794374, 0.24093113482056255], [0.0, 1.0], [0.9668890536199654, 0.033110946380034596], [0.9833395038874491, 0.016660496112550906], [0.9972451790633609, 0.0027548209366391185], [0.9945054945054945, 0.005494505494505495], [0.9921259842519685, 0.007874015748031496], [0.9629629629629629, 0.037037037037037035], [1.0, 0.0], [0.0, 1.0], [1.0, 0.0], [1.0, 0.0], [1.0, 0.0], [0.981180496150556, 0.018819503849443968], [0.9994837377387713, 0.0005162622612287042], [1.0, 0.0], [0.9994366197183099, 0.0005633802816901409], [1.0, 0.0], [0.9991095280498664, 0.0008904719501335708], [0.9982817869415808, 0.001718213058419244], [0.9975490196078431, 0.0024509803921568627], [1.0, 0.0], [0.9940476190476191, 0.005952380952380952], [0.9912280701754386, 0.008771929824561403], [1.0, 0.0], [0.9846153846153847, 0.015384615384615385], [0.9743589743589743, 0.02564102564102564], [1.0, 0.0], [0.9714285714285714, 0.02857142857142857], [1.0, 0.0], [0.9705882352941176, 0.029411764705882353], [1.0, 0.0], [0.0, 1.0], [1.0, 0.0], [1.0, 0.0], [1.0, 0.0], [1.0, 0.0], [0.8927680798004988, 0.10723192019950124], [0.8952380952380953, 0.10476190476190476], [0.78125, 0.21875], [0.9090909090909091, 0.09090909090909091], [1.0, 0.0], [0.0, 1.0], [0.7142857142857143, 0.2857142857142857], [0.45454545454545453, 0.5454545454545454], [0.6, 0.4], [1.0, 0.0], [0.3333333333333333, 0.6666666666666666], [1.0, 0.0], [0.0, 1.0], [0.3333333333333333, 0.6666666666666666], [0.0, 1.0], [1.0, 0.0], [1.0, 0.0], [0.9452054794520548, 0.0547945205479452], [0.3333333333333333, 0.6666666666666666], [1.0, 0.0], [0.0, 1.0], [0.9714285714285714, 0.02857142857142857], [0.9622641509433962, 0.03773584905660377], [0.9615384615384616, 0.038461538461538464], [1.0, 0.0], [0.8571428571428571, 0.14285714285714285], [1.0, 0.0], [0.5, 0.5], [1.0, 0.0], [0.0, 1.0], [0.9629629629629629, 0.037037037037037035], [1.0, 0.0], [0.5, 0.5], [1.0, 0.0], [0.0, 1.0], [1.0, 0.0], [0.8918918918918919, 0.10810810810810811], [0.8260869565217391, 0.17391304347826086], [0.6666666666666666, 0.3333333333333333], [1.0, 0.0], [0.0, 1.0], [1.0, 0.0], [0.8974358974358975, 0.10256410256410256], [1.0, 0.0], [0.8955223880597015, 0.1044776119402985], [0.5555555555555556, 0.4444444444444444], [0.5, 0.5], [0.8333333333333334, 0.16666666666666666], [0.9, 0.1], [1.0, 0.0], [0.5, 0.5], [1.0, 0.0], [0.0, 1.0], [0.5, 0.5], [1.0, 0.0], [0.0, 1.0], [0.2777777777777778, 0.7222222222222222], [0.0, 1.0], [0.3333333333333333, 0.6666666666666666], [1.0, 0.0], [0.0, 1.0], [0.8333333333333334, 0.16666666666666666], [0.0, 1.0], [1.0, 0.0], [0.9482758620689655, 0.05172413793103448], [1.0, 0.0], [0.9439252336448598, 0.056074766355140186], [0.9425837320574163, 0.05741626794258373], [0.9333333333333333, 0.06666666666666667], [0.9705882352941176, 0.029411764705882353], [0.9795918367346939, 0.02040816326530612], [1.0, 0.0], [0.9777777777777777, 0.022222222222222223], [1.0, 0.0], [0.9310344827586207, 0.06896551724137931], [1.0, 0.0], [0.0, 1.0], [0.75, 0.25], [1.0, 0.0], [0.0, 1.0], [0.8846153846153846, 0.11538461538461539], [0.8852459016393442, 0.11475409836065574], [0.9, 0.1], [0.7647058823529411, 0.23529411764705882], [1.0, 0.0], [0.7142857142857143, 0.2857142857142857], [0.75, 0.25], [1.0, 0.0], [0.7142857142857143, 0.2857142857142857], [1.0, 0.0], [0.5, 0.5], [1.0, 0.0], [0.0, 1.0], [0.6666666666666666, 0.3333333333333333], [1.0, 0.0], [0.5, 0.5], [1.0, 0.0], [0.0, 1.0], [0.9534883720930233, 0.046511627906976744], [0.95, 0.05], [1.0, 0.0], [0.9090909090909091, 0.09090909090909091], [0.8571428571428571, 0.14285714285714285], [1.0, 0.0], [0.0, 1.0], [1.0, 0.0], [1.0, 0.0], [0.0, 1.0], [0.8823529411764706, 0.11764705882352941], [0.75, 0.25], [0.7142857142857143, 0.2857142857142857], [0.3333333333333333, 0.6666666666666666], [1.0, 0.0], [0.0, 1.0], [1.0, 0.0], [1.0, 0.0], [1.0, 0.0], [1.0, 0.0], [1.0, 0.0], [0.9338781575037147, 0.06612184249628529], [0.9640221402214022, 0.035977859778597784], [0.9553903345724907, 0.04460966542750929], [0.9069767441860465, 0.09302325581395349], [0.9545454545454546, 0.045454545454545456], [0.9230769230769231, 0.07692307692307693], [1.0, 0.0], [0.6666666666666666, 0.3333333333333333], [1.0, 0.0], [0.5, 0.5], [1.0, 0.0], [0.0, 1.0], [1.0, 0.0], [0.890625, 0.109375], [0.9696969696969697, 0.030303030303030304], [1.0, 0.0], [0.95, 0.05], [1.0, 0.0], [0.9285714285714286, 0.07142857142857142], [1.0, 0.0], [0.9166666666666666, 0.08333333333333333], [1.0, 0.0], [0.9, 0.1], [0.6666666666666666, 0.3333333333333333], [1.0, 0.0], [0.0, 1.0], [1.0, 0.0], [0.8064516129032258, 0.1935483870967742], [0.6842105263157895, 0.3157894736842105], [0.8571428571428571, 0.14285714285714285], [1.0, 0.0], [0.5, 0.5], [1.0, 0.0], [0.0, 1.0], [0.2, 0.8], [1.0, 0.0], [0.0, 1.0], [1.0, 0.0], [0.9646017699115044, 0.035398230088495575], [1.0, 0.0], [0.9501557632398754, 0.04984423676012461], [0.9651898734177216, 0.03481012658227848], [0.96875, 0.03125], [0.918918918918919, 0.08108108108108109], [0.9024390243902439, 0.0975609756097561], [1.0, 0.0], [0.5, 0.5], [1.0, 0.0], [0.42857142857142855, 0.5714285714285714], [1.0, 0.0], [0.0, 1.0], [0.9393939393939394, 0.06060606060606061], [1.0, 0.0], [0.9333333333333333, 0.06666666666666667], [1.0, 0.0], [0.75, 0.25], [1.0, 0.0], [0.0, 1.0], [0.985981308411215, 0.014018691588785047], [0.9921875, 0.0078125], [0.990990990990991, 0.009009009009009009], [1.0, 0.0], [0.9908256880733946, 0.009174311926605505], [1.0, 0.0], [0.9818181818181818, 0.01818181818181818], [1.0, 0.0], [0.9743589743589743, 0.02564102564102564], [0.9642857142857143, 0.03571428571428571], [1.0, 0.0], [0.8571428571428571, 0.14285714285714285], [0.8333333333333334, 0.16666666666666666], [0.6666666666666666, 0.3333333333333333], [1.0, 0.0], [0.0, 1.0], [1.0, 0.0], [1.0, 0.0], [1.0, 0.0], [1.0, 0.0], [0.9767441860465116, 0.023255813953488372], [1.0, 0.0], [0.6, 0.4], [1.0, 0.0], [0.0, 1.0], [0.9285714285714286, 0.07142857142857142], [0.8823529411764706, 0.11764705882352941], [1.0, 0.0], [0.8, 0.2], [1.0, 0.0], [0.75, 0.25], [1.0, 0.0], [0.0, 1.0], [1.0, 0.0], [0.0, 1.0], [0.9725274725274725, 0.027472527472527472], [0.99375, 0.00625], [0.9827586206896551, 0.017241379310344827], [0.9655172413793104, 0.034482758620689655], [0.9444444444444444, 0.05555555555555555], [0.8571428571428571, 0.14285714285714285], [0.0, 1.0], [1.0, 0.0], [1.0, 0.0], [1.0, 0.0], [1.0, 0.0], [1.0, 0.0], [0.9637305699481865, 0.03626943005181347], [0.9776536312849162, 0.0223463687150838], [0.9830508474576272, 0.01694915254237288], [1.0, 0.0], [0.9777777777777777, 0.022222222222222223], [1.0, 0.0], [0.975609756097561, 0.024390243902439025], [0.9642857142857143, 0.03571428571428571], [1.0, 0.0], [0.9375, 0.0625], [1.0, 0.0], [0.6666666666666666, 0.3333333333333333], [0.0, 1.0], [1.0, 0.0], [1.0, 0.0], [0.975, 0.025], [0.9, 0.1], [1.0, 0.0], [0.0, 1.0], [0.9818181818181818, 0.01818181818181818], [1.0, 0.0], [0.981651376146789, 0.01834862385321101], [1.0, 0.0], [0.978494623655914, 0.021505376344086023], [1.0, 0.0], [0.9775280898876404, 0.02247191011235955], [1.0, 0.0], [0.9666666666666667, 0.03333333333333333], [0.95, 0.05], [0.0, 1.0], [0.9743589743589743, 0.02564102564102564], [0.9565217391304348, 0.043478260869565216], [0.8, 0.2], [1.0, 0.0], [0.6666666666666666, 0.3333333333333333], [1.0, 0.0], [0.0, 1.0], [1.0, 0.0], [1.0, 0.0], [1.0, 0.0], [0.9516908212560387, 0.04830917874396135], [0.9722222222222222, 0.027777777777777776], [0.9629629629629629, 0.037037037037037035], [0.9565217391304348, 0.043478260869565216], [0.75, 0.25], [0.0, 1.0], [1.0, 0.0], [1.0, 0.0], [1.0, 0.0], [1.0, 0.0], [0.9473684210526315, 0.05263157894736842], [0.8571428571428571, 0.14285714285714285], [1.0, 0.0], [0.0, 1.0], [0.9512195121951219, 0.04878048780487805], [0.7407407407407407, 0.25925925925925924], [0.7391304347826086, 0.2608695652173913], [1.0, 0.0], [0.5714285714285714, 0.42857142857142855], [1.0, 0.0], [0.14285714285714285, 0.8571428571428571], [0.2, 0.8], [0.5, 0.5], [1.0, 0.0], [0.0, 1.0], [0.0, 1.0], [0.0, 1.0], [0.75, 0.25], [1.0, 0.0], [0.0, 1.0], [0.9927007299270073, 0.0072992700729927005], [1.0, 0.0], [0.967741935483871, 0.03225806451612903], [1.0, 0.0], [0.9642857142857143, 0.03571428571428571], [1.0, 0.0], [0.9615384615384616, 0.038461538461538464], [1.0, 0.0], [0.9285714285714286, 0.07142857142857142], [0.0, 1.0], [1.0, 0.0], [0.8091603053435115, 0.19083969465648856], [0.7571428571428571, 0.24285714285714285], [1.0, 0.0], [0.746268656716418, 0.2537313432835821], [0.6511627906976745, 0.3488372093023256], [0.6857142857142857, 0.3142857142857143], [1.0, 0.0], [0.3888888888888889, 0.6111111111111112], [0.5454545454545454, 0.45454545454545453], [1.0, 0.0], [0.375, 0.625], [0.2857142857142857, 0.7142857142857143], [0.4, 0.6], [1.0, 0.0], [0.25, 0.75], [0.0, 1.0], [1.0, 0.0], [0.0, 1.0], [1.0, 0.0], [0.14285714285714285, 0.8571428571428571], [1.0, 0.0], [0.0, 1.0], [0.5, 0.5], [0.5, 0.5], [1.0, 0.0], [0.25, 0.75], [0.5, 0.5], [1.0, 0.0], [0.0, 1.0], [0.0, 1.0], [0.5, 0.5], [1.0, 0.0], [0.0, 1.0], [0.7912087912087912, 0.2087912087912088], [0.922077922077922, 0.07792207792207792], [0.875, 0.125], [1.0, 0.0], [0.6666666666666666, 0.3333333333333333], [1.0, 0.0], [0.0, 1.0], [0.9344262295081968, 0.06557377049180328], [1.0, 0.0], [0.8974358974358975, 0.10256410256410256], [0.6666666666666666, 0.3333333333333333], [0.0, 1.0], [1.0, 0.0], [0.9166666666666666, 0.08333333333333333], [0.6666666666666666, 0.3333333333333333], [1.0, 0.0], [0.0, 1.0], [0.9666666666666667, 0.03333333333333333], [1.0, 0.0], [0.9583333333333334, 0.041666666666666664], [1.0, 0.0], [0.0, 1.0], [0.07142857142857142, 0.9285714285714286], [0.0, 1.0], [0.14285714285714285, 0.8571428571428571], [0.25, 0.75], [1.0, 0.0], [0.0, 1.0], [0.0, 1.0], [0.8688524590163934, 0.13114754098360656], [0.7777777777777778, 0.2222222222222222], [1.0, 0.0], [0.4, 0.6], [0.16666666666666666, 0.8333333333333334], [0.25, 0.75], [1.0, 0.0], [0.0, 1.0], [0.0, 1.0], [0.75, 0.25], [1.0, 0.0], [0.6666666666666666, 0.3333333333333333], [1.0, 0.0], [0.0, 1.0], [0.8947368421052632, 0.10526315789473684], [1.0, 0.0], [0.8863636363636364, 0.11363636363636363], [0.9523809523809523, 0.047619047619047616], [1.0, 0.0], [0.75, 0.25], [0.0, 1.0], [1.0, 0.0], [0.8656716417910447, 0.13432835820895522], [1.0, 0.0], [0.18181818181818182, 0.8181818181818182], [0.0, 1.0], [0.25, 0.75], [0.0, 1.0], [1.0, 0.0]], "impurity": [0.49999918570615953, 0.0, 0.3657666461892769, 0.0, 0.06402922321970617, 0.032765847963669215, 0.0054944637964923215, 0.01092863180775272, 0.015624031248062442, 0.07133058984910834, 0.0, 0.0, 0.0, 0.0, 0.0, 0.03693066024860947, 0.001031991469012672, 0.0, 0.0011261257686966397, 0.0, 0.0017793580196792114, 0.003430521604610215, 0.004889946174548299, 0.0, 0.011833900226757343, 0.017389966143428692, 0.0, 0.030295857988165698, 0.04996712689020377, 0.0, 0.05551020408163265, 0.0, 0.05709342560553632, 0.0, 0.0, 0.0, 0.0, 0.0, 0.0, 0.19146647097965808, 0.18757369614512476, 0.341796875, 0.1652892561983471, 0.0, 0.0, 0.40816326530612246, 0.49586776859504134, 0.48, 0.0, 0.4444444444444444, 0.0, 0.0, 0.4444444444444444, 0.0, 0.0, 0.0, 0.10358416213173205, 0.4444444444444444, 0.0, 0.0, 0.05551020408163265, 0.07262370950516195, 0.07396449704142016, 0.0, 0.24489795918367352, 0.0, 0.5, 0.0, 0.0, 0.07133058984910834, 0.0, 0.5, 0.0, 0.0, 0.0, 0.19284149013878749, 0.2873345935727788, 0.4444444444444444, 0.0, 0.0, 0.0, 0.1840894148586456, 0.0, 0.18712408108710177, 0.49382716049382713, 0.5, 0.2777777777777778, 0.18000000000000005, 0.0, 0.5, 0.0, 0.0, 0.5, 0.0, 0.0, 0.4012345679012346, 0.0, 0.4444444444444444, 0.0, 0.0, 0.2777777777777778, 0.0, 0.0, 0.09809750297265163, 0.0, 0.10586077386671322, 0.10823928023625828, 0.12444444444444447, 0.05709342560553632, 0.03998334027488548, 0.0, 0.04345679012345682, 0.0, 0.1284185493460166, 0.0, 0.0, 0.375, 0.0, 0.0, 0.20414201183431957, 0.2031711905401774, 0.18000000000000005, 0.3598615916955017, 0.0, 0.40816326530612246, 0.375, 0.0, 0.40816326530612246, 0.0, 0.5, 0.0, 0.0, 0.4444444444444444, 0.0, 0.5, 0.0, 0.0, 0.08869659275283936, 0.09499999999999997, 0.0, 0.1652892561983471, 0.24489795918367352, 0.0, 0.0, 0.0, 0.0, 0.0, 0.2076124567474048, 0.375, 0.40816326530612246, 0.4444444444444444, 0.0, 0.0, 0.0, 0.0, 0.0, 0.0, 0.0, 0.1234994888823635, 0.06936690676869872, 0.08523928635590994, 0.16873985938345049, 0.08677685950413228, 0.14201183431952658, 0.0, 0.4444444444444444, 0.0, 0.5, 0.0, 0.0, 0.0, 0.19482421875, 0.058769513314967825, 0.0, 0.09499999999999997, 0.0, 0.13265306122448983, 0.0, 0.1527777777777778, 0.0, 0.18000000000000005, 0.4444444444444444, 0.0, 0.0, 0.0, 0.3121748178980229, 0.43213296398891965, 0.24489795918367352, 0.0, 0.5, 0.0, 0.0, 0.31999999999999995, 0.0, 0.0, 0.0, 0.06829039079019505, 0.0, 0.09471957764385053, 0.06719676333920843, 0.060546875, 0.1490138787436085, 0.17608566329565734, 0.0, 0.5, 0.0, 0.4897959183673469, 0.0, 0.0, 0.1138659320477502, 0.0, 0.12444444444444447, 0.0, 0.375, 0.0, 0.0, 0.02764433574984715, 0.0155029296875, 0.017855693531369177, 0.0, 0.01818028785455772, 0.0, 0.03570247933884296, 0.0, 0.04996712689020377, 0.06887755102040816, 0.0, 0.24489795918367352, 0.2777777777777778, 0.4444444444444444, 0.0, 0.0, 0.0, 0.0, 0.0, 0.0, 0.045429962141698255, 0.0, 0.48, 0.0, 0.0, 0.13265306122448983, 0.2076124567474048, 0.0, 0.31999999999999995, 0.0, 0.375, 0.0, 0.0, 0.0, 0.0, 0.05343557541359745, 0.012421875000000027, 0.03388822829964333, 0.06658739595719376, 0.1049382716049383, 0.24489795918367352, 0.0, 0.0, 0.0, 0.0, 0.0, 0.0, 0.06990791699106014, 0.043694017040666666, 0.03332375754093653, 0.0, 0.04345679012345682, 0.0, 0.04759071980963714, 0.06887755102040816, 0.0, 0.1171875, 0.0, 0.4444444444444444, 0.0, 0.0, 0.0, 0.04874999999999996, 0.18000000000000005, 0.0, 0.0, 0.03570247933884296, 0.0, 0.03602390371180875, 0.0, 0.04208579026477044, 0.0, 0.04393384673652312, 0.0, 0.06444444444444442, 0.09499999999999997, 0.0, 0.04996712689020377, 0.08317580340264652, 0.31999999999999995, 0.0, 0.4444444444444444, 0.0, 0.0, 0.0, 0.0, 0.0, 0.09195080398609068, 0.054012345679012363, 0.07133058984910834, 0.08317580340264652, 0.375, 0.0, 0.0, 0.0, 0.0, 0.0, 0.09972299168975074, 0.24489795918367352, 0.0, 0.0, 0.09280190362879237, 0.3840877914951989, 0.3856332703213611, 0.0, 0.4897959183673469, 0.0, 0.24489795918367352, 0.31999999999999995, 0.5, 0.0, 0.0, 0.0, 0.0, 0.375, 0.0, 0.0, 0.014491981458788383, 0.0, 0.06243496357960454, 0.0, 0.06887755102040816, 0.0, 0.07396449704142016, 0.0, 0.13265306122448983, 0.0, 0.0, 0.3088398111998135, 0.3677551020408163, 0.0, 0.3787034974381822, 0.4542996214169821, 0.43102040816326526, 0.0, 0.47530864197530864, 0.49586776859504134, 0.0, 0.46875, 0.40816326530612246, 0.48, 0.0, 0.375, 0.0, 0.0, 0.0, 0.0, 0.24489795918367352, 0.0, 0.0, 0.5, 0.5, 0.0, 0.375, 0.5, 0.0, 0.0, 0.0, 0.5, 0.0, 0.0, 0.33039487984542926, 0.14370045538876708, 0.21875, 0.0, 0.4444444444444444, 0.0, 0.0, 0.1225477022305832, 0.0, 0.1840894148586456, 0.4444444444444444, 0.0, 0.0, 0.1527777777777778, 0.4444444444444444, 0.0, 0.0, 0.06444444444444442, 0.0, 0.07986111111111116, 0.0, 0.0, 0.13265306122448983, 0.0, 0.24489795918367352, 0.375, 0.0, 0.0, 0.0, 0.22789572695511962, 0.345679012345679, 0.0, 0.48, 0.2777777777777778, 0.375, 0.0, 0.0, 0.0, 0.375, 0.0, 0.4444444444444444, 0.0, 0.0, 0.18836565096952906, 0.0, 0.20144628099173556, 0.09070294784580502, 0.0, 0.375, 0.0, 0.0, 0.23256850077968372, 0.0, 0.2975206611570248, 0.0, 0.375, 0.0, 0.0]}, {"node_count": 399, "children_left": [1, 2, 3, 4, 5, 6, 7, -1, 9, -1, 11, -1, 13, -1, 15, -1, -1, 18, 19, 20, -1, -1, -1, -1, 25, 26, 27, -1, 29, -1, -1, -1, 33, 34, -1, 36, -1, 38, -1, -1, 41, 42, -1, 44, -1, -1, 47, -1, 49, 50, -1, -1, -1, 54, -1, 56, -1, 58, 59, 60, -1, -1, -1, -1, 65, 66, 67, 68, -1, 70, -1, 72, 73, 74, -1, 76, -1, -1, -1, -1, 81, 82, -1, 84, -1, 86, 87, -1, -1, -1, -1, 92, 93, 94, 95, -1, -1, -1, 99, -1, 101, -1, -1, 104, 105, 106, -1, -1, -1, 110, -1, -1, 113, 114, 115, 116, 117, 118, -1, 120, 121, 122, 123, -1, 125, 126, -1, -1, -1, -1, -1, 132, -1, -1, 135, -1, 137, -1, -1, 140, -1, -1, 143, -1, -1, -1, 147, -1, 149, 150, -1, -1, 153, 154, -1, 156, 157, -1, 159, -1, 161, -1, 163, 164, 165, -1, 167, -1, 169, -1, -1, 172, -1, 174, -1, -1, -1, -1, 179, -1, 181, 182, 183, -1, 185, -1, 187, -1, 189, 190, 191, 192, 193, -1, 195, 196, 197, -1, 199, -1, 201, -1, 203, -1, 205, -1, -1, -1, -1, -1, -1, -1, -1, 214, 215, -1, -1, 218, 219, -1, 221, 222, 223, -1, 225, -1, 227, -1, -1, 230, -1, -1, -1, -1, 235, 236, -1, 238, 239, -1, 241, 242, 243, 244, 245, 246, -1, 248, 249, 250, -1, -1, -1, 254, 255, -1, 257, -1, 259, -1, 261, -1, -1, -1, -1, -1, 267, -1, -1, 270, 271, -1, -1, 274, 275, 276, -1, 278, -1, 280, -1, -1, -1, -1, -1, 286, 287, 288, -1, 290, -1, 292, -1, 294, -1, -1, 297, -1, -1, 300, 301, 302, 303, -1, -1, -1, -1, -1, 309, -1, 311, 312, -1, 314, -1, 316, -1, -1, 319, 320, 321, 322, 323, 324, -1, 326, -1, -1, -1, 330, 331, -1, 333, -1, 335, -1, 337, -1, 339, -1, -1, 342, -1, 344, -1, 346, -1, 348, -1, -1, 351, -1, 353, -1, 355, -1, 357, -1, 359, 360, -1, -1, -1, 364, 365, 366, -1, 368, -1, -1, -1, 372, -1, 374, 375, -1, 377, 378, -1, 380, -1, -1, -1, -1, 385, -1, 387, 388, 389, -1, -1, 392, 393, -1, -1, -1, -1, -1, -1], "children_right": [398, 397, 64, 53, 24, 17, 8, -1, 10, -1, 12, -1, 14, -1, 16, -1, -1, 23, 22, 21, -1, -1, -1, -1, 32, 31, 28, -1, 30, -1, -1, -1, 40, 35, -1, 37, -1, 39, -1, -1, 46, 43, -1, 45, -1, -1, 48, -1, 52, 51, -1, -1, -1, 55, -1, 57, -1, 63, 62, 61, -1, -1, -1, -1, 112, 91, 80, 69, -1, 71, -1, 79, 78, 75, -1, 77, -1, -1, -1, -1, 90, 83, -1, 85, -1, 89, 88, -1, -1, -1, -1, 103, 98, 97, 96, -1, -1, -1, 100, -1, 102, -1, -1, 109, 108, 107, -1, -1, -1, 111, -1, -1, 146, 145, 142, 139, 134, 119, -1, 131, 130, 129, 124, -1, 128, 127, -1, -1, -1, -1, -1, 133, -1, -1, 136, -1, 138, -1, -1, 141, -1, -1, 144, -1, -1, -1, 148, -1, 152, 151, -1, -1, 178, 155, -1, 177, 158, -1, 160, -1, 162, -1, 176, 171, 166, -1, 168, -1, 170, -1, -1, 173, -1, 175, -1, -1, -1, -1, 180, -1, 234, 213, 184, -1, 186, -1, 188, -1, 212, 211, 210, 209, 194, -1, 208, 207, 198, -1, 200, -1, 202, -1, 204, -1, 206, -1, -1, -1, -1, -1, -1, -1, -1, 217, 216, -1, -1, 233, 220, -1, 232, 229, 224, -1, 226, -1, 228, -1, -1, 231, -1, -1, -1, -1, 308, 237, -1, 285, 240, -1, 284, 269, 266, 265, 264, 247, -1, 253, 252, 251, -1, -1, -1, 263, 256, -1, 258, -1, 260, -1, 262, -1, -1, -1, -1, -1, 268, -1, -1, 273, 272, -1, -1, 283, 282, 277, -1, 279, -1, 281, -1, -1, -1, -1, -1, 299, 296, 289, -1, 291, -1, 293, -1, 295, -1, -1, 298, -1, -1, 307, 306, 305, 304, -1, -1, -1, -1, -1, 310, -1, 318, 313, -1, 315, -1, 317, -1, -1, 384, 363, 350, 329, 328, 325, -1, 327, -1, -1, -1, 341, 332, -1, 334, -1, 336, -1, 338, -1, 340, -1, -1, 343, -1, 345, -1, 347, -1, 349, -1, -1, 352, -1, 354, -1, 356, -1, 358, -1, 362, 361, -1, -1, -1, 371, 370, 367, -1, 369, -1, -1, -1, 373, -1, 383, 376, -1, 382, 379, -1, 381, -1, -1, -1, -1, 386, -1, 396, 391, 390, -1, -1, 395, 394, -1, -1, -1, -1, -1, -1], "feature": [1, 10, 105, 11, 107, 106, 121, -2, 4, -2, 12, -2, 223, -2, 14, -2, -2, 7, 5, 27, -2, -2, -2, -2, 106, 58, 12, -2, 3, -2, -2, -2, 27, 120, -2, 223, -2, 115, -2, -2, 12, 17, -2, 14, -2, -2, 223, -2, 3, 15, -2, -2, -2, 15, -2, 3, -2, 9, 2, 12, -2, -2, -2, -2, 16, 15, 9, 120, -2, 4, -2, 14, 0, 223, -2, 7, -2, -2, -2, -2, 4, 18, -2, 12, -2, 19, 7, -2, -2, -2, -2, 1, 7, 19, 27, -2, -2, -2, 8, -2, 107, -2, -2, 223, 27, 223, -2, -2, -2, 58, -2, -2, 3, 120, 11, 20, 115, 27, -2, 19, 6, 18, 4, -2, 107, 15, -2, -2, -2, -2, -2, 20, -2, -2, 12, -2, 19, -2, -2, 6, -2, -2, 107, -2, -2, -2, 121, -2, 13, 6, -2, -2, 4, 106, -2, 8, 58, -2, 117, -2, 8, -2, 2, 19, 9, -2, 17, -2, 223, -2, -2, 15, -2, 7, -2, -2, -2, -2, 58, -2, 106, 15, 7, -2, 120, -2, 107, -2, 9, 11, 14, 27, 5, -2, 7, 15, 17, -2, 115, -2, 8, -2, 115, -2, 223, -2, -2, -2, -2, -2, -2, -2, -2, 5, 7, -2, -2, 7, 27, -2, 19, 14, 12, -2, 20, -2, 8, -2, -2, 12, -2, -2, -2, -2, 27, 5, -2, 14, 1, -2, 115, 9, 20, 8, 2, 8, -2, 223, 7, 115, -2, -2, -2, 11, 20, -2, 15, -2, 107, -2, 115, -2, -2, -2, -2, -2, 18, -2, -2, 115, 115, -2, -2, 12, 223, 20, -2, 115, -2, 20, -2, -2, -2, -2, -2, 107, 223, 20, -2, 7, -2, 223, -2, 19, -2, -2, 18, -2, -2, 7, 115, 2, 15, -2, -2, -2, -2, -2, 117, -2, 17, 20, -2, 15, -2, 223, -2, -2, 2, 8, 7, 1, 19, 107, -2, 223, -2, -2, -2, 115, 107, -2, 20, -2, 5, -2, 223, -2, 19, -2, -2, 8, -2, 12, -2, 107, -2, 14, -2, -2, 5, -2, 1, -2, 8, -2, 15, -2, 19, 223, -2, -2, -2, 7, 14, 15, -2, 107, -2, -2, -2, 0, -2, 9, 120, -2, 14, 20, -2, 223, -2, -2, -2, -2, 15, -2, 8, 115, 12, -2, -2, 7, 107, -2, -2, -2, -2, -2, -2], "threshold": [Infinity, 0.0, 0.0, 0.5, 0.5, 0.0, 0.0, -2.0, 0.0, -2.0, 0.0, -2.0, 0.5, -2.0, -0.5, -2.0, -2.0, -0.5, 0.0, 0.0, -2.0, -2.0, -2.0, -2.0, 0.0, 0.0, 0.0, -2.0, 0.0, -2.0, -2.0, -2.0, 0.0, 0.0, -2.0, 0.5, -2.0, 5361.5, -2.0, -2.0, 0.0, 0.0, -2.0, 0.0, -2.0, -2.0, 0.5, -2.0, 0.0, 0.0, -2.0, -2.0, -2.0, 0.5, -2.0, 0.0, -2.0, 0.0, 0.0, 0.0, -2.0, -2.0, -2.0, -2.0, 0.0, 0.5, 0.0, 0.0, -2.0, 0.0, -2.0, 0.0, 0.0, 0.5, -2.0, -0.5, -2.0, -2.0, -2.0, -2.0, 0.0, 0.0, -2.0, 0.0, -2.0, 0.0, -0.5, -2.0, -2.0, -2.0, -2.0, 0.0, 0.5, 0.0, 0.0, -2.0, -2.0, -2.0, 0.5, -2.0, 0.0, -2.0, -2.0, 0.5, 0.0, -0.5, -2.0, -2.0, -2.0, 0.0, -2.0, -2.0, 0.0, 0.0, 0.5, 0.5, 10371.0, 0.0, -2.0, 0.0, 0.0, 0.0, 0.0, -2.0, -0.5, 0.0, -2.0, -2.0, -2.0, -2.0, -2.0, -0.5, -2.0, -2.0, 0.0, -2.0, 0.0, -2.0, -2.0, 0.0, -2.0, -2.0, 0.5, -2.0, -2.0, -2.0, 0.0, -2.0, 0.0, 0.0, -2.0, -2.0, 0.0, 0.0, -2.0, 0.5, 0.0, -2.0, 0.0, -2.0, -0.5, -2.0, 0.0, -0.5, 0.0, -2.0, 0.0, -2.0, -0.5, -2.0, -2.0, 0.5, -2.0, -0.5, -2.0, -2.0, -2.0, -2.0, 0.0, -2.0, 0.0, 0.5, -0.5, -2.0, 0.0, -2.0, -0.5, -2.0, 0.0, 0.5, -0.5, 0.0, 0.0, -2.0, 0.5, -0.5, 0.0, -2.0, 5426.0, -2.0, 0.5, -2.0, 6604.0, -2.0, 0.5, -2.0, -2.0, -2.0, -2.0, -2.0, -2.0, -2.0, -2.0, 0.0, 0.0, -2.0, -2.0, -0.5, 0.0, -2.0, 0.0, -0.5, 0.0, -2.0, -0.5, -2.0, 0.5, -2.0, -2.0, 0.0, -2.0, -2.0, -2.0, -2.0, 0.0, 0.0, -2.0, -0.5, 0.0, -2.0, 10450.0, 0.0, 0.5, 0.5, 0.0, -0.5, -2.0, -0.5, -0.5, 8233.5, -2.0, -2.0, -2.0, 0.5, -0.5, -2.0, 0.5, -2.0, 0.5, -2.0, 6712.5, -2.0, -2.0, -2.0, -2.0, -2.0, 0.0, -2.0, -2.0, 763.5, 466.0, -2.0, -2.0, 0.0, -0.5, -0.5, -2.0, 4960.5, -2.0, 0.5, -2.0, -2.0, -2.0, -2.0, -2.0, 0.5, 0.5, -0.5, -2.0, -0.5, -2.0, -0.5, -2.0, 0.0, -2.0, -2.0, 0.0, -2.0, -2.0, 0.5, 6334.0, 0.0, 0.0, -2.0, -2.0, -2.0, -2.0, -2.0, 0.0, -2.0, 0.0, -0.5, -2.0, 0.5, -2.0, 0.5, -2.0, -2.0, 0.0, 0.5, 0.5, 0.0, 0.0, 0.5, -2.0, 0.5, -2.0, -2.0, -2.0, 9666.5, 0.5, -2.0, -0.5, -2.0, 0.0, -2.0, 0.5, -2.0, 0.0, -2.0, -2.0, -0.5, -2.0, 0.0, -2.0, 0.5, -2.0, -0.5, -2.0, -2.0, 0.0, -2.0, 0.0, -2.0, -0.5, -2.0, 0.5, -2.0, 0.0, 0.5, -2.0, -2.0, -2.0, -0.5, 0.0, 0.5, -2.0, 0.5, -2.0, -2.0, -2.0, 0.0, -2.0, 0.0, 0.0, -2.0, 0.0, -0.5, -2.0, 0.5, -2.0, -2.0, -2.0, -2.0, 0.5, -2.0, 0.5, 2443.5, 0.0, -2.0, -2.0, -0.5, -0.5, -2.0, -2.0, -2.0, -2.0, -2.0, -2.0], "value": [[0.4997447677386422, 0.5002552322613578], [0.9652452551146167, 0.03475474488538329], [0.9753424657534246, 0.024657534246575342], [0.9774436090225563, 0.022556390977443608], [0.9759704251386322, 0.024029574861367836], [0.9954853273137697, 0.004514672686230248], [0.9953917050691244, 0.004608294930875576], [1.0, 0.0], [0.99, 0.01], [1.0, 0.0], [0.9863013698630136, 0.0136986301369863], [1.0, 0.0], [0.9714285714285714, 0.02857142857142857], [1.0, 0.0], [0.96, 0.04], [1.0, 0.0], [0.0, 1.0], [0.995575221238938, 0.004424778761061947], [0.9777777777777777, 0.022222222222222223], [0.6666666666666666, 0.3333333333333333], [0.0, 1.0], [1.0, 0.0], [1.0, 0.0], [1.0, 0.0], [0.8877551020408163, 0.11224489795918367], [0.9473684210526315, 0.05263157894736842], [0.8, 0.2], [1.0, 0.0], [0.4, 0.6], [1.0, 0.0], [0.0, 1.0], [1.0, 0.0], [0.8048780487804879, 0.1951219512195122], [0.9444444444444444, 0.05555555555555555], [1.0, 0.0], [0.9, 0.1], [1.0, 0.0], [0.6666666666666666, 0.3333333333333333], [0.0, 1.0], [1.0, 0.0], [0.6956521739130435, 0.30434782608695654], [0.2857142857142857, 0.7142857142857143], [1.0, 0.0], [0.16666666666666666, 0.8333333333333334], [1.0, 0.0], [0.0, 1.0], [0.875, 0.125], [1.0, 0.0], [0.7777777777777778, 0.2222222222222222], [0.5, 0.5], [1.0, 0.0], [0.0, 1.0], [1.0, 0.0], [0.9838709677419355, 0.016129032258064516], [1.0, 0.0], [0.8888888888888888, 0.1111111111111111], [1.0, 0.0], [0.875, 0.125], [0.7142857142857143, 0.2857142857142857], [0.6666666666666666, 0.3333333333333333], [1.0, 0.0], [0.0, 1.0], [1.0, 0.0], [1.0, 0.0], [0.9749253731343284, 0.02507462686567164], [0.9523809523809523, 0.047619047619047616], [0.9914529914529915, 0.008547008547008548], [0.9947916666666666, 0.005208333333333333], [1.0, 0.0], [0.9894736842105263, 0.010526315789473684], [1.0, 0.0], [0.9833333333333333, 0.016666666666666666], [0.975609756097561, 0.024390243902439025], [0.9642857142857143, 0.03571428571428571], [1.0, 0.0], [0.75, 0.25], [1.0, 0.0], [0.0, 1.0], [1.0, 0.0], [1.0, 0.0], [0.9761904761904762, 0.023809523809523808], [0.9565217391304348, 0.043478260869565216], [1.0, 0.0], [0.9375, 0.0625], [1.0, 0.0], [0.9230769230769231, 0.07692307692307693], [0.6666666666666666, 0.3333333333333333], [1.0, 0.0], [0.0, 1.0], [1.0, 0.0], [1.0, 0.0], [0.717948717948718, 0.28205128205128205], [0.7083333333333334, 0.2916666666666667], [0.8333333333333334, 0.16666666666666666], [0.625, 0.375], [0.0, 1.0], [1.0, 0.0], [1.0, 0.0], [0.3333333333333333, 0.6666666666666666], [1.0, 0.0], [0.2, 0.8], [1.0, 0.0], [0.0, 1.0], [0.7333333333333333, 0.26666666666666666], [0.9, 0.1], [0.75, 0.25], [1.0, 0.0], [0.0, 1.0], [1.0, 0.0], [0.4, 0.6], [0.0, 1.0], [1.0, 0.0], [0.9769255768605785, 0.023074423139421516], [0.9667673716012085, 0.03323262839879154], [0.9648562300319489, 0.03514376996805112], [0.9694915254237289, 0.030508474576271188], [0.9791666666666666, 0.020833333333333332], [0.985663082437276, 0.014336917562724014], [1.0, 0.0], [0.9636363636363636, 0.03636363636363636], [0.9888888888888889, 0.011111111111111112], [0.9615384615384616, 0.038461538461538464], [0.9583333333333334, 0.041666666666666664], [1.0, 0.0], [0.9411764705882353, 0.058823529411764705], [0.75, 0.25], [1.0, 0.0], [0.0, 1.0], [1.0, 0.0], [1.0, 0.0], [1.0, 0.0], [0.85, 0.15], [1.0, 0.0], [0.0, 1.0], [0.7777777777777778, 0.2222222222222222], [1.0, 0.0], [0.5, 0.5], [1.0, 0.0], [0.0, 1.0], [0.5714285714285714, 0.42857142857142855], [1.0, 0.0], [0.0, 1.0], [0.8888888888888888, 0.1111111111111111], [1.0, 0.0], [0.0, 1.0], [1.0, 0.0], [0.9781500364166059, 0.021849963583394028], [1.0, 0.0], [0.9780701754385965, 0.021929824561403508], [0.75, 0.25], [0.0, 1.0], [1.0, 0.0], [0.9784040995607614, 0.021595900439238654], [0.9937369519832986, 0.006263048016701462], [1.0, 0.0], [0.9920212765957447, 0.007978723404255319], [0.9886792452830189, 0.011320754716981131], [1.0, 0.0], [0.9883268482490273, 0.011673151750972763], [1.0, 0.0], [0.9881422924901185, 0.011857707509881422], [1.0, 0.0], [0.9880952380952381, 0.011904761904761904], [0.9785714285714285, 0.02142857142857143], [0.992, 0.008], [1.0, 0.0], [0.6666666666666666, 0.3333333333333333], [1.0, 0.0], [0.5, 0.5], [1.0, 0.0], [0.0, 1.0], [0.8666666666666667, 0.13333333333333333], [1.0, 0.0], [0.3333333333333333, 0.6666666666666666], [1.0, 0.0], [0.0, 1.0], [1.0, 0.0], [1.0, 0.0], [0.9751442521083, 0.024855747891699954], [1.0, 0.0], [0.9745801180208806, 0.02541988197911938], [0.9908496732026144, 0.009150326797385621], [0.9956896551724138, 0.004310344827586207], [1.0, 0.0], [0.9885931558935361, 0.011406844106463879], [1.0, 0.0], [0.9885057471264368, 0.011494252873563218], [1.0, 0.0], [0.9814814814814815, 0.018518518518518517], [0.9651162790697675, 0.03488372093023256], [0.9615384615384616, 0.038461538461538464], [0.958904109589041, 0.0410958904109589], [0.8846153846153846, 0.11538461538461539], [1.0, 0.0], [0.88, 0.12], [0.8636363636363636, 0.13636363636363635], [0.8235294117647058, 0.17647058823529413], [1.0, 0.0], [0.8125, 0.1875], [0.0, 1.0], [0.8666666666666667, 0.13333333333333333], [1.0, 0.0], [0.6, 0.4], [1.0, 0.0], [0.3333333333333333, 0.6666666666666666], [1.0, 0.0], [0.0, 1.0], [1.0, 0.0], [1.0, 0.0], [1.0, 0.0], [1.0, 0.0], [1.0, 0.0], [1.0, 0.0], [0.9420289855072463, 0.057971014492753624], [0.3333333333333333, 0.6666666666666666], [1.0, 0.0], [0.0, 1.0], [0.9696969696969697, 0.030303030303030304], [0.95, 0.05], [1.0, 0.0], [0.9047619047619048, 0.09523809523809523], [0.8947368421052632, 0.10526315789473684], [0.9411764705882353, 0.058823529411764705], [1.0, 0.0], [0.8571428571428571, 0.14285714285714285], [1.0, 0.0], [0.6666666666666666, 0.3333333333333333], [1.0, 0.0], [0.0, 1.0], [0.5, 0.5], [1.0, 0.0], [0.0, 1.0], [1.0, 0.0], [1.0, 0.0], [0.9659248956884562, 0.034075104311543813], [0.9728729963008631, 0.027127003699136867], [1.0, 0.0], [0.9715025906735751, 0.02849740932642487], [0.9819004524886877, 0.01809954751131222], [1.0, 0.0], [0.9704433497536946, 0.029556650246305417], [0.9825436408977556, 0.017456359102244388], [0.9823321554770318, 0.0176678445229682], [0.9891696750902527, 0.010830324909747292], [0.9881889763779528, 0.011811023622047244], [0.9782608695652174, 0.021739130434782608], [1.0, 0.0], [0.9774436090225563, 0.022556390977443608], [0.9375, 0.0625], [0.8333333333333334, 0.16666666666666666], [1.0, 0.0], [0.0, 1.0], [1.0, 0.0], [0.9900990099009901, 0.009900990099009901], [0.9895833333333334, 0.010416666666666666], [1.0, 0.0], [0.9824561403508771, 0.017543859649122806], [1.0, 0.0], [0.9666666666666667, 0.03333333333333333], [1.0, 0.0], [0.875, 0.125], [1.0, 0.0], [0.0, 1.0], [1.0, 0.0], [1.0, 0.0], [1.0, 0.0], [0.6666666666666666, 0.3333333333333333], [0.0, 1.0], [1.0, 0.0], [0.9830508474576272, 0.01694915254237288], [0.6666666666666666, 0.3333333333333333], [1.0, 0.0], [0.0, 1.0], [0.991304347826087, 0.008695652173913044], [0.9838709677419355, 0.016129032258064516], [0.9375, 0.0625], [1.0, 0.0], [0.8, 0.2], [1.0, 0.0], [0.6666666666666666, 0.3333333333333333], [0.0, 1.0], [1.0, 0.0], [1.0, 0.0], [1.0, 0.0], [0.0, 1.0], [0.908256880733945, 0.09174311926605505], [0.9361702127659575, 0.06382978723404255], [0.9772727272727273, 0.022727272727272728], [1.0, 0.0], [0.8571428571428571, 0.14285714285714285], [1.0, 0.0], [0.6666666666666666, 0.3333333333333333], [1.0, 0.0], [0.3333333333333333, 0.6666666666666666], [0.0, 1.0], [1.0, 0.0], [0.3333333333333333, 0.6666666666666666], [1.0, 0.0], [0.0, 1.0], [0.7333333333333333, 0.26666666666666666], [0.7857142857142857, 0.21428571428571427], [0.4, 0.6], [0.25, 0.75], [1.0, 0.0], [0.0, 1.0], [1.0, 0.0], [1.0, 0.0], [0.0, 1.0], [0.9569377990430622, 0.0430622009569378], [1.0, 0.0], [0.9568690095846646, 0.04313099041533546], [0.9375, 0.0625], [1.0, 0.0], [0.8181818181818182, 0.18181818181818182], [1.0, 0.0], [0.3333333333333333, 0.6666666666666666], [1.0, 0.0], [0.0, 1.0], [0.9579124579124579, 0.04208754208754209], [0.9349112426035503, 0.0650887573964497], [0.9660377358490566, 0.033962264150943396], [0.9791666666666666, 0.020833333333333332], [0.972972972972973, 0.02702702702702703], [0.967741935483871, 0.03225806451612903], [1.0, 0.0], [0.8888888888888888, 0.1111111111111111], [1.0, 0.0], [0.0, 1.0], [1.0, 0.0], [0.9819277108433735, 0.018072289156626505], [0.9915254237288136, 0.00847457627118644], [1.0, 0.0], [0.9642857142857143, 0.03571428571428571], [1.0, 0.0], [0.9523809523809523, 0.047619047619047616], [1.0, 0.0], [0.9375, 0.0625], [1.0, 0.0], [0.8, 0.2], [1.0, 0.0], [0.0, 1.0], [0.9583333333333334, 0.041666666666666664], [1.0, 0.0], [0.9574468085106383, 0.0425531914893617], [1.0, 0.0], [0.9333333333333333, 0.06666666666666667], [1.0, 0.0], [0.3333333333333333, 0.6666666666666666], [1.0, 0.0], [0.0, 1.0], [0.84, 0.16], [1.0, 0.0], [0.8095238095238095, 0.19047619047619047], [1.0, 0.0], [0.7777777777777778, 0.2222222222222222], [1.0, 0.0], [0.75, 0.25], [1.0, 0.0], [0.5, 0.5], [0.6666666666666666, 0.3333333333333333], [1.0, 0.0], [0.0, 1.0], [0.0, 1.0], [0.821917808219178, 0.1780821917808219], [0.8863636363636364, 0.11363636363636363], [0.8780487804878049, 0.12195121951219512], [1.0, 0.0], [0.4444444444444444, 0.5555555555555556], [1.0, 0.0], [0.0, 1.0], [1.0, 0.0], [0.7241379310344828, 0.27586206896551724], [0.0, 1.0], [0.7777777777777778, 0.2222222222222222], [0.9545454545454546, 0.045454545454545456], [1.0, 0.0], [0.9411764705882353, 0.058823529411764705], [0.9, 0.1], [1.0, 0.0], [0.8333333333333334, 0.16666666666666666], [1.0, 0.0], [0.0, 1.0], [1.0, 0.0], [0.0, 1.0], [0.98828125, 0.01171875], [1.0, 0.0], [0.8928571428571429, 0.10714285714285714], [0.8421052631578947, 0.15789473684210525], [0.5, 0.5], [1.0, 0.0], [0.0, 1.0], [0.8823529411764706, 0.11764705882352941], [0.875, 0.125], [0.0, 1.0], [1.0, 0.0], [1.0, 0.0], [1.0, 0.0], [0.0, 1.0], [0.0, 1.0]], "impurity": [0.4999998697129855, 0.06709370518667046, 0.048099080502908564, 0.04409520040703263, 0.04690430878669949, 0.008988580833532933, 0.009174117097411338, 0.0, 0.01980000000000004, 0.0, 0.027021955338712655, 0.0, 0.05551020408163265, 0.0, 0.07679999999999998, 0.0, 0.0, 0.008810400187955203, 0.04345679012345682, 0.4444444444444444, 0.0, 0.0, 0.0, 0.0, 0.1992919616826322, 0.09972299168975074, 0.31999999999999995, 0.0, 0.48, 0.0, 0.0, 0.0, 0.31409875074360505, 0.1049382716049383, 0.0, 0.18000000000000005, 0.0, 0.4444444444444444, 0.0, 0.0, 0.4234404536862004, 0.40816326530612246, 0.0, 0.2777777777777778, 0.0, 0.0, 0.21875, 0.0, 0.345679012345679, 0.5, 0.0, 0.0, 0.0, 0.031737773152965665, 0.0, 0.19753086419753085, 0.0, 0.21875, 0.40816326530612246, 0.4444444444444444, 0.0, 0.0, 0.0, 0.0, 0.048891779906438004, 0.09070294784580502, 0.016947914383811824, 0.01036241319444442, 0.0, 0.020831024930747954, 0.0, 0.032777777777777795, 0.04759071980963714, 0.06887755102040816, 0.0, 0.375, 0.0, 0.0, 0.0, 0.0, 0.046485260770975034, 0.08317580340264652, 0.0, 0.1171875, 0.0, 0.14201183431952658, 0.4444444444444444, 0.0, 0.0, 0.0, 0.0, 0.4049967126890204, 0.4131944444444444, 0.2777777777777778, 0.46875, 0.0, 0.0, 0.0, 0.4444444444444444, 0.0, 0.31999999999999995, 0.0, 0.0, 0.3911111111111111, 0.18000000000000005, 0.375, 0.0, 0.0, 0.0, 0.48, 0.0, 0.0, 0.04508398827240889, 0.06425644161699873, 0.06781737080096761, 0.05915541511060041, 0.04079861111111116, 0.028262740715047308, 0.0, 0.07008264462809921, 0.021975308641975277, 0.07396449704142016, 0.07986111111111116, 0.0, 0.11072664359861595, 0.375, 0.0, 0.0, 0.0, 0.0, 0.0, 0.255, 0.0, 0.0, 0.345679012345679, 0.0, 0.5, 0.0, 0.0, 0.4897959183673469, 0.0, 0.0, 0.19753086419753085, 0.0, 0.0, 0.0, 0.042745085349596756, 0.0, 0.042897814712219096, 0.375, 0.0, 0.0, 0.042259035046914306, 0.012447644492483922, 0.0, 0.01583012675418738, 0.022385190459238147, 0.0, 0.023073778558343028, 0.0, 0.02343420456498302, 0.0, 0.02352607709750565, 0.041938775510204085, 0.015871999999999997, 0.0, 0.4444444444444444, 0.0, 0.5, 0.0, 0.0, 0.23111111111111116, 0.0, 0.4444444444444444, 0.0, 0.0, 0.0, 0.0, 0.048475879376888464, 0.0, 0.04954742315857408, 0.01813319663377333, 0.008583531510107045, 0.0, 0.022553456027989416, 0.0, 0.022724270048883555, 0.0, 0.036351165980795574, 0.06733369388858845, 0.07396449704142016, 0.07881403640457874, 0.20414201183431957, 0.0, 0.21120000000000005, 0.23553719008264462, 0.2906574394463668, 0.0, 0.3046875, 0.0, 0.23111111111111116, 0.0, 0.48, 0.0, 0.4444444444444444, 0.0, 0.0, 0.0, 0.0, 0.0, 0.0, 0.0, 0.0, 0.10922075194286918, 0.4444444444444444, 0.0, 0.0, 0.058769513314967825, 0.09499999999999997, 0.0, 0.17233560090702948, 0.18836565096952906, 0.11072664359861595, 0.0, 0.24489795918367352, 0.0, 0.4444444444444444, 0.0, 0.0, 0.5, 0.0, 0.0, 0.0, 0.0, 0.06582798315540239, 0.052782258738887755, 0.0, 0.05537061397621412, 0.03554390778239591, 0.0, 0.057366109345045935, 0.03430326925827576, 0.03471138358576087, 0.021426057944193166, 0.023343046686093327, 0.042533081285444196, 0.0, 0.04409520040703263, 0.1171875, 0.2777777777777778, 0.0, 0.0, 0.0, 0.019605920988138403, 0.02061631944444442, 0.0, 0.03447214527546938, 0.0, 0.06444444444444442, 0.0, 0.21875, 0.0, 0.0, 0.0, 0.0, 0.0, 0.4444444444444444, 0.0, 0.0, 0.03332375754093653, 0.4444444444444444, 0.0, 0.0, 0.01724007561436669, 0.031737773152965665, 0.1171875, 0.0, 0.31999999999999995, 0.0, 0.4444444444444444, 0.0, 0.0, 0.0, 0.0, 0.0, 0.16665263866677893, 0.11951109099139878, 0.044421487603305776, 0.0, 0.24489795918367352, 0.0, 0.4444444444444444, 0.0, 0.4444444444444444, 0.0, 0.0, 0.4444444444444444, 0.0, 0.0, 0.3911111111111111, 0.33673469387755106, 0.48, 0.375, 0.0, 0.0, 0.0, 0.0, 0.0, 0.08241569561136419, 0.0, 0.08254141616225541, 0.1171875, 0.0, 0.2975206611570248, 0.0, 0.4444444444444444, 0.0, 0.0, 0.08063236177714295, 0.12170442211407162, 0.06561765752936988, 0.04079861111111116, 0.05259313367421481, 0.06243496357960454, 0.0, 0.19753086419753085, 0.0, 0.0, 0.0, 0.03549136304253153, 0.016805515656420522, 0.0, 0.06887755102040816, 0.0, 0.09070294784580502, 0.0, 0.1171875, 0.0, 0.31999999999999995, 0.0, 0.0, 0.07986111111111116, 0.0, 0.08148483476686286, 0.0, 0.12444444444444447, 0.0, 0.4444444444444444, 0.0, 0.0, 0.26880000000000004, 0.0, 0.308390022675737, 0.0, 0.345679012345679, 0.0, 0.375, 0.0, 0.5, 0.4444444444444444, 0.0, 0.0, 0.0, 0.29273784950272097, 0.20144628099173556, 0.21415823914336707, 0.0, 0.49382716049382713, 0.0, 0.0, 0.0, 0.3995243757431629, 0.0, 0.345679012345679, 0.08677685950413228, 0.0, 0.11072664359861595, 0.18000000000000005, 0.0, 0.2777777777777778, 0.0, 0.0, 0.0, 0.0, 0.023162841796875, 0.0, 0.19132653061224492, 0.2659279778393352, 0.5, 0.0, 0.0, 0.2076124567474048, 0.21875, 0.0, 0.0, 0.0, 0.0, 0.0, 0.0]}, {"node_count": 393, "children_left": [1, 2, 3, 4, -1, 6, 7, 8, 9, -1, -1, 12, 13, 14, -1, 16, -1, -1, -1, 20, -1, -1, -1, 24, 25, 26, -1, 28, -1, -1, 31, 32, 33, -1, -1, -1, 37, 38, -1, 40, -1, 42, 43, -1, 45, 46, -1, 48, 49, -1, 51, -1, 53, 54, -1, -1, -1, -1, 59, -1, -1, 62, -1, 64, -1, 66, -1, 68, -1, 70, 71, -1, 73, 74, 75, 76, -1, -1, -1, -1, -1, -1, 83, 84, -1, 86, 87, 88, -1, 90, -1, 92, -1, -1, 95, -1, -1, 98, -1, -1, 101, 102, 103, -1, 105, -1, -1, -1, 109, -1, 111, -1, 113, -1, -1, 116, -1, 118, -1, 120, -1, 122, -1, 124, -1, 126, -1, 128, 129, -1, 131, -1, -1, -1, 135, 136, 137, -1, 139, -1, 141, -1, 143, -1, 145, -1, 147, -1, -1, 150, 151, 152, 153, 154, 155, -1, 157, -1, -1, -1, -1, -1, 163, -1, 165, -1, 167, 168, -1, -1, -1, -1, 173, -1, 175, 176, -1, 178, 179, -1, 181, 182, -1, -1, -1, 186, 187, -1, 189, 190, -1, 192, -1, -1, 195, 196, 197, -1, 199, -1, 201, -1, -1, -1, 205, 206, -1, 208, -1, 210, -1, 212, -1, -1, -1, 216, -1, 218, 219, -1, 221, 222, 223, 224, -1, 226, -1, 228, -1, -1, 231, -1, -1, 234, -1, -1, 237, 238, -1, 240, 241, -1, 243, -1, 245, -1, -1, -1, 249, -1, 251, 252, -1, 254, -1, -1, -1, 258, -1, 260, 261, -1, 263, -1, 265, -1, -1, -1, 269, 270, 271, -1, -1, 274, -1, 276, 277, -1, -1, -1, 281, -1, 283, 284, 285, -1, 287, 288, 289, 290, 291, 292, 293, -1, -1, -1, -1, -1, -1, -1, -1, 302, -1, 304, -1, 306, 307, -1, 309, -1, 311, -1, -1, -1, -1, 316, 317, 318, -1, -1, 321, 322, 323, 324, -1, 326, 327, -1, 329, -1, 331, -1, 333, -1, -1, -1, 337, -1, 339, 340, 341, -1, -1, -1, -1, 346, 347, -1, -1, -1, -1, 352, 353, 354, 355, -1, 357, -1, 359, 360, -1, 362, -1, -1, -1, -1, 367, -1, 369, -1, 371, 372, -1, 374, 375, -1, -1, 378, -1, 380, 381, -1, -1, -1, -1, 386, -1, 388, -1, 390, -1, -1, -1], "children_right": [392, 315, 134, 5, -1, 23, 22, 11, 10, -1, -1, 19, 18, 15, -1, 17, -1, -1, -1, 21, -1, -1, -1, 115, 30, 27, -1, 29, -1, -1, 36, 35, 34, -1, -1, -1, 82, 39, -1, 41, -1, 61, 44, -1, 58, 47, -1, 57, 50, -1, 52, -1, 56, 55, -1, -1, -1, -1, 60, -1, -1, 63, -1, 65, -1, 67, -1, 69, -1, 81, 72, -1, 80, 79, 78, 77, -1, -1, -1, -1, -1, -1, 100, 85, -1, 97, 94, 89, -1, 91, -1, 93, -1, -1, 96, -1, -1, 99, -1, -1, 108, 107, 104, -1, 106, -1, -1, -1, 110, -1, 112, -1, 114, -1, -1, 117, -1, 119, -1, 121, -1, 123, -1, 125, -1, 127, -1, 133, 130, -1, 132, -1, -1, -1, 172, 149, 138, -1, 140, -1, 142, -1, 144, -1, 146, -1, 148, -1, -1, 171, 162, 161, 160, 159, 156, -1, 158, -1, -1, -1, -1, -1, 164, -1, 166, -1, 170, 169, -1, -1, -1, -1, 174, -1, 268, 177, -1, 185, 180, -1, 184, 183, -1, -1, -1, 215, 188, -1, 194, 191, -1, 193, -1, -1, 204, 203, 198, -1, 200, -1, 202, -1, -1, -1, 214, 207, -1, 209, -1, 211, -1, 213, -1, -1, -1, 217, -1, 257, 220, -1, 236, 233, 230, 225, -1, 227, -1, 229, -1, -1, 232, -1, -1, 235, -1, -1, 248, 239, -1, 247, 242, -1, 244, -1, 246, -1, -1, -1, 250, -1, 256, 253, -1, 255, -1, -1, -1, 259, -1, 267, 262, -1, 264, -1, 266, -1, -1, -1, 280, 273, 272, -1, -1, 275, -1, 279, 278, -1, -1, -1, 282, -1, 314, 301, 286, -1, 300, 299, 298, 297, 296, 295, 294, -1, -1, -1, -1, -1, -1, -1, -1, 303, -1, 305, -1, 313, 308, -1, 310, -1, 312, -1, -1, -1, -1, 351, 320, 319, -1, -1, 350, 345, 336, 325, -1, 335, 328, -1, 330, -1, 332, -1, 334, -1, -1, -1, 338, -1, 344, 343, 342, -1, -1, -1, -1, 349, 348, -1, -1, -1, -1, 385, 366, 365, 356, -1, 358, -1, 364, 361, -1, 363, -1, -1, -1, -1, 368, -1, 370, -1, 384, 373, -1, 377, 376, -1, -1, 379, -1, 383, 382, -1, -1, -1, -1, 387, -1, 389, -1, 391, -1, -1, -1], "feature": [115, 20, 7, 15, -2, 58, 16, 17, 107, -2, -2, 223, 9, 4, -2, 19, -2, -2, -2, 12, -2, -2, -2, 9, 121, 117, -2, 107, -2, -2, 16, 115, 5, -2, -2, -2, 8, 115, -2, 0, -2, 107, 106, -2, 27, 1, -2, 19, 223, -2, 20, -2, 107, 115, -2, -2, -2, -2, 17, -2, -2, 105, -2, 13, -2, 3, -2, 5, -2, 2, 4, -2, 11, 27, 115, 223, -2, -2, -2, -2, -2, -2, 106, 5, -2, 14, 107, 120, -2, 27, -2, 115, -2, -2, 12, -2, -2, 107, -2, -2, 27, 107, 20, -2, 10, -2, -2, -2, 1, -2, 12, -2, 2, -2, -2, 16, -2, 12, -2, 105, -2, 3, -2, 20, -2, 107, -2, 27, 106, -2, 115, -2, -2, -2, 120, 20, 16, -2, 58, -2, 15, -2, 0, -2, 12, -2, 107, -2, -2, 10, 1, 223, 0, 107, 8, -2, 3, -2, -2, -2, -2, -2, 12, -2, 15, -2, 8, 11, -2, -2, -2, -2, 20, -2, 107, 18, -2, 17, 4, -2, 8, 1, -2, -2, -2, 15, 115, -2, 107, 223, -2, 19, -2, -2, 27, 106, 16, -2, 8, -2, 115, -2, -2, -2, 14, 106, -2, 4, -2, 223, -2, 10, -2, -2, -2, 8, -2, 2, 4, -2, 107, 14, 8, 115, -2, 12, -2, 223, -2, -2, 106, -2, -2, 27, -2, -2, 115, 12, -2, 27, 115, -2, 115, -2, 1, -2, -2, -2, 105, -2, 19, 9, -2, 10, -2, -2, -2, 106, -2, 107, 8, -2, 115, -2, 115, -2, -2, -2, 5, 19, 223, -2, -2, 4, -2, 7, 223, -2, -2, -2, 4, -2, 10, 15, 17, -2, 7, 15, 9, 19, 27, 8, 115, -2, -2, -2, -2, -2, -2, -2, -2, 105, -2, 106, -2, 14, 223, -2, 1, -2, 2, -2, -2, -2, -2, 27, 1, 107, -2, -2, 10, 7, 2, 7, -2, 11, 121, -2, 12, -2, 107, -2, 4, -2, -2, -2, 6, -2, 12, 0, 15, -2, -2, -2, -2, 11, 14, -2, -2, -2, -2, 14, 1, 9, 13, -2, 3, -2, 10, 8, -2, 105, -2, -2, -2, -2, 15, -2, 105, -2, 19, 120, -2, 107, 7, -2, -2, 7, -2, 9, 2, -2, -2, -2, -2, 18, -2, 4, -2, 7, -2, -2, -2], "threshold": [Infinity, 0.5, -0.5, 0.5, -2.0, 0.0, 0.0, 0.0, 0.5, -2.0, -2.0, 0.5, 0.0, 0.0, -2.0, 0.0, -2.0, -2.0, -2.0, 0.0, -2.0, -2.0, -2.0, 0.0, 0.0, 0.0, -2.0, 0.5, -2.0, -2.0, 0.0, 2968.0, 0.0, -2.0, -2.0, -2.0, 0.5, 2178.5, -2.0, 0.0, -2.0, 0.5, 0.0, -2.0, 0.0, 0.0, -2.0, 0.0, 0.5, -2.0, -0.5, -2.0, -0.5, 2270.5, -2.0, -2.0, -2.0, -2.0, 0.0, -2.0, -2.0, 0.0, -2.0, 0.0, -2.0, 0.0, -2.0, 0.0, -2.0, 0.0, 0.0, -2.0, 0.5, 0.0, 9827.5, -0.5, -2.0, -2.0, -2.0, -2.0, -2.0, -2.0, 0.0, 0.0, -2.0, -0.5, 0.5, 0.0, -2.0, 0.0, -2.0, 10555.0, -2.0, -2.0, 0.0, -2.0, -2.0, 0.0, -2.0, -2.0, 0.0, -0.5, -0.5, -2.0, 0.0, -2.0, -2.0, -2.0, 0.0, -2.0, 0.0, -2.0, 0.0, -2.0, -2.0, 0.0, -2.0, 0.0, -2.0, 0.0, -2.0, 0.0, -2.0, -0.5, -2.0, 0.5, -2.0, 0.0, 0.0, -2.0, 6736.5, -2.0, -2.0, -2.0, 0.0, -0.5, 0.0, -2.0, 0.0, -2.0, 0.5, -2.0, 0.0, -2.0, 0.0, -2.0, -0.5, -2.0, -2.0, 0.0, 0.0, 0.5, 0.0, 0.0, -0.5, -2.0, 0.0, -2.0, -2.0, -2.0, -2.0, -2.0, 0.0, -2.0, 0.0, -2.0, -0.5, 0.5, -2.0, -2.0, -2.0, -2.0, -0.5, -2.0, 0.5, 0.0, -2.0, 0.0, 0.0, -2.0, 0.5, 0.0, -2.0, -2.0, -2.0, 0.5, 4544.0, -2.0, -0.5, 0.5, -2.0, 0.0, -2.0, -2.0, 0.0, 0.0, 0.0, -2.0, 0.5, -2.0, 5385.0, -2.0, -2.0, -2.0, -0.5, 0.0, -2.0, 0.0, -2.0, 0.5, -2.0, 0.0, -2.0, -2.0, -2.0, -0.5, -2.0, 0.0, 0.0, -2.0, -0.5, 0.0, 0.5, 3803.5, -2.0, 0.0, -2.0, 0.5, -2.0, -2.0, 0.0, -2.0, -2.0, 0.0, -2.0, -2.0, 3851.5, 0.0, -2.0, 0.0, 853.0, -2.0, 1467.0, -2.0, 0.0, -2.0, -2.0, -2.0, 0.0, -2.0, 0.0, 0.0, -2.0, 0.0, -2.0, -2.0, -2.0, 0.0, -2.0, -0.5, 0.5, -2.0, 1676.0, -2.0, 2824.0, -2.0, -2.0, -2.0, 0.0, 0.0, 0.5, -2.0, -2.0, 0.0, -2.0, 0.5, 0.5, -2.0, -2.0, -2.0, 0.0, -2.0, 0.0, 0.5, 0.0, -2.0, 0.5, -0.5, 0.0, 0.0, 0.0, 0.5, 7858.0, -2.0, -2.0, -2.0, -2.0, -2.0, -2.0, -2.0, -2.0, 0.0, -2.0, 0.0, -2.0, -0.5, 0.5, -2.0, 0.0, -2.0, 0.0, -2.0, -2.0, -2.0, -2.0, 0.0, 0.0, -0.5, -2.0, -2.0, 0.0, 0.5, 0.0, -0.5, -2.0, 0.5, 0.0, -2.0, 0.0, -2.0, 0.0, -2.0, 0.0, -2.0, -2.0, -2.0, 0.0, -2.0, 0.0, 0.0, 0.0, -2.0, -2.0, -2.0, -2.0, 0.5, 0.0, -2.0, -2.0, -2.0, -2.0, 0.5, 0.0, 0.0, 0.0, -2.0, 0.0, -2.0, 0.0, 0.5, -2.0, 0.0, -2.0, -2.0, -2.0, -2.0, 0.5, -2.0, 0.0, -2.0, 0.0, 0.0, -2.0, 0.0, -0.5, -2.0, -2.0, -0.5, -2.0, 0.0, 0.0, -2.0, -2.0, -2.0, -2.0, 0.0, -2.0, 0.0, -2.0, -0.5, -2.0, -2.0, -2.0], "value": [[0.5005104645227156, 0.4994895354772843], [0.9679170779861797, 0.032082922013820334], [0.9778007227671657, 0.02219927723283428], [0.9847689075630253, 0.01523109243697479], [1.0, 0.0], [0.9230769230769231, 0.07692307692307693], [0.7857142857142857, 0.21428571428571427], [0.64, 0.36], [0.6, 0.4], [0.0, 1.0], [1.0, 0.0], [0.65, 0.35], [0.8571428571428571, 0.14285714285714285], [0.8181818181818182, 0.18181818181818182], [1.0, 0.0], [0.6666666666666666, 0.3333333333333333], [0.0, 1.0], [1.0, 0.0], [1.0, 0.0], [0.16666666666666666, 0.8333333333333334], [1.0, 0.0], [0.0, 1.0], [1.0, 0.0], [0.9402985074626866, 0.05970149253731343], [0.9321428571428572, 0.06785714285714285], [0.9285714285714286, 0.07142857142857142], [1.0, 0.0], [0.8333333333333334, 0.16666666666666666], [1.0, 0.0], [0.0, 1.0], [0.9323308270676691, 0.06766917293233082], [0.8571428571428571, 0.14285714285714285], [0.5, 0.5], [1.0, 0.0], [0.0, 1.0], [1.0, 0.0], [0.9343629343629344, 0.06563706563706563], [0.9655172413793104, 0.034482758620689655], [1.0, 0.0], [0.9527027027027027, 0.0472972972972973], [0.0, 1.0], [0.9591836734693877, 0.04081632653061224], [0.9734513274336283, 0.02654867256637168], [1.0, 0.0], [0.968421052631579, 0.031578947368421054], [0.9841269841269841, 0.015873015873015872], [1.0, 0.0], [0.975, 0.025], [0.9736842105263158, 0.02631578947368421], [1.0, 0.0], [0.875, 0.125], [1.0, 0.0], [0.8571428571428571, 0.14285714285714285], [0.8, 0.2], [0.0, 1.0], [1.0, 0.0], [1.0, 0.0], [1.0, 0.0], [0.9375, 0.0625], [0.0, 1.0], [1.0, 0.0], [0.9117647058823529, 0.08823529411764706], [1.0, 0.0], [0.9, 0.1], [1.0, 0.0], [0.8888888888888888, 0.1111111111111111], [0.0, 1.0], [0.9230769230769231, 0.07692307692307693], [1.0, 0.0], [0.92, 0.08], [0.8333333333333334, 0.16666666666666666], [1.0, 0.0], [0.8, 0.2], [0.7142857142857143, 0.2857142857142857], [0.6, 0.4], [0.3333333333333333, 0.6666666666666666], [0.0, 1.0], [1.0, 0.0], [1.0, 0.0], [1.0, 0.0], [1.0, 0.0], [1.0, 0.0], [0.8214285714285714, 0.17857142857142858], [0.75, 0.25], [1.0, 0.0], [0.7391304347826086, 0.2608695652173913], [0.8333333333333334, 0.16666666666666666], [0.9333333333333333, 0.06666666666666667], [1.0, 0.0], [0.9090909090909091, 0.09090909090909091], [1.0, 0.0], [0.8, 0.2], [1.0, 0.0], [0.0, 1.0], [0.3333333333333333, 0.6666666666666666], [1.0, 0.0], [0.0, 1.0], 