[{"node_count": 637, "children_left": [1, 2, 3, 4, 5, 6, 7, 8, 9, 10, 11, 12, 13, 14, 15, 16, 17, 18, 19, 20, 21, 22, 23, 24, 25, 26, 27, 28, 29, 30, 31, 32, 33, 34, 35, 36, 37, 38, 39, 40, 41, 42, 43, 44, 45, 46, 47, 48, 49, 50, 51, 52, 53, 54, 55, 56, 57, 58, 59, 60, 61, 62, 63, 64, 65, 66, 67, 68, 69, 70, 71, 72, 73, 74, 75, 76, 77, 78, 79, 80, 81, 82, 83, 84, 85, 86, 87, 88, 89, 90, 91, 92, 93, 94, 95, 96, 97, 98, 99, 100, 101, 102, 103, 104, 105, 106, 107, 108, 109, 110, 111, 112, 113, 114, 115, 116, 117, 118, 119, 120, 121, 122, 123, 124, 125, 126, 127, 128, 129, 130, 131, 132, 133, 134, 135, 136, 137, 138, 139, 140, 141, 142, 143, 144, 145, 146, -1, -1, -1, -1, -1, -1, -1, -1, -1, -1, -1, -1, -1, -1, -1, -1, -1, -1, -1, -1, -1, -1, -1, -1, -1, -1, -1, -1, -1, -1, -1, -1, -1, -1, -1, -1, -1, -1, -1, -1, -1, -1, 189, 190, -1, -1, -1, -1, -1, -1, -1, -1, -1, -1, -1, -1, -1, -1, -1, -1, -1, -1, -1, -1, -1, -1, -1, -1, -1, -1, -1, 218, 219, 220, 221, -1, -1, -1, -1, -1, -1, -1, -1, -1, -1, -1, -1, -1, -1, -1, -1, -1, 239, -1, -1, -1, -1, -1, -1, -1, -1, -1, 249, 250, 251, 252, 253, 254, 255, 256, 257, 258, -1, -1, -1, -1, -1, -1, -1, -1, -1, -1, -1, -1, -1, -1, 273, -1, -1, 276, -1, -1, 279, 280, -1, 282, -1, -1, -1, -1, -1, 288, -1, -1, -1, -1, 293, -1, -1, -1, 297, -1, -1, -1, 301, -1, -1, 304, 305, -1, -1, -1, -1, 310, -1, -1, -1, 314, -1, -1, -1, 318, -1, -1, 321, 322, -1, -1, -1, 326, 327, -1, -1, -1, -1, -1, -1, -1, -1, -1, 337, 338, 339, -1, -1, -1, -1, 344, 345, 346, -1, -1, -1, -1, -1, 352, 353, -1, -1, -1, -1, -1, 359, 360, 361, 362, -1, -1, -1, -1, -1, 368, 369, 370, 371, 372, -1, -1, -1, -1, -1, -1, 379, 380, 381, 382, 383, 384, 385, 386, 387, 388, 389, 390, 391, 392, 393, 394, 395, 396, 397, 398, 399, 400, 401, 402, 403, 404, -1, -1, -1, -1, -1, -1, -1, -1, -1, -1, -1, -1, -1, -1, -1, 420, -1, -1, -1, -1, -1, -1, -1, -1, -1, -1, -1, -1, -1, -1, 435, 436, 437, 438, -1, -1, -1, -1, -1, 444, 445, 446, 447, 448, 449, 450, 451, 452, 453, 454, 455, 456, 457, 458, -1, -1, -1, -1, -1, -1, -1, -1, -1, -1, -1, -1, -1, -1, -1, -1, -1, -1, -1, 478, 479, 480, 481, 482, 483, 484, 485, 486, 487, 488, 489, 490, 491, 492, 493, -1, -1, -1, -1, -1, -1, -1, -1, -1, -1, -1, -1, -1, -1, -1, -1, -1, 511, 512, 513, 514, 515, 516, -1, 518, -1, -1, -1, -1, -1, -1, -1, -1, 527, 528, 529, 530, 531, 532, 533, 534, -1, -1, -1, -1, -1, -1, -1, -1, -1, 544, 545, 546, 547, 548, 549, 550, 551, 552, 553, -1, -1, -1, -1, -1, -1, -1, -1, -1, -1, -1, -1, 566, 567, 568, 569, 570, 571, 572, 573, 574, 575, 576, 577, 578, 579, 580, -1, -1, -1, -1, -1, -1, -1, -1, -1, -1, -1, -1, -1, -1, -1, -1, 597, 598, 599, -1, -1, -1, -1, 604, 605, 606, 607, 608, 609, 610, 611, 612, 613, 614, 615, -1, -1, -1, -1, -1, -1, -1, -1, -1, -1, -1, -1, -1, -1, 630, 631, 632, -1, -1, -1, -1, -1], "children_right": [636, 629, 628, 603, 596, 565, 564, 543, 526, 525, 510, 477, 476, 475, 474, 443, 434, 433, 378, 367, 358, 357, 356, 351, 350, 343, 336, 335, 334, 333, 332, 331, 330, 325, 320, 317, 316, 313, 312, 309, 308, 303, 300, 299, 296, 295, 292, 291, 290, 287, 286, 285, 278, 275, 272, 271, 270, 269, 248, 247, 246, 245, 244, 243, 242, 241, 238, 237, 236, 235, 234, 233, 232, 231, 230, 229, 228, 227, 226, 217, 216, 215, 214, 213, 212, 211, 210, 209, 208, 207, 206, 205, 204, 203, 202, 201, 200, 199, 198, 197, 196, 195, 194, 193, 188, 187, 186, 185, 184, 183, 182, 181, 180, 179, 178, 177, 176, 175, 174, 173, 172, 171, 170, 169, 168, 167, 166, 165, 164, 163, 162, 161, 160, 159, 158, 157, 156, 155, 154, 153, 152, 151, 150, 149, 148, 147, -1, -1, -1, -1, -1, -1, -1, -1, -1, -1, -1, -1, -1, -1, -1, -1, -1, -1, -1, -1, -1, -1, -1, -1, -1, -1, -1, -1, -1, -1, -1, -1, -1, -1, -1, -1, -1, -1, -1, -1, -1, -1, 192, 191, -1, -1, -1, -1, -1, -1, -1, -1, -1, -1, -1, -1, -1, -1, -1, -1, -1, -1, -1, -1, -1, -1, -1, -1, -1, -1, -1, 225, 224, 223, 222, -1, -1, -1, -1, -1, -1, -1, -1, -1, -1, -1, -1, -1, -1, -1, -1, -1, 240, -1, -1, -1, -1, -1, -1, -1, -1, -1, 268, 267, 266, 265, 264, 263, 262, 261, 260, 259, -1, -1, -1, -1, -1, -1, -1, -1, -1, -1, -1, -1, -1, -1, 274, -1, -1, 277, -1, -1, 284, 281, -1, 283, -1, -1, -1, -1, -1, 289, -1, -1, -1, -1, 294, -1, -1, -1, 298, -1, -1, -1, 302, -1, -1, 307, 306, -1, -1, -1, -1, 311, -1, -1, -1, 315, -1, -1, -1, 319, -1, -1, 324, 323, -1, -1, -1, 329, 328, -1, -1, -1, -1, -1, -1, -1, -1, -1, 342, 341, 340, -1, -1, -1, -1, 349, 348, 347, -1, -1, -1, -1, -1, 355, 354, -1, -1, -1, -1, -1, 366, 365, 364, 363, -1, -1, -1, -1, -1, 377, 376, 375, 374, 373, -1, -1, -1, -1, -1, -1, 432, 431, 430, 429, 428, 427, 426, 425, 424, 423, 422, 419, 418, 417, 416, 415, 414, 413, 412, 411, 410, 409, 408, 407, 406, 405, -1, -1, -1, -1, -1, -1, -1, -1, -1, -1, -1, -1, -1, -1, -1, 421, -1, -1, -1, -1, -1, -1, -1, -1, -1, -1, -1, -1, -1, -1, 442, 441, 440, 439, -1, -1, -1, -1, -1, 473, 472, 471, 470, 469, 468, 467, 466, 465, 464, 463, 462, 461, 460, 459, -1, -1, -1, -1, -1, -1, -1, -1, -1, -1, -1, -1, -1, -1, -1, -1, -1, -1, -1, 509, 508, 507, 506, 505, 504, 503, 502, 501, 500, 499, 498, 497, 496, 495, 494, -1, -1, -1, -1, -1, -1, -1, -1, -1, -1, -1, -1, -1, -1, -1, -1, -1, 524, 523, 522, 521, 520, 517, -1, 519, -1, -1, -1, -1, -1, -1, -1, -1, 542, 541, 540, 539, 538, 537, 536, 535, -1, -1, -1, -1, -1, -1, -1, -1, -1, 563, 562, 561, 560, 559, 558, 557, 556, 555, 554, -1, -1, -1, -1, -1, -1, -1, -1, -1, -1, -1, -1, 595, 594, 593, 592, 591, 590, 589, 588, 587, 586, 585, 584, 583, 582, 581, -1, -1, -1, -1, -1, -1, -1, -1, -1, -1, -1, -1, -1, -1, -1, -1, 602, 601, 600, -1, -1, -1, -1, 627, 626, 625, 624, 623, 622, 621, 620, 619, 618, 617, 616, -1, -1, -1, -1, -1, -1, -1, -1, -1, -1, -1, -1, -1, -1, 635, 634, 633, -1, -1, -1, -1, -1], "feature": [20, 913, 91, 952, 90, 709, 423, 543, 215, 465, 555, 961, 977, 179, 44, 811, 89, 22, 333, 757, 745, 954, 23, 491, 433, 171, 979, 3, 715, 931, 807, 810, 226, 653, 292, 586, 930, 504, 867, 184, 366, 170, 164, 6, 494, 181, 191, 31, 927, 379, 620, 713, 137, 549, 57, 849, 357, 282, 240, 514, 39, 211, 415, 562, 152, 372, 507, 840, 202, 862, 631, 728, 606, 510, 853, 700, 939, 540, 320, 698, 14, 369, 353, 227, 260, 452, 462, 937, 985, 496, 521, 310, 219, 405, 599, 591, 389, 318, 398, 366, 499, 188, 989, 403, 363, 470, 536, 902, 261, 869, 378, 859, 505, 581, 836, 363, 679, 376, 113, 220, 175, 185, 855, 231, 51, 858, 383, 98, 844, 338, 639, 432, 111, 65, 719, 517, 507, 967, 387, 168, 795, 843, 64, 933, 998, 783, -2, -2, -2, -2, -2, -2, -2, -2, -2, -2, -2, -2, -2, -2, -2, -2, -2, -2, -2, -2, -2, -2, -2, -2, -2, -2, -2, -2, -2, -2, -2, -2, -2, -2, -2, -2, -2, -2, -2, -2, -2, -2, 800, 363, -2, -2, -2, -2, -2, -2, -2, -2, -2, -2, -2, -2, -2, -2, -2, -2, -2, -2, -2, -2, -2, -2, -2, -2, -2, -2, -2, 113, 521, 475, 13, -2, -2, -2, -2, -2, -2, -2, -2, -2, -2, -2, -2, -2, -2, -2, -2, -2, 507, -2, -2, -2, -2, -2, -2, -2, -2, -2, 562, 464, 902, 452, 283, 734, 755, 165, 834, 817, -2, -2, -2, -2, -2, -2, -2, -2, -2, -2, -2, -2, -2, -2, 581, -2, -2, 858, -2, -2, 658, 642, -2, 814, -2, -2, -2, -2, -2, 257, -2, -2, -2, -2, 101, -2, -2, -2, 808, -2, -2, -2, 369, -2, -2, 489, 593, -2, -2, -2, -2, 418, -2, -2, -2, 521, -2, -2, -2, 937, -2, -2, 893, 494, -2, -2, -2, 487, 653, -2, -2, -2, -2, -2, -2, -2, -2, -2, 452, 945, 413, -2, -2, -2, -2, 849, 462, 469, -2, -2, -2, -2, -2, 322, 385, -2, -2, -2, -2, -2, 533, 702, 131, 30, -2, -2, -2, -2, -2, 728, 753, 548, 864, 489, -2, -2, -2, -2, -2, -2, 981, 958, 618, 492, 836, 563, 740, 636, 402, 462, 541, 496, 228, 372, 454, 328, 753, 405, 514, 496, 335, 889, 403, 789, 57, 715, -2, -2, -2, -2, -2, -2, -2, -2, -2, -2, -2, -2, -2, -2, -2, 496, -2, -2, -2, -2, -2, -2, -2, -2, -2, -2, -2, -2, -2, -2, 39, 21, 11, 466, -2, -2, -2, -2, -2, 521, 639, 334, 920, 95, 452, 889, 514, 586, 505, 494, 50, 489, 149, 811, -2, -2, -2, -2, -2, -2, -2, -2, -2, -2, -2, -2, -2, -2, -2, -2, -2, -2, -2, 264, 811, 196, 787, 977, 942, 840, 197, 452, 783, 912, 676, 849, 288, 639, 599, -2, -2, -2, -2, -2, -2, -2, -2, -2, -2, -2, -2, -2, -2, -2, -2, -2, 679, 452, 918, 914, 599, 555, -2, 471, -2, -2, -2, -2, -2, -2, -2, -2, 768, 599, 639, 555, 155, 309, 749, 434, -2, -2, -2, -2, -2, -2, -2, -2, -2, 691, 862, 374, 563, 115, 452, 811, 713, 23, 331, -2, -2, -2, -2, -2, -2, -2, -2, -2, -2, -2, -2, 469, 856, 709, 986, 912, 512, 902, 202, 26, 521, 705, 844, 757, 452, 747, -2, -2, -2, -2, -2, -2, -2, -2, -2, -2, -2, -2, -2, -2, -2, -2, 961, 903, 563, -2, -2, -2, -2, 977, 12, 22, 441, 506, 654, 277, 930, 159, 74, 761, 840, -2, -2, -2, -2, -2, -2, -2, -2, -2, -2, -2, -2, -2, -2, 144, 940, 740, -2, -2, -2, -2, -2], "threshold": [0.08318299055099487, 0.116633340716362, 0.11339886486530304, 0.10372259467840195, 0.13725623488426208, 0.19026827812194824, 0.12192162126302719, 0.10516104102134705, 0.11764368414878845, 0.14055480062961578, 0.08220871537923813, 0.1026393249630928, 0.08257078379392624, 0.12454058229923248, 0.12748011946678162, 0.16743674129247665, 0.13912659883499146, 0.13693395256996155, 0.07820723205804825, 0.13188089430332184, 0.12977872788906097, 0.16822263598442078, 0.13414666056632996, 0.27794456481933594, 0.4684818536043167, 0.18204323947429657, 0.36053304374217987, 0.1634085774421692, 0.3172571659088135, 0.6089223623275757, 0.45194007456302643, 0.20577500760555267, 0.2149844616651535, 0.3590151220560074, 0.3866916596889496, 0.6240167915821075, 0.38985756039619446, 0.37333931028842926, 0.1457420289516449, 0.39051274955272675, 0.878256767988205, 0.15911507606506348, 0.436716690659523, 0.5, 0.40310347080230713, 0.19668500125408173, 0.4176570028066635, 0.24860720336437225, 0.07289750874042511, 0.3455217629671097, 0.47410210967063904, 0.10266272723674774, 0.3734934628009796, 0.5206727385520935, 0.3702854961156845, 0.09114639461040497, 0.6342738270759583, 0.6614466905593872, 0.37422455847263336, 0.05712847039103508, 0.4265233278274536, 0.24363908171653748, 0.09220343083143234, 0.11908896267414093, 0.10086052864789963, 0.11519435048103333, 0.5726089477539062, 0.8595145046710968, 0.08955486118793488, 0.07979536056518555, 0.4202321097254753, 0.0759621262550354, 0.08421902358531952, 0.09489728510379791, 0.11311417073011398, 0.11629540473222733, 0.1387726217508316, 0.8433153331279755, 0.10418271273374557, 0.3595099449157715, 0.3637915849685669, 0.06549516320228577, 0.10821513831615448, 0.0957268476486206, 0.08530788868665695, 0.06860753148794174, 0.11065210402011871, 0.12893560528755188, 0.12792246043682098, 0.1037234514951706, 0.09969841688871384, 0.12168852984905243, 0.08972295373678207, 0.11477317661046982, 0.058075904846191406, 0.08230581134557724, 0.09449276328086853, 0.14672279357910156, 0.15089470148086548, 0.0702831894159317, 0.19209051132202148, 0.17432337999343872, 0.13857108354568481, 0.12170087546110153, 0.3185039609670639, 0.10725786536931992, 0.1402408331632614, 0.07746484130620956, 0.10622530430555344, 0.2154371738433838, 0.13978782296180725, 0.11283797770738602, 0.10887271165847778, 0.10386378318071365, 0.11773784458637238, 0.11690303683280945, 0.16403640806674957, 0.08428189903497696, 0.11802152544260025, 0.1717475801706314, 0.21708109974861145, 0.12803302705287933, 0.18830236792564392, 0.14497581124305725, 0.23410238325595856, 0.11890264600515366, 0.1878732591867447, 0.2308698147535324, 0.1853330433368683, 0.12834510207176208, 0.09283877909183502, 0.12492753565311432, 0.15995776653289795, 0.24636529386043549, 0.1761574000120163, 0.17843979597091675, 0.20720703899860382, 0.1992521435022354, 0.24951577186584473, 0.5, 0.17493408918380737, 0.23106035590171814, 0.36075612902641296, 0.22314909100532532, 0.1423652172088623, 0.7943600416183472, -2.0, -2.0, -2.0, -2.0, -2.0, -2.0, -2.0, -2.0, -2.0, -2.0, -2.0, -2.0, -2.0, -2.0, -2.0, -2.0, -2.0, -2.0, -2.0, -2.0, -2.0, -2.0, -2.0, -2.0, -2.0, -2.0, -2.0, -2.0, -2.0, -2.0, -2.0, -2.0, -2.0, -2.0, -2.0, -2.0, -2.0, -2.0, -2.0, -2.0, -2.0, -2.0, 0.2593006491661072, 0.3246062844991684, -2.0, -2.0, -2.0, -2.0, -2.0, -2.0, -2.0, -2.0, -2.0, -2.0, -2.0, -2.0, -2.0, -2.0, -2.0, -2.0, -2.0, -2.0, -2.0, -2.0, -2.0, -2.0, -2.0, -2.0, -2.0, -2.0, -2.0, 0.2729259133338928, 0.10925154387950897, 0.19480189681053162, 0.19926688075065613, -2.0, -2.0, -2.0, -2.0, -2.0, -2.0, -2.0, -2.0, -2.0, -2.0, -2.0, -2.0, -2.0, -2.0, -2.0, -2.0, -2.0, 0.6231213212013245, -2.0, -2.0, -2.0, -2.0, -2.0, -2.0, -2.0, -2.0, -2.0, 0.24233578145503998, 0.2806091904640198, 0.22542864084243774, 0.19732879102230072, 0.23211783170700073, 0.20948106050491333, 0.3240565061569214, 0.288133829832077, 0.1790403574705124, 0.22685112059116364, -2.0, -2.0, -2.0, -2.0, -2.0, -2.0, -2.0, -2.0, -2.0, -2.0, -2.0, -2.0, -2.0, -2.0, 0.28103017807006836, -2.0, -2.0, 0.30548974871635437, -2.0, -2.0, 0.10921968519687653, 0.18702812492847443, -2.0, 0.2474903166294098, -2.0, -2.0, -2.0, -2.0, -2.0, 0.2104513943195343, -2.0, -2.0, -2.0, -2.0, 0.20827072858810425, -2.0, -2.0, -2.0, 0.20763199031352997, -2.0, -2.0, -2.0, 0.08525204658508301, -2.0, -2.0, 0.1342761069536209, 0.16743969917297363, -2.0, -2.0, -2.0, -2.0, 0.3126867413520813, -2.0, -2.0, -2.0, 0.15946851670742035, -2.0, -2.0, -2.0, 0.36701416969299316, -2.0, -2.0, 0.30753540992736816, 0.17659892141819, -2.0, -2.0, -2.0, 0.25476768612861633, 0.3969230055809021, -2.0, -2.0, -2.0, -2.0, -2.0, -2.0, -2.0, -2.0, -2.0, 0.10881585627794266, 0.22016119956970215, 0.16670607030391693, -2.0, -2.0, -2.0, -2.0, 0.14639873802661896, 0.12802225351333618, 0.14747649431228638, -2.0, -2.0, -2.0, -2.0, -2.0, 0.17440883815288544, 0.1545577496290207, -2.0, -2.0, -2.0, -2.0, -2.0, 0.2309064418077469, 0.14918409287929535, 0.13327275216579437, 0.181745707988739, -2.0, -2.0, -2.0, -2.0, -2.0, 0.14871405065059662, 0.14685091376304626, 0.11068561673164368, 0.15517836809158325, 0.13186898827552795, -2.0, -2.0, -2.0, -2.0, -2.0, -2.0, 0.1916382610797882, 0.15862978994846344, 0.13685615360736847, 0.13444863259792328, 0.13305839896202087, 0.16119906306266785, 0.18100467324256897, 0.12319610267877579, 0.30576446652412415, 0.10479121655225754, 0.3859402984380722, 0.207750104367733, 0.36155882477760315, 0.1479557305574417, 0.2569224238395691, 0.22232258319854736, 0.20840367674827576, 0.26009494066238403, 0.11003603786230087, 0.095608189702034, 0.21629425883293152, 0.08518088608980179, 0.37606117129325867, 0.37204617261886597, 0.1806311011314392, 0.29987770318984985, -2.0, -2.0, -2.0, -2.0, -2.0, -2.0, -2.0, -2.0, -2.0, -2.0, -2.0, -2.0, -2.0, -2.0, -2.0, 0.45092975348234177, -2.0, -2.0, -2.0, -2.0, -2.0, -2.0, -2.0, -2.0, -2.0, -2.0, -2.0, -2.0, -2.0, -2.0, 0.13718107342720032, 0.1303565502166748, 0.12259119749069214, 0.14247097074985504, -2.0, -2.0, -2.0, -2.0, -2.0, 0.29997479170560837, 0.12094150483608246, 0.12694872915744781, 0.1854708045721054, 0.2623438537120819, 0.19186119735240936, 0.10290053486824036, 0.2206946462392807, 0.13651272654533386, 0.17151209712028503, 0.2510770261287689, 0.3968717157840729, 0.15596002340316772, 0.21867898106575012, 0.276314452290535, -2.0, -2.0, -2.0, -2.0, -2.0, -2.0, -2.0, -2.0, -2.0, -2.0, -2.0, -2.0, -2.0, -2.0, -2.0, -2.0, -2.0, -2.0, -2.0, 0.1398405134677887, 0.12840022146701813, 0.1480628103017807, 0.19347083568572998, 0.1017816886305809, 0.1738833636045456, 0.1861463487148285, 0.1203022450208664, 0.137747660279274, 0.16177338361740112, 0.11760913580656052, 0.1517983227968216, 0.14504578709602356, 0.19581162929534912, 0.19081895053386688, 0.232609823346138, -2.0, -2.0, -2.0, -2.0, -2.0, -2.0, -2.0, -2.0, -2.0, -2.0, -2.0, -2.0, -2.0, -2.0, -2.0, -2.0, -2.0, 0.1667533814907074, 0.06326951831579208, 0.11819227784872055, 0.1593260020017624, 0.26136748492717743, 0.44976501166820526, -2.0, 0.12187091261148453, -2.0, -2.0, -2.0, -2.0, -2.0, -2.0, -2.0, -2.0, 0.25135311484336853, 0.1266666203737259, 0.12771408259868622, 0.1476907581090927, 0.11908610910177231, 0.15190859138965607, 0.15958085656166077, 0.25622817873954773, -2.0, -2.0, -2.0, -2.0, -2.0, -2.0, -2.0, -2.0, -2.0, 0.18447178602218628, 0.16009415686130524, 0.1649269312620163, 0.1517852544784546, 0.17036817967891693, 0.06896737217903137, 0.11115267127752304, 0.15415902435779572, 0.12975497543811798, 0.2736027240753174, -2.0, -2.0, -2.0, -2.0, -2.0, -2.0, -2.0, -2.0, -2.0, -2.0, -2.0, -2.0, 0.13046401739120483, 0.24483005702495575, 0.4702697992324829, 0.18095023930072784, 0.1382271647453308, 0.22746923565864563, 0.26513080298900604, 0.09289991855621338, 0.1407976746559143, 0.10197519510984421, 0.155064195394516, 0.11965596675872803, 0.14501036703586578, 0.06980163604021072, 0.18588721752166748, -2.0, -2.0, -2.0, -2.0, -2.0, -2.0, -2.0, -2.0, -2.0, -2.0, -2.0, -2.0, -2.0, -2.0, -2.0, -2.0, 0.10810978710651398, 0.12836171686649323, 0.43429243564605713, -2.0, -2.0, -2.0, -2.0, 0.10501591116189957, 0.1560172289609909, 0.11081228405237198, 0.1377834975719452, 0.4300435781478882, 0.2215709090232849, 0.18098598718643188, 0.1433306187391281, 0.169383242726326, 0.12643086910247803, 0.16138389706611633, 0.21974924206733704, -2.0, -2.0, -2.0, -2.0, -2.0, -2.0, -2.0, -2.0, -2.0, -2.0, -2.0, -2.0, -2.0, -2.0, 0.1306857317686081, 0.1184450164437294, 0.24602767825126648, -2.0, -2.0, -2.0, -2.0, -2.0], "value": [[0.8633615477629988, 0.13663845223700122], [0.872647274505011, 0.127352725494989], [0.8792806109879281, 0.12071938901207194], [0.8829787234042553, 0.11702127659574468], [0.8906093906093906, 0.10939060939060939], [0.8934570067686137, 0.10654299323138632], [0.904252610134963, 0.09574738986503692], [0.9079519304525697, 0.09204806954743032], [0.9127621019932695, 0.08723789800673053], [0.9169054441260746, 0.0830945558739255], [0.9188201513965022, 0.08117984860349778], [0.9326081188644203, 0.06739188113557973], [0.9385069817400644, 0.061493018259935556], [0.9433198380566802, 0.05668016194331984], [0.9466413867822319, 0.05335861321776815], [0.9489546565300027, 0.051045343469997284], [0.9553964757709251, 0.04460352422907489], [0.9582757667864051, 0.04172423321359492], [0.959867146415721, 0.04013285358427899], [0.968944099378882, 0.031055900621118012], [0.9710966279399263, 0.028903372060073675], [0.9724510082362965, 0.027548991763703495], [0.9735570088143304, 0.026442991185669604], [0.9743881616391576, 0.025611838360842343], [0.9754846066134549, 0.02451539338654504], [0.9765981735159818, 0.023401826484018264], [0.9776696249642142, 0.022330375035785856], [0.9787783194723257, 0.02122168052767422], [0.9793400286944046, 0.02065997130559541], [0.9796211251435132, 0.020378874856486796], [0.9801838024124067, 0.019816197587593336], [0.9807471264367816, 0.019252873563218392], [0.9810290313308422, 0.018970968669157803], [0.9824409902130109, 0.01755900978698906], [0.9835402829916258, 0.01645971700837424], [0.9838150289017341, 0.016184971098265895], [0.9860909881193857, 0.013909011880614315], [0.9863768115942029, 0.013623188405797102], [0.9886297376093295, 0.011370262390670554], [0.9889180519101779, 0.011081948089822106], [0.9892002335084646, 0.010799766491535318], [0.9894829097283085, 0.010517090271691499], [0.990632318501171, 0.00936768149882904], [0.9908984145625367, 0.0091015854374633], [0.9911894273127754, 0.00881057268722467], [0.9920424403183024, 0.007957559681697613], [0.9923349056603774, 0.0076650943396226415], [0.9926231926822071, 0.007376807317792859], [0.9929161747343566, 0.0070838252656434475], [0.9925948781240358, 0.007405121875964209], [0.9928770517187984, 0.00712294828120161], [0.9934924078091106, 0.006507592190889371], [0.9934086629001884, 0.006591337099811676], [0.9936588459099556, 0.0063411540900443885], [0.9942784488239034, 0.00572155117609663], [0.9945894334818587, 0.0054105665181413114], [0.9944353518821604, 0.005564648117839607], [0.9947609692206941, 0.005239030779305829], [0.9950867998689813, 0.00491320013101867], [0.9953410981697172, 0.004658901830282862], [0.995118549511855, 0.0048814504881450485], [0.9958129797627355, 0.00418702023726448], [0.9965083798882681, 0.0034916201117318434], [0.9964311206281228, 0.0035688793718772305], [0.9963833634719711, 0.003616636528028933], [0.9963316214233309, 0.003668378576669112], [0.9962728289228475, 0.003727171077152441], [0.9966405375139977, 0.0033594624860022394], [0.9970115801270079, 0.0029884198729921555], [0.9969662495259765, 0.0030337504740235114], [0.9968871595330739, 0.0031128404669260703], [0.997275204359673, 0.0027247956403269754], [0.9972155926809865, 0.0027844073190135244], [0.9970686767169179, 0.002931323283082077], [0.9969944182052383, 0.0030055817947617003], [0.9969591659426585, 0.0030408340573414424], [0.9969040247678018, 0.0030959752321981426], [0.9968722073279714, 0.003127792672028597], [0.9977598566308243, 0.002240143369175627], [0.997737556561086, 0.0022624434389140274], [0.9981735159817352, 0.0018264840182648401], [0.9986295111923252, 0.0013704888076747374], [0.9985714285714286, 0.0014285714285714286], [0.9985569985569985, 0.001443001443001443], [0.9985301322880941, 0.0014698677119059284], [0.9984977466199298, 0.0015022533800701052], [0.9984358706986444, 0.0015641293013555788], [0.9983879634605051, 0.0016120365394948952], [0.9983579638752053, 0.0016420361247947454], [0.9983240223463687, 0.0016759776536312849], [0.9982507288629737, 0.001749271137026239], [0.9982259018332348, 0.0017740981667652277], [0.9982121573301549, 0.0017878426698450535], [0.9981504315659679, 0.0018495684340320592], [0.9981261711430356, 0.0018738288569643974], [0.998108448928121, 0.0018915510718789407], [0.9980842911877394, 0.0019157088122605363], [0.9980595084087969, 0.0019404915912031048], [0.9980417754569191, 0.0019582245430809398], [0.9980211081794196, 0.001978891820580475], [0.9979494190020506, 0.002050580997949419], [0.9979108635097493, 0.0020891364902506965], [0.9978753541076487, 0.002124645892351275], [0.997822931785196, 0.0021770682148040637], [0.9977358490566037, 0.0022641509433962265], [0.9984472049689441, 0.0015527950310559005], [0.998422712933754, 0.0015772870662460567], [0.9984012789768185, 0.0015987210231814548], [0.9983484723369116, 0.0016515276630883566], [0.998324958123953, 0.0016750418760469012], [0.9983136593591906, 0.0016863406408094434], [0.9983007646559049, 0.0016992353440951572], [0.9982905982905983, 0.0017094017094017094], [0.998220640569395, 0.0017793594306049821], [0.998165137614679, 0.001834862385321101], [0.9981412639405205, 0.0018587360594795538], [0.9981185324553151, 0.0018814675446848542], [0.9981006647673314, 0.001899335232668566], [0.9980750721847931, 0.0019249278152069298], [0.9980544747081712, 0.0019455252918287938], [0.9980295566502463, 0.0019704433497536944], [0.9980099502487563, 0.001990049751243781], [0.9979274611398964, 0.002072538860103627], [0.9979013641133263, 0.002098635886673662], [0.9978586723768736, 0.0021413276231263384], [0.9978401727861771, 0.0021598272138228943], [0.9977802441731409, 0.0022197558268590455], [0.9977553310886644, 0.002244668911335578], [0.9977349943374858, 0.0022650056625141564], [0.9977064220183486, 0.0022935779816513763], [0.9976798143851509, 0.002320185614849188], [0.9976331360946745, 0.002366863905325444], [0.9975990396158463, 0.0024009603841536613], [0.9975669099756691, 0.0024330900243309003], [0.9975429975429976, 0.002457002457002457], [0.9975186104218362, 0.0024813895781637717], [0.9974874371859297, 0.002512562814070352], [0.9974651457541192, 0.0025348542458808617], [0.9974326059050064, 0.0025673940949935813], [0.9974025974025974, 0.0025974025974025974], [0.9973787680209698, 0.002621231979030144], [0.9973579920739762, 0.002642007926023778], [0.9973262032085561, 0.00267379679144385], [0.9973045822102425, 0.0026954177897574125], [0.9972640218878249, 0.0027359781121751026], [0.9972183588317107, 0.0027816411682892906], [1.0, 0.0], [0.0, 1.0], [1.0, 0.0], [1.0, 0.0], [1.0, 0.0], [1.0, 0.0], [1.0, 0.0], [1.0, 0.0], [1.0, 0.0], [1.0, 0.0], [1.0, 0.0], [1.0, 0.0], [1.0, 0.0], [1.0, 0.0], [1.0, 0.0], [1.0, 0.0], [1.0, 0.0], [1.0, 0.0], [1.0, 0.0], [1.0, 0.0], [1.0, 0.0], [1.0, 0.0], [1.0, 0.0], [1.0, 0.0], [1.0, 0.0], [1.0, 0.0], [1.0, 0.0], [1.0, 0.0], [1.0, 0.0], [1.0, 0.0], [1.0, 0.0], [1.0, 0.0], [1.0, 0.0], [1.0, 0.0], [1.0, 0.0], [1.0, 0.0], [1.0, 0.0], [1.0, 0.0], [1.0, 0.0], [1.0, 0.0], [1.0, 0.0], [1.0, 0.0], [0.972972972972973, 0.02702702702702703], [0.9705882352941176, 0.029411764705882353], [0.0, 1.0], [1.0, 0.0], [1.0, 0.0], [1.0, 0.0], [1.0, 0.0], [1.0, 0.0], [1.0, 0.0], [1.0, 0.0], [1.0, 0.0], [1.0, 0.0], [1.0, 0.0], [1.0, 0.0], [1.0, 0.0], [1.0, 0.0], [1.0, 0.0], [1.0, 0.0], [1.0, 0.0], [1.0, 0.0], [1.0, 0.0], [1.0, 0.0], [1.0, 0.0], [1.0, 0.0], [1.0, 0.0], [1.0, 0.0], [1.0, 0.0], [1.0, 0.0], [0.0, 1.0], [0.95, 0.05], [0.9411764705882353, 0.058823529411764705], [0.9333333333333333, 0.06666666666666667], [0.9090909090909091, 0.09090909090909091], [1.0, 0.0], [0.0, 1.0], [1.0, 0.0], [1.0, 0.0], [1.0, 0.0], [1.0, 0.0], [0.6666666666666666, 0.3333333333333333], [1.0, 0.0], [1.0, 0.0], [1.0, 0.0], [1.0, 0.0], [1.0, 0.0], [1.0, 0.0], [0.0, 1.0], [1.0, 0.0], [1.0, 0.0], [0.5, 0.5], [0.75, 0.25], [0.0, 1.0], [1.0, 0.0], [1.0, 0.0], [1.0, 0.0], [1.0, 0.0], [1.0, 0.0], [0.0, 1.0], [0.0, 1.0], [1.0, 0.0], [0.9791666666666666, 0.020833333333333332], [0.9782608695652174, 0.021739130434782608], [0.9772727272727273, 0.022727272727272728], [0.9767441860465116, 0.023255813953488372], [0.975609756097561, 0.024390243902439025], [0.9743589743589743, 0.02564102564102564], [0.972972972972973, 0.02702702702702703], [0.9722222222222222, 0.027777777777777776], [0.967741935483871, 0.03225806451612903], [0.9655172413793104, 0.034482758620689655], [1.0, 0.0], [0.0, 1.0], [1.0, 0.0], [1.0, 0.0], [1.0, 0.0], [1.0, 0.0], [1.0, 0.0], [1.0, 0.0], [1.0, 0.0], [1.0, 0.0], [1.0, 0.0], [0.0, 1.0], [0.0, 1.0], [1.0, 0.0], [0.75, 0.25], [1.0, 0.0], [0.0, 1.0], [0.75, 0.25], [1.0, 0.0], [0.0, 1.0], [0.96875, 0.03125], [0.9666666666666667, 0.03333333333333333], [1.0, 0.0], [0.75, 0.25], [1.0, 0.0], [0.0, 1.0], [1.0, 0.0], [1.0, 0.0], [0.0, 1.0], [0.9166666666666666, 0.08333333333333333], [1.0, 0.0], [0.0, 1.0], [1.0, 0.0], [0.0, 1.0], [0.6666666666666666, 0.3333333333333333], [1.0, 0.0], [0.0, 1.0], [0.0, 1.0], [0.75, 0.25], [1.0, 0.0], [0.0, 1.0], [0.0, 1.0], [0.9, 0.1], [1.0, 0.0], [0.0, 1.0], [0.42857142857142855, 0.5714285714285714], [0.6, 0.4], [0.0, 1.0], [1.0, 0.0], [0.0, 1.0], [0.6666666666666666, 0.3333333333333333], [0.6666666666666666, 0.3333333333333333], [0.0, 1.0], [1.0, 0.0], [0.0, 1.0], [0.6, 0.4], [1.0, 0.0], [0.0, 1.0], [0.0, 1.0], [0.1111111111111111, 0.8888888888888888], [0.0, 1.0], [1.0, 0.0], [0.6666666666666666, 0.3333333333333333], [0.5, 0.5], [1.0, 0.0], [0.0, 1.0], [1.0, 0.0], [0.6363636363636364, 0.36363636363636365], [0.6, 0.4], [0.0, 1.0], [1.0, 0.0], [1.0, 0.0], [0.0, 1.0], [0.0, 1.0], [0.0, 1.0], [0.0, 1.0], [0.0, 1.0], [0.0, 1.0], [0.3333333333333333, 0.6666666666666666], [0.6666666666666666, 0.3333333333333333], [0.5, 0.5], [0.0, 1.0], [1.0, 0.0], [1.0, 0.0], [0.0, 1.0], [0.6363636363636364, 0.36363636363636365], [0.6, 0.4], [0.5, 0.5], [1.0, 0.0], [0.0, 1.0], [1.0, 0.0], [1.0, 0.0], [0.0, 1.0], [0.3333333333333333, 0.6666666666666666], [0.5, 0.5], [1.0, 0.0], [0.0, 1.0], [0.0, 1.0], [0.0, 1.0], [0.0, 1.0], [0.375, 0.625], [0.2857142857142857, 0.7142857142857143], [0.3333333333333333, 0.6666666666666666], [0.6666666666666666, 0.3333333333333333], [1.0, 0.0], [0.0, 1.0], [0.0, 1.0], [0.0, 1.0], [1.0, 0.0], [0.38461538461538464, 0.6153846153846154], [0.3333333333333333, 0.6666666666666666], [0.4, 0.6], [0.5714285714285714, 0.42857142857142855], [0.25, 0.75], [1.0, 0.0], [0.0, 1.0], [1.0, 0.0], [0.0, 1.0], [0.0, 1.0], [1.0, 0.0], [0.5070422535211268, 0.49295774647887325], [0.4927536231884058, 0.5072463768115942], [0.5151515151515151, 0.48484848484848486], [0.5862068965517241, 0.41379310344827586], [0.6071428571428571, 0.39285714285714285], [0.5769230769230769, 0.4230769230769231], [0.6122448979591837, 0.3877551020408163], [0.6382978723404256, 0.3617021276595745], [0.6521739130434783, 0.34782608695652173], [0.6818181818181818, 0.3181818181818182], [0.6585365853658537, 0.34146341463414637], [0.675, 0.325], [0.7142857142857143, 0.2857142857142857], [0.7352941176470589, 0.2647058823529412], [0.78125, 0.21875], [0.7741935483870968, 0.22580645161290322], [0.8275862068965517, 0.1724137931034483], [0.8571428571428571, 0.14285714285714285], [0.8260869565217391, 0.17391304347826086], [0.8181818181818182, 0.18181818181818182], [0.8095238095238095, 0.19047619047619047], [0.7777777777777778, 0.2222222222222222], [0.875, 0.125], [0.8666666666666667, 0.13333333333333333], [0.8461538461538461, 0.15384615384615385], [0.8181818181818182, 0.18181818181818182], [1.0, 0.0], [0.0, 1.0], [1.0, 0.0], [1.0, 0.0], [1.0, 0.0], [0.0, 1.0], [1.0, 0.0], [1.0, 0.0], [1.0, 0.0], [1.0, 0.0], [0.0, 1.0], [0.0, 1.0], [1.0, 0.0], [0.0, 1.0], [0.0, 1.0], [0.4, 0.6], [0.0, 1.0], [1.0, 0.0], [0.0, 1.0], [1.0, 0.0], [0.0, 1.0], [0.0, 1.0], [0.0, 1.0], [0.0, 1.0], [1.0, 0.0], [0.0, 1.0], [0.0, 1.0], [0.0, 1.0], [1.0, 0.0], [0.0, 1.0], [0.15384615384615385, 0.8461538461538461], [0.16666666666666666, 0.8333333333333334], [0.25, 0.75], [0.4, 0.6], [1.0, 0.0], [0.0, 1.0], [0.0, 1.0], [0.0, 1.0], [0.0, 1.0], [0.49019607843137253, 0.5098039215686274], [0.44680851063829785, 0.5531914893617021], [0.5121951219512195, 0.4878048780487805], [0.5675675675675675, 0.43243243243243246], [0.5555555555555556, 0.4444444444444444], [0.5882352941176471, 0.4117647058823529], [0.5625, 0.4375], [0.6428571428571429, 0.35714285714285715], [0.6153846153846154, 0.38461538461538464], [0.6956521739130435, 0.30434782608695654], [0.6818181818181818, 0.3181818181818182], [0.65, 0.35], [0.631578947368421, 0.3684210526315789], [0.5882352941176471, 0.4117647058823529], [0.5, 0.5], [0.0, 1.0], [1.0, 0.0], [1.0, 0.0], [1.0, 0.0], [1.0, 0.0], [1.0, 0.0], [1.0, 0.0], [0.0, 1.0], [1.0, 0.0], [0.0, 1.0], [1.0, 0.0], [0.0, 1.0], [1.0, 0.0], [0.0, 1.0], [0.0, 1.0], [1.0, 0.0], [0.0, 1.0], [0.0, 1.0], [0.0, 1.0], [0.4444444444444444, 0.5555555555555556], [0.5, 0.5], [0.4594594594594595, 0.5405405405405406], [0.4722222222222222, 0.5277777777777778], [0.40625, 0.59375], [0.4642857142857143, 0.5357142857142857], [0.48148148148148145, 0.5185185185185185], [0.46153846153846156, 0.5384615384615384], [0.631578947368421, 0.3684210526315789], [0.5333333333333333, 0.4666666666666667], [0.6153846153846154, 0.38461538461538464], [0.7272727272727273, 0.2727272727272727], [0.8, 0.2], [0.7777777777777778, 0.2222222222222222], [0.75, 0.25], [0.7142857142857143, 0.2857142857142857], [1.0, 0.0], [0.0, 1.0], [1.0, 0.0], [1.0, 0.0], [1.0, 0.0], [0.0, 1.0], [0.0, 1.0], [0.0, 1.0], [1.0, 0.0], [0.0, 1.0], [1.0, 0.0], [0.0, 1.0], [0.0, 1.0], [1.0, 0.0], [0.0, 1.0], [1.0, 0.0], [0.0, 1.0], [0.08064516129032258, 0.9193548387096774], [0.06557377049180328, 0.9344262295081968], [0.08888888888888889, 0.9111111111111111], [0.10256410256410256, 0.8974358974358975], [0.07894736842105263, 0.9210526315789473], [0.05405405405405406, 0.9459459459459459], [0.0, 1.0], [0.4, 0.6], [1.0, 0.0], [0.0, 1.0], [1.0, 0.0], [1.0, 0.0], [0.0, 1.0], [0.0, 1.0], [1.0, 0.0], [0.0, 1.0], [0.25, 0.75], [0.18181818181818182, 0.8181818181818182], [0.2, 0.8], [0.2222222222222222, 0.7777777777777778], [0.23529411764705882, 0.7647058823529411], [0.4444444444444444, 0.5555555555555556], [0.5714285714285714, 0.42857142857142855], [0.6666666666666666, 0.3333333333333333], [1.0, 0.0], [0.0, 1.0], [0.0, 1.0], [0.0, 1.0], [0.0, 1.0], [0.0, 1.0], [0.0, 1.0], [0.0, 1.0], [1.0, 0.0], [0.5208333333333334, 0.4791666666666667], [0.5681818181818182, 0.4318181818181818], [0.525, 0.475], [0.3448275862068966, 0.6551724137931034], [0.35714285714285715, 0.6428571428571429], [0.3076923076923077, 0.6923076923076923], [0.5, 0.5], [0.6666666666666666, 0.3333333333333333], [0.7272727272727273, 0.2727272727272727], [0.8, 0.2], [1.0, 0.0], [0.0, 1.0], [0.0, 1.0], [0.0, 1.0], [0.0, 1.0], [0.0, 1.0], [1.0, 0.0], [0.0, 1.0], [1.0, 0.0], [1.0, 0.0], [0.0, 1.0], [0.0, 1.0], [0.20967741935483872, 0.7903225806451613], [0.15517241379310345, 0.8448275862068966], [0.14035087719298245, 0.8596491228070176], [0.125, 0.875], [0.10909090909090909, 0.8909090909090909], [0.09259259259259259, 0.9074074074074074], [0.07547169811320754, 0.9245283018867925], [0.057692307692307696, 0.9423076923076923], [0.0392156862745098, 0.9607843137254902], [0.0425531914893617, 0.9574468085106383], [0.021739130434782608, 0.9782608695652174], [0.022222222222222223, 0.9777777777777777], [0.023809523809523808, 0.9761904761904762], [0.02564102564102564, 0.9743589743589743], [0.030303030303030304, 0.9696969696969697], [0.0, 1.0], [1.0, 0.0], [0.0, 1.0], [0.0, 1.0], [0.0, 1.0], [0.0, 1.0], [1.0, 0.0], [0.0, 1.0], [1.0, 0.0], [1.0, 0.0], [1.0, 0.0], [1.0, 0.0], [1.0, 0.0], [1.0, 0.0], [1.0, 0.0], [1.0, 0.0], [0.13333333333333333, 0.8666666666666667], [0.18181818181818182, 0.8181818181818182], [0.25, 0.75], [0.0, 1.0], [1.0, 0.0], [0.0, 1.0], [0.0, 1.0], [0.07894736842105263, 0.9210526315789473], [0.125, 0.875], [0.15, 0.85], [0.17647058823529413, 0.8235294117647058], [0.2, 0.8], [0.07692307692307693, 0.9230769230769231], [0.09090909090909091, 0.9090909090909091], [0.125, 0.875], [0.14285714285714285, 0.8571428571428571], [0.25, 0.75], [0.3333333333333333, 0.6666666666666666], [0.5, 0.5], [1.0, 0.0], [0.0, 1.0], [0.0, 1.0], [0.0, 1.0], [0.0, 1.0], [0.0, 1.0], [0.0, 1.0], [0.0, 1.0], [1.0, 0.0], [0.0, 1.0], [0.0, 1.0], [0.0, 1.0], [0.0, 1.0], [0.0, 1.0], [0.03125, 0.96875], [0.058823529411764705, 0.9411764705882353], [0.0625, 0.9375], [0.0, 1.0], [1.0, 0.0], [0.0, 1.0], [0.0, 1.0], [0.0, 1.0]], "impurity": [0.23593677121455592, 0.222268017607974, 0.21229243625724792, 0.20665459483929383, 0.19484860793552106, 0.19038316764936614, 0.17315965439813907, 0.1671504448800435, 0.15925489431619566, 0.15237970131608114, 0.14917936156842193, 0.12570043098517525, 0.11542325393043762, 0.10693504237079776, 0.10102294322648953, 0.09687943276005462, 0.08522809971084244, 0.07996664315266488, 0.07704441529492367, 0.060182863315458524, 0.05613593428726127, 0.05358008963301375, 0.05148751880564839, 0.04991174419324085, 0.04782877774729599, 0.04570836200246031, 0.043663458773093966, 0.04154264160651111, 0.04046627378249479, 0.03992715263214086, 0.0388470318015256, 0.037764400845554214, 0.037222142033823236, 0.03450138192457897, 0.032377589448756905, 0.03184603561762833, 0.02743110253823844, 0.02687519428691454, 0.022481959047675693, 0.021918277032713207, 0.021366263070527247, 0.02081296216781714, 0.018559856084331083, 0.018037493159975715, 0.017465892992295617, 0.01578847385121962, 0.01521268133677467, 0.014644780063178042, 0.014067289370498504, 0.014700572091932651, 0.014144423777969872, 0.012930486869532909, 0.013095782750096596, 0.012601887709701387, 0.011377630056471855, 0.010762584576188172, 0.01106736561832844, 0.010423166671598594, 0.009778121190982425, 0.009274392928037334, 0.009715243858553713, 0.008338978197594438, 0.00695885740145441, 0.007112284943812441, 0.00720711293650611, 0.007309843150574702, 0.007426558545828188, 0.006696352995614774, 0.005958978439309703, 0.006049093664169725, 0.0062063013823070445, 0.005434742258090819, 0.005553308789790656, 0.005845461253784268, 0.005993096545673371, 0.006063174771154256, 0.006172780339119499, 0.006236019170058782, 0.004470250253722385, 0.004514649577199492, 0.0036462959487917335, 0.0027372211362055587, 0.0028530612244898057, 0.002881838379673929, 0.0029354144016308092, 0.0029999932297043452, 0.003123365601768402, 0.0032188757553804903, 0.0032786796843192745, 0.003346337505071628, 0.0034924223750307792, 0.0035419014849198405, 0.00356929257686589, 0.003692295061279771, 0.003740635244758428, 0.003775946212842829, 0.003824077744014276, 0.003873452167175162, 0.003908779799439599, 0.003949951615485836, 0.004092752231040553, 0.0041695439979515525, 0.004240263544366796, 0.004344657177584255, 0.004518049127803514, 0.003100767717294839, 0.00314959846351337, 0.003192330228543039, 0.003297600238932774, 0.003344472221520789, 0.003366993792105144, 0.0033926958866811185, 0.0034129593103952027, 0.003552386621243353, 0.0036629913306960304, 0.003710562319481525, 0.00375585524912625, 0.0037914555166850272, 0.003842444936226319, 0.0038834804463352413, 0.0039331214055181585, 0.003972178906462731, 0.004136486885554014, 0.004188463228177675, 0.004273484678273598, 0.004310324720458669, 0.004429657021856381, 0.0044792607456281, 0.00451975082372591, 0.004576634963386894, 0.004629604707123702, 0.004722523721158223, 0.0047903915467747415, 0.0048543401945287945, 0.004901931191857445, 0.00495046456785031, 0.005012499684351357, 0.005056857519666003, 0.005121605165109178, 0.005181312194299181, 0.005228722243884487, 0.005270055440285248, 0.005333295204323796, 0.005376305025392103, 0.005456985071889631, 0.005547807281400363, 0.0, 0.0, 0.0, 0.0, 0.0, 0.0, 0.0, 0.0, 0.0, 0.0, 0.0, 0.0, 0.0, 0.0, 0.0, 0.0, 0.0, 0.0, 0.0, 0.0, 0.0, 0.0, 0.0, 0.0, 0.0, 0.0, 0.0, 0.0, 0.0, 0.0, 0.0, 0.0, 0.0, 0.0, 0.0, 0.0, 0.0, 0.0, 0.0, 0.0, 0.0, 0.0, 0.05259313367421481, 0.05709342560553632, 0.0, 0.0, 0.0, 0.0, 0.0, 0.0, 0.0, 0.0, 0.0, 0.0, 0.0, 0.0, 0.0, 0.0, 0.0, 0.0, 0.0, 0.0, 0.0, 0.0, 0.0, 0.0, 0.0, 0.0, 0.0, 0.0, 0.0, 0.09499999999999997, 0.11072664359861595, 0.12444444444444447, 0.1652892561983471, 0.0, 0.0, 0.0, 0.0, 0.0, 0.0, 0.4444444444444444, 0.0, 0.0, 0.0, 0.0, 0.0, 0.0, 0.0, 0.0, 0.0, 0.5, 0.375, 0.0, 0.0, 0.0, 0.0, 0.0, 0.0, 0.0, 0.0, 0.0, 0.04079861111111116, 0.042533081285444196, 0.044421487603305776, 0.045429962141698255, 0.04759071980963714, 0.04996712689020377, 0.05259313367421481, 0.054012345679012363, 0.06243496357960454, 0.06658739595719376, 0.0, 0.0, 0.0, 0.0, 0.0, 0.0, 0.0, 0.0, 0.0, 0.0, 0.0, 0.0, 0.0, 0.0, 0.375, 0.0, 0.0, 0.375, 0.0, 0.0, 0.060546875, 0.06444444444444442, 0.0, 0.375, 0.0, 0.0, 0.0, 0.0, 0.0, 0.1527777777777778, 0.0, 0.0, 0.0, 0.0, 0.4444444444444444, 0.0, 0.0, 0.0, 0.375, 0.0, 0.0, 0.0, 0.18000000000000005, 0.0, 0.0, 0.4897959183673469, 0.48, 0.0, 0.0, 0.0, 0.4444444444444444, 0.4444444444444444, 0.0, 0.0, 0.0, 0.48, 0.0, 0.0, 0.0, 0.19753086419753085, 0.0, 0.0, 0.4444444444444444, 0.5, 0.0, 0.0, 0.0, 0.4628099173553719, 0.48, 0.0, 0.0, 0.0, 0.0, 0.0, 0.0, 0.0, 0.0, 0.0, 0.4444444444444444, 0.4444444444444444, 0.5, 0.0, 0.0, 0.0, 0.0, 0.4628099173553719, 0.48, 0.5, 0.0, 0.0, 0.0, 0.0, 0.0, 0.4444444444444444, 0.5, 0.0, 0.0, 0.0, 0.0, 0.0, 0.46875, 0.40816326530612246, 0.4444444444444444, 0.4444444444444444, 0.0, 0.0, 0.0, 0.0, 0.0, 0.47337278106508873, 0.4444444444444444, 0.48, 0.4897959183673469, 0.375, 0.0, 0.0, 0.0, 0.0, 0.0, 0.0, 0.49990081333068836, 0.4998949800462088, 0.4995408631772268, 0.4851367419738407, 0.4770408163265306, 0.48816568047337283, 0.4748021657642649, 0.46174739701222267, 0.45368620037807184, 0.43388429752066116, 0.44973230220107074, 0.43875, 0.40816326530612246, 0.38927335640138405, 0.341796875, 0.34963579604578565, 0.2853745541022592, 0.24489795918367352, 0.2873345935727788, 0.2975206611570248, 0.308390022675737, 0.345679012345679, 0.21875, 0.23111111111111116, 0.2603550295857988, 0.2975206611570248, 0.0, 0.0, 0.0, 0.0, 0.0, 0.0, 0.0, 0.0, 0.0, 0.0, 0.0, 0.0, 0.0, 0.0, 0.0, 0.48, 0.0, 0.0, 0.0, 0.0, 0.0, 0.0, 0.0, 0.0, 0.0, 0.0, 0.0, 0.0, 0.0, 0.0, 0.2603550295857988, 0.2777777777777778, 0.375, 0.48, 0.0, 0.0, 0.0, 0.0, 0.0, 0.49980776624375245, 0.4943413309189678, 0.4997025580011898, 0.49086924762600437, 0.49382716049382713, 0.4844290657439446, 0.4921875, 0.4591836734693877, 0.47337278106508873, 0.4234404536862004, 0.43388429752066116, 0.45499999999999996, 0.46537396121883656, 0.4844290657439446, 0.5, 0.0, 0.0, 0.0, 0.0, 0.0, 0.0, 0.0, 0.0, 0.0, 0.0, 0.0, 0.0, 0.0, 0.0, 0.0, 0.0, 0.0, 0.0, 0.0, 0.49382716049382713, 0.5, 0.4967129291453616, 0.4984567901234568, 0.482421875, 0.49744897959183676, 0.4993141289437586, 0.4970414201183432, 0.46537396121883656, 0.49777777777777776, 0.47337278106508873, 0.39669421487603307, 0.31999999999999995, 0.345679012345679, 0.375, 0.40816326530612246, 0.0, 0.0, 0.0, 0.0, 0.0, 0.0, 0.0, 0.0, 0.0, 0.0, 0.0, 0.0, 0.0, 0.0, 0.0, 0.0, 0.0, 0.14828303850156088, 0.1225477022305832, 0.1619753086419753, 0.1840894148586456, 0.14542936288088648, 0.1022644265887509, 0.0, 0.48, 0.0, 0.0, 0.0, 0.0, 0.0, 0.0, 0.0, 0.0, 0.375, 0.2975206611570248, 0.31999999999999995, 0.345679012345679, 0.3598615916955017, 0.49382716049382713, 0.4897959183673469, 0.4444444444444444, 0.0, 0.0, 0.0, 0.0, 0.0, 0.0, 0.0, 0.0, 0.0, 0.4991319444444444, 0.4907024793388429, 0.49875, 0.4518430439952438, 0.4591836734693877, 0.42603550295857984, 0.5, 0.4444444444444444, 0.39669421487603307, 0.31999999999999995, 0.0, 0.0, 0.0, 0.0, 0.0, 0.0, 0.0, 0.0, 0.0, 0.0, 0.0, 0.0, 0.3314255983350677, 0.2621878715814506, 0.24130501692828565, 0.21875, 0.19438016528925617, 0.16803840877914955, 0.13955144179423284, 0.10872781065088755, 0.07535563244905807, 0.08148483476686286, 0.042533081285444196, 0.04345679012345682, 0.046485260770975034, 0.04996712689020377, 0.058769513314967825, 0.0, 0.0, 0.0, 0.0, 0.0, 0.0, 0.0, 0.0, 0.0, 0.0, 0.0, 0.0, 0.0, 0.0, 0.0, 0.0, 0.23111111111111116, 0.2975206611570248, 0.375, 0.0, 0.0, 0.0, 0.0, 0.14542936288088648, 0.21875, 0.255, 0.2906574394463668, 0.31999999999999995, 0.14201183431952658, 0.1652892561983471, 0.21875, 0.24489795918367352, 0.375, 0.4444444444444444, 0.5, 0.0, 0.0, 0.0, 0.0, 0.0, 0.0, 0.0, 0.0, 0.0, 0.0, 0.0, 0.0, 0.0, 0.0, 0.060546875, 0.11072664359861595, 0.1171875, 0.0, 0.0, 0.0, 0.0, 0.0]}, {"node_count": 397, "children_left": [1, 2, 3, 4, 5, 6, 7, 8, 9, 10, 11, 12, 13, 14, 15, 16, 17, 18, 19, 20, 21, 22, 23, 24, 25, 26, 27, 28, 29, 30, 31, 32, 33, 34, 35, 36, 37, 38, 39, 40, 41, 42, 43, 44, 45, 46, 47, 48, 49, 50, 51, 52, 53, 54, 55, 56, 57, 58, 59, 60, 61, 62, 63, 64, 65, 66, -1, -1, -1, 70, -1, -1, -1, 74, 75, 76, 77, 78, -1, 80, -1, -1, -1, -1, -1, -1, 87, 88, -1, -1, -1, -1, 93, -1, -1, -1, 97, -1, -1, 100, -1, -1, 103, -1, -1, -1, -1, 108, -1, -1, -1, 112, -1, -1, -1, 116, 117, 118, -1, -1, -1, -1, -1, -1, 125, -1, -1, -1, -1, -1, 131, 132, 133, -1, -1, -1, -1, 138, -1, -1, 141, -1, -1, 144, -1, -1, -1, -1, -1, -1, -1, 152, 153, 154, 155, 156, 157, 158, 159, 160, 161, -1, -1, -1, -1, -1, -1, -1, -1, -1, -1, -1, -1, -1, 175, 176, 177, 178, 179, 180, 181, 182, 183, 184, 185, 186, 187, 188, 189, 190, 191, 192, 193, 194, 195, 196, 197, 198, 199, 200, 201, 202, 203, -1, -1, -1, -1, -1, -1, -1, -1, -1, 213, -1, -1, -1, -1, -1, -1, -1, -1, -1, -1, -1, -1, -1, -1, -1, -1, -1, -1, -1, -1, -1, -1, -1, -1, -1, -1, -1, -1, -1, -1, 244, 245, 246, 247, 248, -1, -1, -1, -1, -1, -1, 255, 256, 257, 258, 259, 260, 261, 262, 263, 264, 265, 266, 267, 268, 269, 270, 271, -1, -1, -1, -1, -1, -1, -1, -1, -1, -1, -1, -1, -1, -1, -1, -1, -1, -1, 290, 291, -1, -1, -1, -1, 296, 297, 298, -1, 300, 301, 302, 303, -1, -1, -1, -1, -1, -1, -1, -1, 312, 313, 314, 315, 316, 317, 318, 319, 320, 321, -1, -1, -1, -1, -1, -1, -1, -1, -1, -1, -1, -1, -1, -1, 336, 337, 338, 339, 340, 341, 342, 343, 344, 345, -1, -1, -1, -1, -1, -1, -1, -1, -1, -1, -1, -1, -1, -1, -1, -1, 362, 363, 364, 365, 366, -1, -1, -1, -1, -1, -1, -1, -1, 375, 376, 377, 378, 379, 380, 381, 382, 383, 384, 385, -1, -1, -1, -1, -1, -1, -1, -1, -1, -1, -1, -1], "children_right": [374, 373, 372, 361, 360, 359, 358, 357, 356, 335, 334, 333, 332, 311, 310, 295, 294, 289, 254, 243, 242, 241, 240, 239, 238, 237, 236, 235, 174, 173, 172, 151, 150, 149, 148, 147, 146, 143, 140, 137, 130, 129, 128, 127, 124, 123, 122, 115, 114, 111, 110, 107, 106, 105, 102, 99, 96, 95, 92, 91, 86, 73, 72, 69, 68, 67, -1, -1, -1, 71, -1, -1, -1, 85, 84, 83, 82, 79, -1, 81, -1, -1, -1, -1, -1, -1, 90, 89, -1, -1, -1, -1, 94, -1, -1, -1, 98, -1, -1, 101, -1, -1, 104, -1, -1, -1, -1, 109, -1, -1, -1, 113, -1, -1, -1, 121, 120, 119, -1, -1, -1, -1, -1, -1, 126, -1, -1, -1, -1, -1, 136, 135, 134, -1, -1, -1, -1, 139, -1, -1, 142, -1, -1, 145, -1, -1, -1, -1, -1, -1, -1, 171, 170, 169, 168, 167, 166, 165, 164, 163, 162, -1, -1, -1, -1, -1, -1, -1, -1, -1, -1, -1, -1, -1, 234, 233, 232, 231, 230, 229, 228, 227, 226, 225, 224, 223, 222, 221, 220, 219, 218, 217, 216, 215, 212, 211, 210, 209, 208, 207, 206, 205, 204, -1, -1, -1, -1, -1, -1, -1, -1, -1, 214, -1, -1, -1, -1, -1, -1, -1, -1, -1, -1, -1, -1, -1, -1, -1, -1, -1, -1, -1, -1, -1, -1, -1, -1, -1, -1, -1, -1, -1, -1, 253, 252, 251, 250, 249, -1, -1, -1, -1, -1, -1, 288, 287, 286, 285, 284, 283, 282, 281, 280, 279, 278, 277, 276, 275, 274, 273, 272, -1, -1, -1, -1, -1, -1, -1, -1, -1, -1, -1, -1, -1, -1, -1, -1, -1, -1, 293, 292, -1, -1, -1, -1, 309, 308, 299, -1, 307, 306, 305, 304, -1, -1, -1, -1, -1, -1, -1, -1, 331, 330, 329, 328, 327, 326, 325, 324, 323, 322, -1, -1, -1, -1, -1, -1, -1, -1, -1, -1, -1, -1, -1, -1, 355, 354, 353, 352, 351, 350, 349, 348, 347, 346, -1, -1, -1, -1, -1, -1, -1, -1, -1, -1, -1, -1, -1, -1, -1, -1, 371, 370, 369, 368, 367, -1, -1, -1, -1, -1, -1, -1, -1, 396, 395, 394, 393, 392, 391, 390, 389, 388, 387, 386, -1, -1, -1, -1, -1, -1, -1, -1, -1, -1, -1, -1], "feature": [164, 554, 40, 903, 8, 900, 23, 79, 298, 39, 52, 584, 894, 555, 27, 783, 26, 436, 889, 184, 146, 284, 226, 375, 662, 676, 7, 10, 840, 961, 891, 333, 60, 994, 978, 973, 28, 346, 203, 634, 811, 214, 487, 579, 159, 6, 112, 796, 17, 878, 432, 269, 248, 126, 434, 583, 543, 366, 749, 586, 929, 642, 927, 483, 462, 540, -2, -2, -2, 830, -2, -2, -2, 514, 606, 470, 413, 137, -2, 452, -2, -2, -2, -2, -2, -2, 452, 858, -2, -2, -2, -2, 913, -2, -2, -2, 452, -2, -2, 451, -2, -2, 215, -2, -2, -2, -2, 363, -2, -2, -2, 878, -2, -2, -2, 408, 836, 742, -2, -2, -2, -2, -2, -2, 71, -2, -2, -2, -2, -2, 879, 452, 753, -2, -2, -2, -2, 634, -2, -2, 203, -2, -2, 204, -2, -2, -2, -2, -2, -2, -2, 952, 447, 729, 750, 50, 709, 51, 173, 642, 325, -2, -2, -2, -2, -2, -2, -2, -2, -2, -2, -2, -2, -2, 931, 283, 810, 357, 402, 113, 371, 6, 599, 115, 562, 930, 921, 199, 961, 153, 68, 462, 489, 755, 752, 573, 927, 227, 270, 811, 965, 361, 858, -2, -2, -2, -2, -2, -2, -2, -2, -2, 137, -2, -2, -2, -2, -2, -2, -2, -2, -2, -2, -2, -2, -2, -2, -2, -2, -2, -2, -2, -2, -2, -2, -2, -2, -2, -2, -2, -2, -2, -2, 434, 423, 288, 462, 418, -2, -2, -2, -2, -2, -2, 830, 638, 100, 589, 443, 334, 605, 24, 471, 761, 994, 811, 959, 640, 977, 548, 176, -2, -2, -2, -2, -2, -2, -2, -2, -2, -2, -2, -2, -2, -2, -2, -2, -2, -2, 543, 452, -2, -2, -2, -2, 811, 452, 783, -2, 514, 231, 637, 413, -2, -2, -2, -2, -2, -2, -2, -2, 693, 428, 889, 753, 250, 231, 648, 174, 841, 490, -2, -2, -2, -2, -2, -2, -2, -2, -2, -2, -2, -2, -2, -2, 682, 350, 452, 183, 203, 699, 372, 653, 961, 405, -2, -2, -2, -2, -2, -2, -2, -2, -2, -2, -2, -2, -2, -2, -2, -2, 126, 498, 119, 179, 219, -2, -2, -2, -2, -2, -2, -2, -2, 637, 757, 702, 185, 713, 571, 405, 919, 840, 979, 14, -2, -2, -2, -2, -2, -2, -2, -2, -2, -2, -2, -2], "threshold": [0.10768552124500275, 0.1043500304222107, 0.10059142112731934, 0.10904437303543091, 0.12877576053142548, 0.13874968886375427, 0.11118090152740479, 0.14482629299163818, 0.13495515286922455, 0.09221502393484116, 0.1432112157344818, 0.14109760522842407, 0.09926117956638336, 0.08562144637107849, 0.1409037709236145, 0.2049814835190773, 0.1738855391740799, 0.15213710069656372, 0.08414413034915924, 0.1808728389441967, 0.13814295828342438, 0.12178929895162582, 0.18402528762817383, 0.13831761479377747, 0.21792474389076233, 0.11827779561281204, 0.16774724423885345, 0.1828748732805252, 0.18898851424455643, 0.41172555088996887, 0.1547069251537323, 0.12681347876787186, 0.5384931713342667, 0.5150261074304581, 0.458332821726799, 0.36056946218013763, 0.2627481520175934, 0.15841740369796753, 0.307530514895916, 0.6327610909938812, 0.23836136609315872, 0.1910572201013565, 0.07799910008907318, 0.19720619916915894, 0.3608958423137665, 0.18689382076263428, 0.2856036126613617, 0.36558035016059875, 0.5286955535411835, 0.4632794260978699, 0.10666079074144363, 0.8120804131031036, 0.29996128380298615, 0.5879339575767517, 0.6062018871307373, 0.3570523113012314, 0.3892609477043152, 0.8478995263576508, 0.24444518238306046, 0.6316670179367065, 0.4271066039800644, 0.3630618304014206, 0.05784694105386734, 0.43607495725154877, 0.07009480893611908, 0.8708473145961761, -2.0, -2.0, -2.0, 0.2406981736421585, -2.0, -2.0, -2.0, 0.18187056481838226, 0.15533509850502014, 0.17628341913223267, 0.18382896482944489, 0.18702812492847443, -2.0, 0.16596157848834991, -2.0, -2.0, -2.0, -2.0, -2.0, -2.0, 0.15448474884033203, 0.14238105714321136, -2.0, -2.0, -2.0, -2.0, 0.3331594467163086, -2.0, -2.0, -2.0, 0.13213464617729187, -2.0, -2.0, 0.1811903566122055, -2.0, -2.0, 0.2778867781162262, -2.0, -2.0, -2.0, -2.0, 0.16005441546440125, -2.0, -2.0, -2.0, 0.7431996315717697, -2.0, -2.0, -2.0, 0.22810980677604675, 0.23094195127487183, 0.22815512120723724, -2.0, -2.0, -2.0, -2.0, -2.0, -2.0, 0.20392920076847076, -2.0, -2.0, -2.0, -2.0, -2.0, 0.23914773762226105, 0.09839829057455063, 0.14807018637657166, -2.0, -2.0, -2.0, -2.0, 0.6802133917808533, -2.0, -2.0, 0.6885936558246613, -2.0, -2.0, 0.1750364899635315, -2.0, -2.0, -2.0, -2.0, -2.0, -2.0, -2.0, 0.12143295258283615, 0.316545769572258, 0.15585972368717194, 0.20356501638889313, 0.19177323579788208, 0.1425618827342987, 0.1649133414030075, 0.21626441180706024, 0.20135922729969025, 0.13444863259792328, -2.0, -2.0, -2.0, -2.0, -2.0, -2.0, -2.0, -2.0, -2.0, -2.0, -2.0, -2.0, -2.0, 0.14398325979709625, 0.15639841556549072, 0.2203684151172638, 0.17274698615074158, 0.218510702252388, 0.17811620235443115, 0.16138364374637604, 0.15510524809360504, 0.12162688374519348, 0.18010137975215912, 0.13949410617351532, 0.3575015366077423, 0.27415207028388977, 0.24535907804965973, 0.215823233127594, 0.2933194637298584, 0.2595789432525635, 0.1442132592201233, 0.13633939623832703, 0.27662792801856995, 0.15240031480789185, 0.2185937464237213, 0.13994163274765015, 0.12083356827497482, 0.37290486693382263, 0.2054642140865326, 0.19663967192173004, 0.27697983384132385, 0.3474900424480438, -2.0, -2.0, -2.0, -2.0, -2.0, -2.0, -2.0, -2.0, -2.0, 0.19227586686611176, -2.0, -2.0, -2.0, -2.0, -2.0, -2.0, -2.0, -2.0, -2.0, -2.0, -2.0, -2.0, -2.0, -2.0, -2.0, -2.0, -2.0, -2.0, -2.0, -2.0, -2.0, -2.0, -2.0, -2.0, -2.0, -2.0, -2.0, -2.0, -2.0, -2.0, 0.14082640409469604, 0.2303892821073532, 0.1551441103219986, 0.12712325155735016, 0.3126867413520813, -2.0, -2.0, -2.0, -2.0, -2.0, -2.0, 0.3715312033891678, 0.18599875271320343, 0.15792088210582733, 0.14564885199069977, 0.1860928237438202, 0.12694872915744781, 0.1602763682603836, 0.1296672374010086, 0.13099399209022522, 0.12302608042955399, 0.1456269770860672, 0.11619993299245834, 0.14348088204860687, 0.19608333706855774, 0.12172266095876694, 0.0976138487458229, 0.28545960783958435, -2.0, -2.0, -2.0, -2.0, -2.0, -2.0, -2.0, -2.0, -2.0, -2.0, -2.0, -2.0, -2.0, -2.0, -2.0, -2.0, -2.0, -2.0, 0.27432554960250854, 0.09720141440629959, -2.0, -2.0, -2.0, -2.0, 0.09797149151563644, 0.09542541950941086, 0.2742074802517891, -2.0, 0.11003603786230087, 0.14497581124305725, 0.30834317207336426, 0.2165924310684204, -2.0, -2.0, -2.0, -2.0, -2.0, -2.0, -2.0, -2.0, 0.1678677499294281, 0.200774148106575, 0.08152244985103607, 0.21341045200824738, 0.1280813366174698, 0.1780933290719986, 0.13071714341640472, 0.14502154290676117, 0.121490478515625, 0.36558854579925537, -2.0, -2.0, -2.0, -2.0, -2.0, -2.0, -2.0, -2.0, -2.0, -2.0, -2.0, -2.0, -2.0, -2.0, 0.19182135164737701, 0.21460585296154022, 0.060773737728595734, 0.1659984439611435, 0.11171618849039078, 0.1104099303483963, 0.12339195609092712, 0.13153664767742157, 0.12050991505384445, 0.2446972131729126, -2.0, -2.0, -2.0, -2.0, -2.0, -2.0, -2.0, -2.0, -2.0, -2.0, -2.0, -2.0, -2.0, -2.0, -2.0, -2.0, 0.12035851925611496, 0.14933152496814728, 0.13574732840061188, 0.15160298347473145, 0.24216623604297638, -2.0, -2.0, -2.0, -2.0, -2.0, -2.0, -2.0, -2.0, 0.2058279812335968, 0.18101662397384644, 0.15503792464733124, 0.15044161677360535, 0.15415902435779572, 0.09514452517032623, 0.09970153868198395, 0.1478825807571411, 0.09922061115503311, 0.1942874789237976, 0.1270526796579361, -2.0, -2.0, -2.0, -2.0, -2.0, -2.0, -2.0, -2.0, -2.0, -2.0, -2.0, -2.0], "value": [[0.871825876662636, 0.12817412333736397], [0.8774067755300999, 0.12259322446990008], [0.8810572687224669, 0.11894273127753303], [0.8893280632411067, 0.11067193675889328], [0.897730107258668, 0.102269892741332], [0.9022311356229632, 0.09776886437703686], [0.9058645859551976, 0.09413541404480241], [0.9113699670802735, 0.08863003291972651], [0.9132199949251459, 0.0867800050748541], [0.9164756811815635, 0.08352431881843647], [0.9239465570400822, 0.07605344295991778], [0.9263266357547656, 0.07367336424523442], [0.9294391315585423, 0.07056086844145774], [0.9381685363944691, 0.06183146360553091], [0.9439768542872172, 0.056023145712782746], [0.9452199104556228, 0.05478008954437714], [0.947869806827203, 0.05213019317279704], [0.9496288441145281, 0.0503711558854719], [0.9516214779372674, 0.04837852206273259], [0.9596557288864981, 0.04034427111350188], [0.9637739929710732, 0.036226007028926734], [0.9648173207036536, 0.035182679296346414], [0.9661246612466124, 0.03387533875338753], [0.9684868242325455, 0.03151317576745449], [0.969804134929271, 0.030195865070729053], [0.9705962428532535, 0.029403757146746527], [0.9719193020719739, 0.02808069792802617], [0.9729803493449781, 0.027019650655021835], [0.9737776563780388, 0.026222343621961214], [0.9783031988873435, 0.021696801112656466], [0.9791202672605791, 0.020879732739420936], [0.9796657381615599, 0.020334261838440112], [0.9841404701217785, 0.01585952987822147], [0.9846982147917257, 0.015301785208274299], [0.9849773242630385, 0.015022675736961451], [0.9855360181508792, 0.014463981849120816], [0.9858156028368794, 0.014184397163120567], [0.9866553094832482, 0.013344690516751846], [0.9869281045751634, 0.013071895424836602], [0.9871977240398293, 0.012802275960170697], [0.9877562642369021, 0.01224373576309795], [0.9879587155963303, 0.012041284403669725], [0.9888091822094691, 0.011190817790530846], [0.9886693782684486, 0.011330621731551424], [0.9892441860465117, 0.010755813953488373], [0.990090352666861, 0.009909647333139027], [0.9906678331875183, 0.009332166812481774], [0.9915353181552832, 0.008464681844716871], [0.9918176504967855, 0.008182349503214495], [0.9921075708857059, 0.007892429114294067], [0.9923954372623575, 0.0076045627376425855], [0.992268807612251, 0.007731192387749034], [0.9925617375781017, 0.007438262421898245], [0.9928571428571429, 0.007142857142857143], [0.9931527240250074, 0.006847275974992557], [0.9940387481371088, 0.005961251862891207], [0.9943334327467939, 0.0056665672532060845], [0.9946107784431137, 0.005389221556886228], [0.9949025487256372, 0.005097451274362818], [0.9954323995127893, 0.004567600487210719], [0.9978632478632479, 0.002136752136752137], [0.9984700122399021, 0.0015299877600979193], [0.9990723562152134, 0.0009276437847866419], [0.9990406140070355, 0.0009593859929645027], [0.9996790757381258, 0.00032092426187419767], [0.9996632996632997, 0.0003367003367003367], [1.0, 0.0], [0.75, 0.25], [1.0, 0.0], [0.8181818181818182, 0.18181818181818182], [1.0, 0.0], [0.0, 1.0], [1.0, 0.0], [0.9411764705882353, 0.058823529411764705], [0.9393939393939394, 0.06060606060606061], [0.9333333333333333, 0.06666666666666667], [0.9259259259259259, 0.07407407407407407], [0.9166666666666666, 0.08333333333333333], [1.0, 0.0], [0.5, 0.5], [0.0, 1.0], [1.0, 0.0], [1.0, 0.0], [1.0, 0.0], [1.0, 0.0], [1.0, 0.0], [0.75, 0.25], [0.6, 0.4], [1.0, 0.0], [0.0, 1.0], [1.0, 0.0], [0.0, 1.0], [0.9607843137254902, 0.0392156862745098], [1.0, 0.0], [0.0, 1.0], [0.8, 0.2], [0.9230769230769231, 0.07692307692307693], [1.0, 0.0], [0.0, 1.0], [0.5, 0.5], [0.0, 1.0], [1.0, 0.0], [0.25, 0.75], [1.0, 0.0], [0.0, 1.0], [0.0, 1.0], [0.0, 1.0], [0.5, 0.5], [1.0, 0.0], [0.0, 1.0], [1.0, 0.0], [0.5, 0.5], [0.0, 1.0], [1.0, 0.0], [0.0, 1.0], [0.75, 0.25], [0.6666666666666666, 0.3333333333333333], [0.5, 0.5], [1.0, 0.0], [0.0, 1.0], [1.0, 0.0], [1.0, 0.0], [0.0, 1.0], [0.0, 1.0], [0.6666666666666666, 0.3333333333333333], [1.0, 0.0], [0.0, 1.0], [0.0, 1.0], [1.0, 0.0], [0.0, 1.0], [0.9583333333333334, 0.041666666666666664], [0.9565217391304348, 0.043478260869565216], [0.95, 0.05], [1.0, 0.0], [0.0, 1.0], [1.0, 0.0], [1.0, 0.0], [0.3333333333333333, 0.6666666666666666], [0.0, 1.0], [1.0, 0.0], [0.75, 0.25], [0.0, 1.0], [1.0, 0.0], [0.6666666666666666, 0.3333333333333333], [0.0, 1.0], [1.0, 0.0], [0.0, 1.0], [0.0, 1.0], [0.0, 1.0], [0.0, 1.0], [0.0, 1.0], [0.711864406779661, 0.288135593220339], [0.7924528301886793, 0.20754716981132076], [0.8076923076923077, 0.19230769230769232], [0.7872340425531915, 0.2127659574468085], [0.8222222222222222, 0.17777777777777778], [0.813953488372093, 0.18604651162790697], [0.9459459459459459, 0.05405405405405406], [0.9428571428571428, 0.05714285714285714], [0.9705882352941176, 0.029411764705882353], [0.967741935483871, 0.03225806451612903], [1.0, 0.0], [0.0, 1.0], [1.0, 0.0], [0.0, 1.0], [1.0, 0.0], [0.0, 1.0], [1.0, 0.0], [0.0, 1.0], [1.0, 0.0], [0.0, 1.0], [0.0, 1.0], [0.0, 1.0], [0.0, 1.0], [0.7272727272727273, 0.2727272727272727], [0.75, 0.25], [0.7741935483870968, 0.22580645161290322], [0.7868852459016393, 0.21311475409836064], [0.8135593220338984, 0.1864406779661017], [0.8571428571428571, 0.14285714285714285], [0.8888888888888888, 0.1111111111111111], [0.8823529411764706, 0.11764705882352941], [0.9, 0.1], [0.8958333333333334, 0.10416666666666667], [0.8936170212765957, 0.10638297872340426], [0.8888888888888888, 0.1111111111111111], [0.9090909090909091, 0.09090909090909091], [0.9302325581395349, 0.06976744186046512], [0.9032258064516129, 0.0967741935483871], [0.9, 0.1], [0.8928571428571429, 0.10714285714285714], [0.8846153846153846, 0.11538461538461539], [0.88, 0.12], [0.8695652173913043, 0.13043478260869565], [0.8636363636363636, 0.13636363636363635], [0.8947368421052632, 0.10526315789473684], [0.8823529411764706, 0.11764705882352941], [0.875, 0.125], [0.8666666666666667, 0.13333333333333333], [0.8333333333333334, 0.16666666666666666], [0.75, 0.25], [0.7142857142857143, 0.2857142857142857], [0.6666666666666666, 0.3333333333333333], [0.3333333333333333, 0.6666666666666666], [1.0, 0.0], [1.0, 0.0], [1.0, 0.0], [1.0, 0.0], [1.0, 0.0], [1.0, 0.0], [1.0, 0.0], [1.0, 0.0], [0.6666666666666666, 0.3333333333333333], [0.0, 1.0], [1.0, 0.0], [1.0, 0.0], [1.0, 0.0], [1.0, 0.0], [1.0, 0.0], [1.0, 0.0], [1.0, 0.0], [1.0, 0.0], [0.0, 1.0], [0.0, 1.0], [1.0, 0.0], [1.0, 0.0], [1.0, 0.0], [0.0, 1.0], [1.0, 0.0], [0.0, 1.0], [0.0, 1.0], [0.0, 1.0], [0.0, 1.0], [0.0, 1.0], [0.0, 1.0], [0.0, 1.0], [0.0, 1.0], [0.0, 1.0], [0.0, 1.0], [0.0, 1.0], [0.0, 1.0], [0.0, 1.0], [0.0, 1.0], [0.15789473684210525, 0.8421052631578947], [0.1875, 0.8125], [0.21428571428571427, 0.7857142857142857], [0.3, 0.7], [0.125, 0.875], [0.0, 1.0], [1.0, 0.0], [1.0, 0.0], [0.0, 1.0], [0.0, 1.0], [0.0, 1.0], [0.2727272727272727, 0.7272727272727273], [0.2558139534883721, 0.7441860465116279], [0.23809523809523808, 0.7619047619047619], [0.1794871794871795, 0.8205128205128205], [0.15789473684210525, 0.8421052631578947], [0.1111111111111111, 0.8888888888888888], [0.12121212121212122, 0.8787878787878788], [0.06451612903225806, 0.9354838709677419], [0.07407407407407407, 0.9259259259259259], [0.08695652173913043, 0.9130434782608695], [0.1, 0.9], [0.1111111111111111, 0.8888888888888888], [0.2222222222222222, 0.7777777777777778], [0.25, 0.75], [0.2857142857142857, 0.7142857142857143], [0.4, 0.6], [0.6666666666666666, 0.3333333333333333], [1.0, 0.0], [0.0, 1.0], [0.0, 1.0], [0.0, 1.0], [0.0, 1.0], [0.0, 1.0], [0.0, 1.0], [0.0, 1.0], [0.0, 1.0], [0.0, 1.0], [0.0, 1.0], [1.0, 0.0], [0.0, 1.0], [1.0, 0.0], [1.0, 0.0], [1.0, 0.0], [1.0, 0.0], [1.0, 0.0], [0.2, 0.8], [0.25, 0.75], [0.0, 1.0], [1.0, 0.0], [0.0, 1.0], [0.0, 1.0], [0.3888888888888889, 0.6111111111111112], [0.5384615384615384, 0.46153846153846156], [0.5833333333333334, 0.4166666666666667], [0.0, 1.0], [0.7777777777777778, 0.2222222222222222], [0.75, 0.25], [0.6, 0.4], [0.5, 0.5], [0.0, 1.0], [1.0, 0.0], [1.0, 0.0], [1.0, 0.0], [1.0, 0.0], [0.0, 1.0], [0.0, 1.0], [0.0, 1.0], [0.22580645161290322, 0.7741935483870968], [0.2, 0.8], [0.14285714285714285, 0.8571428571428571], [0.16, 0.84], [0.18181818181818182, 0.8181818181818182], [0.21052631578947367, 0.7894736842105263], [0.11764705882352941, 0.8823529411764706], [0.0625, 0.9375], [0.07692307692307693, 0.9230769230769231], [0.09090909090909091, 0.9090909090909091], [0.0, 1.0], [1.0, 0.0], [0.0, 1.0], [0.0, 1.0], [1.0, 0.0], [1.0, 0.0], [0.0, 1.0], [0.0, 1.0], [0.0, 1.0], [1.0, 0.0], [1.0, 0.0], [0.0, 1.0], [0.0, 1.0], [0.0, 1.0], [0.08571428571428572, 0.9142857142857143], [0.09090909090909091, 0.9090909090909091], [0.03225806451612903, 0.967741935483871], [0.045454545454545456, 0.9545454545454546], [0.05263157894736842, 0.9473684210526315], [0.09090909090909091, 0.9090909090909091], [0.125, 0.875], [0.14285714285714285, 0.8571428571428571], [0.16666666666666666, 0.8333333333333334], [0.25, 0.75], [0.0, 1.0], [1.0, 0.0], [0.0, 1.0], [0.0, 1.0], [0.0, 1.0], [0.0, 1.0], [0.0, 1.0], [0.0, 1.0], [0.0, 1.0], [1.0, 0.0], [0.0, 1.0], [0.0, 1.0], [0.0, 1.0], [0.0, 1.0], [0.0, 1.0], [0.0, 1.0], [0.02564102564102564, 0.9743589743589743], [0.03333333333333333, 0.9666666666666667], [0.037037037037037035, 0.9629629629629629], [0.045454545454545456, 0.9545454545454546], [0.05, 0.95], [0.0, 1.0], [1.0, 0.0], [0.0, 1.0], [0.0, 1.0], [0.0, 1.0], [0.0, 1.0], [0.0, 1.0], [0.0, 1.0], [0.15625, 0.84375], [0.12903225806451613, 0.8709677419354839], [0.15384615384615385, 0.8461538461538461], [0.16666666666666666, 0.8333333333333334], [0.13043478260869565, 0.8695652173913043], [0.15, 0.85], [0.2, 0.8], [0.21428571428571427, 0.7857142857142857], [0.25, 0.75], [0.3333333333333333, 0.6666666666666666], [0.5, 0.5], [1.0, 0.0], [0.0, 1.0], [0.0, 1.0], [0.0, 1.0], [0.0, 1.0], [0.0, 1.0], [0.0, 1.0], [0.0, 1.0], [1.0, 0.0], [0.0, 1.0], [0.0, 1.0], [1.0, 0.0]], "impurity": [0.22349103488812438, 0.21512825156794557, 0.2095907159075472, 0.19684731834585767, 0.18362152356001693, 0.17642022707092286, 0.1705478757348321, 0.16154950036874938, 0.1584984715881248, 0.1530960139687053, 0.14053863354772067, 0.1364911992920469, 0.13116406457249008, 0.11601666742785766, 0.10576910571445408, 0.10355846266777435, 0.09882527226512783, 0.0956678050804668, 0.09207608133151657, 0.07743322180364431, 0.06982736688733382, 0.06788971674775368, 0.0654556003554615, 0.061040191041007996, 0.058568149606718745, 0.057078352424803414, 0.05458434466380224, 0.05257917826700487, 0.05106946463386597, 0.04245209986826859, 0.04088753900030262, 0.03984155926785171, 0.03121601038052657, 0.030135281155428295, 0.02959398990132711, 0.02850955015637824, 0.027966400080478904, 0.02633321950352796, 0.0258020419496775, 0.025276755380820637, 0.024187653395322806, 0.023792583747159313, 0.02213116677541993, 0.02240447748545582, 0.021280252839372626, 0.019622892445743667, 0.01849015495013162, 0.016786062011969194, 0.016230797319643497, 0.015660277353939822, 0.015093466726423643, 0.015342842104025256, 0.014765869348082439, 0.014183673469387759, 0.013600781573429699, 0.011851430678236796, 0.011268914537541974, 0.010720355695793993, 0.01014293452973658, 0.009093475025999886, 0.004264372854116405, 0.0030552937951037196, 0.0018535665235903664, 0.0019169311429619862, 0.000641642538984688, 0.0006731739391672154, 0.0, 0.375, 0.0, 0.2975206611570248, 0.0, 0.0, 0.0, 0.11072664359861595, 0.1138659320477502, 0.12444444444444447, 0.13717421124828533, 0.1527777777777778, 0.0, 0.5, 0.0, 0.0, 0.0, 0.0, 0.0, 0.0, 0.375, 0.48, 0.0, 0.0, 0.0, 0.0, 0.07535563244905807, 0.0, 0.0, 0.31999999999999995, 0.14201183431952658, 0.0, 0.0, 0.5, 0.0, 0.0, 0.375, 0.0, 0.0, 0.0, 0.0, 0.5, 0.0, 0.0, 0.0, 0.5, 0.0, 0.0, 0.0, 0.375, 0.4444444444444444, 0.5, 0.0, 0.0, 0.0, 0.0, 0.0, 0.0, 0.4444444444444444, 0.0, 0.0, 0.0, 0.0, 0.0, 0.07986111111111116, 0.08317580340264652, 0.09499999999999997, 0.0, 0.0, 0.0, 0.0, 0.4444444444444444, 0.0, 0.0, 0.375, 0.0, 0.0, 0.4444444444444444, 0.0, 0.0, 0.0, 0.0, 0.0, 0.0, 0.0, 0.4102269462798046, 0.3289426842292631, 0.31065088757396453, 0.33499320959710277, 0.29234567901234565, 0.3028664142779881, 0.1022644265887509, 0.10775510204081629, 0.05709342560553632, 0.06243496357960454, 0.0, 0.0, 0.0, 0.0, 0.0, 0.0, 0.0, 0.0, 0.0, 0.0, 0.0, 0.0, 0.0, 0.39669421487603307, 0.375, 0.34963579604578565, 0.33539371136791185, 0.30336110313128406, 0.24489795918367352, 0.19753086419753085, 0.2076124567474048, 0.18000000000000005, 0.18663194444444442, 0.19013128112267996, 0.19753086419753085, 0.1652892561983471, 0.12979989183342344, 0.17481789802289283, 0.18000000000000005, 0.19132653061224492, 0.20414201183431957, 0.21120000000000005, 0.22684310018903586, 0.23553719008264462, 0.18836565096952906, 0.2076124567474048, 0.21875, 0.23111111111111116, 0.2777777777777778, 0.375, 0.40816326530612246, 0.4444444444444444, 0.4444444444444444, 0.0, 0.0, 0.0, 0.0, 0.0, 0.0, 0.0, 0.0, 0.4444444444444444, 0.0, 0.0, 0.0, 0.0, 0.0, 0.0, 0.0, 0.0, 0.0, 0.0, 0.0, 0.0, 0.0, 0.0, 0.0, 0.0, 0.0, 0.0, 0.0, 0.0, 0.0, 0.0, 0.0, 0.0, 0.0, 0.0, 0.0, 0.0, 0.0, 0.0, 0.2659279778393352, 0.3046875, 0.33673469387755106, 0.42000000000000004, 0.21875, 0.0, 0.0, 0.0, 0.0, 0.0, 0.0, 0.39669421487603307, 0.3807463493780422, 0.36281179138321995, 0.294543063773833, 0.2659279778393352, 0.19753086419753085, 0.21303948576675846, 0.12070759625390215, 0.13717421124828533, 0.1587901701323251, 0.18000000000000005, 0.19753086419753085, 0.345679012345679, 0.375, 0.40816326530612246, 0.48, 0.4444444444444444, 0.0, 0.0, 0.0, 0.0, 0.0, 0.0, 0.0, 0.0, 0.0, 0.0, 0.0, 0.0, 0.0, 0.0, 0.0, 0.0, 0.0, 0.0, 0.31999999999999995, 0.375, 0.0, 0.0, 0.0, 0.0, 0.47530864197530864, 0.4970414201183432, 0.48611111111111116, 0.0, 0.345679012345679, 0.375, 0.48, 0.5, 0.0, 0.0, 0.0, 0.0, 0.0, 0.0, 0.0, 0.0, 0.34963579604578565, 0.31999999999999995, 0.24489795918367352, 0.26880000000000004, 0.2975206611570248, 0.332409972299169, 0.2076124567474048, 0.1171875, 0.14201183431952658, 0.1652892561983471, 0.0, 0.0, 0.0, 0.0, 0.0, 0.0, 0.0, 0.0, 0.0, 0.0, 0.0, 0.0, 0.0, 0.0, 0.156734693877551, 0.1652892561983471, 0.06243496357960454, 0.08677685950413228, 0.09972299168975074, 0.1652892561983471, 0.21875, 0.24489795918367352, 0.2777777777777778, 0.375, 0.0, 0.0, 0.0, 0.0, 0.0, 0.0, 0.0, 0.0, 0.0, 0.0, 0.0, 0.0, 0.0, 0.0, 0.0, 0.0, 0.04996712689020377, 0.06444444444444442, 0.07133058984910834, 0.08677685950413228, 0.09499999999999997, 0.0, 0.0, 0.0, 0.0, 0.0, 0.0, 0.0, 0.0, 0.263671875, 0.22476586888657646, 0.2603550295857988, 0.2777777777777778, 0.22684310018903586, 0.255, 0.31999999999999995, 0.33673469387755106, 0.375, 0.4444444444444444, 0.5, 0.0, 0.0, 0.0, 0.0, 0.0, 0.0, 0.0, 0.0, 0.0, 0.0, 0.0, 0.0]}, {"node_count": 611, "children_left": [1, 2, 3, 4, 5, 6, 7, 8, 9, 10, 11, 12, 13, 14, 15, 16, 17, 18, 19, 20, 21, 22, 23, 24, 25, 26, 27, 28, 29, 30, 31, 32, 33, 34, 35, 36, 37, 38, 39, 40, 41, 42, 43, 44, 45, 46, 47, 48, 49, 50, 51, 52, 53, 54, 55, 56, 57, 58, 59, 60, 61, 62, 63, 64, 65, 66, 67, 68, 69, 70, 71, 72, 73, 74, 75, 76, 77, 78, 79, 80, 81, 82, 83, 84, 85, 86, 87, 88, 89, 90, 91, 92, 93, 94, 95, 96, 97, 98, 99, 100, 101, 102, 103, 104, 105, 106, 107, 108, 109, 110, 111, 112, 113, 114, 115, 116, 117, 118, 119, 120, 121, 122, 123, 124, 125, 126, 127, 128, 129, 130, 131, 132, 133, 134, 135, 136, 137, 138, 139, -1, -1, -1, -1, -1, -1, -1, -1, -1, -1, -1, -1, -1, -1, -1, -1, -1, -1, -1, -1, -1, -1, -1, -1, -1, -1, -1, -1, -1, -1, -1, -1, -1, -1, -1, -1, -1, -1, -1, -1, -1, -1, -1, -1, -1, -1, -1, -1, -1, -1, -1, -1, -1, -1, -1, -1, -1, -1, -1, -1, -1, -1, -1, -1, -1, -1, -1, -1, -1, -1, -1, -1, -1, -1, -1, -1, -1, -1, 218, 219, 220, 221, 222, 223, 224, 225, 226, 227, 228, 229, 230, 231, 232, 233, -1, -1, -1, -1, -1, -1, -1, -1, -1, -1, -1, -1, -1, -1, -1, -1, -1, -1, -1, -1, 254, -1, -1, -1, 258, 259, 260, -1, -1, -1, -1, 265, -1, -1, 268, -1, -1, -1, 272, -1, -1, -1, -1, 277, 278, 279, 280, 281, -1, -1, -1, -1, -1, -1, 288, -1, -1, -1, 292, -1, -1, 295, -1, -1, 298, 299, 300, 301, 302, 303, -1, -1, -1, -1, -1, -1, -1, -1, 312, -1, -1, -1, 316, 317, 318, 319, 320, 321, -1, -1, -1, -1, -1, -1, -1, 329, -1, -1, -1, 333, -1, -1, -1, -1, 338, 339, 340, -1, -1, -1, -1, -1, 346, 347, -1, -1, -1, -1, -1, -1, -1, -1, -1, -1, 358, 359, 360, 361, 362, 363, 364, 365, 366, 367, 368, 369, 370, 371, 372, 373, 374, 375, 376, 377, 378, 379, 380, -1, -1, -1, -1, -1, -1, -1, -1, -1, -1, -1, -1, -1, -1, -1, -1, -1, -1, -1, -1, -1, -1, -1, -1, 405, 406, 407, 408, 409, -1, -1, -1, -1, -1, -1, -1, -1, -1, 419, 420, -1, -1, -1, 424, 425, 426, 427, -1, -1, -1, -1, -1, 433, 434, 435, 436, 437, -1, -1, -1, -1, -1, -1, -1, 445, 446, 447, 448, 449, 450, -1, -1, -1, -1, -1, -1, -1, -1, -1, -1, 461, 462, 463, 464, 465, 466, 467, 468, 469, 470, 471, 472, 473, 474, 475, 476, 477, 478, 479, 480, 481, 482, 483, 484, 485, 486, 487, 488, 489, -1, -1, -1, -1, -1, -1, -1, -1, -1, -1, -1, -1, -1, -1, -1, -1, -1, -1, -1, -1, -1, -1, -1, -1, -1, -1, -1, -1, -1, -1, -1, -1, -1, 523, -1, -1, 526, 527, 528, 529, 530, 531, 532, -1, -1, -1, -1, -1, -1, -1, -1, 541, 542, 543, 544, -1, -1, -1, -1, -1, 550, 551, 552, 553, 554, 555, 556, 557, -1, -1, -1, -1, -1, -1, -1, -1, -1, 567, 568, 569, 570, 571, 572, 573, 574, 575, 576, 577, 578, 579, 580, 581, 582, 583, 584, 585, 586, -1, -1, -1, -1, -1, -1, -1, 594, -1, -1, -1, -1, -1, -1, -1, -1, -1, -1, -1, -1, -1, -1, -1, -1, -1], "children_right": [610, 609, 566, 549, 540, 525, 522, 521, 520, 519, 460, 459, 458, 457, 444, 443, 432, 423, 418, 417, 416, 415, 404, 357, 356, 355, 354, 353, 352, 351, 350, 345, 344, 337, 336, 335, 332, 331, 328, 315, 314, 311, 310, 297, 294, 291, 290, 287, 276, 275, 274, 271, 270, 267, 264, 257, 256, 253, 252, 251, 250, 217, 216, 215, 214, 213, 212, 211, 210, 209, 208, 207, 206, 205, 204, 203, 202, 201, 200, 199, 198, 197, 196, 195, 194, 193, 192, 191, 190, 189, 188, 187, 186, 185, 184, 183, 182, 181, 180, 179, 178, 177, 176, 175, 174, 173, 172, 171, 170, 169, 168, 167, 166, 165, 164, 163, 162, 161, 160, 159, 158, 157, 156, 155, 154, 153, 152, 151, 150, 149, 148, 147, 146, 145, 144, 143, 142, 141, 140, -1, -1, -1, -1, -1, -1, -1, -1, -1, -1, -1, -1, -1, -1, -1, -1, -1, -1, -1, -1, -1, -1, -1, -1, -1, -1, -1, -1, -1, -1, -1, -1, -1, -1, -1, -1, -1, -1, -1, -1, -1, -1, -1, -1, -1, -1, -1, -1, -1, -1, -1, -1, -1, -1, -1, -1, -1, -1, -1, -1, -1, -1, -1, -1, -1, -1, -1, -1, -1, -1, -1, -1, -1, -1, -1, -1, -1, -1, 249, 248, 247, 246, 245, 244, 243, 242, 241, 240, 239, 238, 237, 236, 235, 234, -1, -1, -1, -1, -1, -1, -1, -1, -1, -1, -1, -1, -1, -1, -1, -1, -1, -1, -1, -1, 255, -1, -1, -1, 263, 262, 261, -1, -1, -1, -1, 266, -1, -1, 269, -1, -1, -1, 273, -1, -1, -1, -1, 286, 285, 284, 283, 282, -1, -1, -1, -1, -1, -1, 289, -1, -1, -1, 293, -1, -1, 296, -1, -1, 309, 308, 307, 306, 305, 304, -1, -1, -1, -1, -1, -1, -1, -1, 313, -1, -1, -1, 327, 326, 325, 324, 323, 322, -1, -1, -1, -1, -1, -1, -1, 330, -1, -1, -1, 334, -1, -1, -1, -1, 343, 342, 341, -1, -1, -1, -1, -1, 349, 348, -1, -1, -1, -1, -1, -1, -1, -1, -1, -1, 403, 402, 401, 400, 399, 398, 397, 396, 395, 394, 393, 392, 391, 390, 389, 388, 387, 386, 385, 384, 383, 382, 381, -1, -1, -1, -1, -1, -1, -1, -1, -1, -1, -1, -1, -1, -1, -1, -1, -1, -1, -1, -1, -1, -1, -1, -1, 414, 413, 412, 411, 410, -1, -1, -1, -1, -1, -1, -1, -1, -1, 422, 421, -1, -1, -1, 431, 430, 429, 428, -1, -1, -1, -1, -1, 442, 441, 440, 439, 438, -1, -1, -1, -1, -1, -1, -1, 456, 455, 454, 453, 452, 451, -1, -1, -1, -1, -1, -1, -1, -1, -1, -1, 518, 517, 516, 515, 514, 513, 512, 511, 510, 509, 508, 507, 506, 505, 504, 503, 502, 501, 500, 499, 498, 497, 496, 495, 494, 493, 492, 491, 490, -1, -1, -1, -1, -1, -1, -1, -1, -1, -1, -1, -1, -1, -1, -1, -1, -1, -1, -1, -1, -1, -1, -1, -1, -1, -1, -1, -1, -1, -1, -1, -1, -1, 524, -1, -1, 539, 538, 537, 536, 535, 534, 533, -1, -1, -1, -1, -1, -1, -1, -1, 548, 547, 546, 545, -1, -1, -1, -1, -1, 565, 564, 563, 562, 561, 560, 559, 558, -1, -1, -1, -1, -1, -1, -1, -1, -1, 608, 607, 606, 605, 604, 603, 602, 601, 600, 599, 598, 597, 596, 593, 592, 591, 590, 589, 588, 587, -1, -1, -1, -1, -1, -1, -1, 595, -1, -1, -1, -1, -1, -1, -1, -1, -1, -1, -1, -1, -1, -1, -1, -1, -1], "feature": [174, 894, 811, 903, 977, 584, 753, 662, 20, 22, 586, 867, 807, 471, 164, 676, 184, 952, 12, 6, 965, 911, 796, 840, 91, 437, 346, 579, 609, 331, 436, 292, 356, 491, 810, 913, 11, 715, 691, 961, 7, 555, 540, 889, 466, 80, 606, 828, 591, 605, 868, 750, 52, 126, 203, 639, 17, 921, 927, 849, 374, 789, 372, 152, 944, 728, 240, 259, 912, 231, 920, 485, 581, 423, 452, 202, 185, 403, 858, 862, 489, 657, 719, 989, 385, 599, 924, 253, 413, 844, 505, 462, 783, 405, 261, 789, 269, 846, 933, 700, 905, 517, 451, 855, 496, 302, 421, 469, 902, 318, 749, 571, 939, 565, 866, 383, 768, 59, 135, 499, 150, 537, 985, 365, 55, 107, 788, 220, 219, 363, 398, 483, 510, 864, 115, 475, 836, 713, 366, -2, -2, -2, -2, -2, -2, -2, -2, -2, -2, -2, -2, -2, -2, -2, -2, -2, -2, -2, -2, -2, -2, -2, -2, -2, -2, -2, -2, -2, -2, -2, -2, -2, -2, -2, -2, -2, -2, -2, -2, -2, -2, -2, -2, -2, -2, -2, -2, -2, -2, -2, -2, -2, -2, -2, -2, -2, -2, -2, -2, -2, -2, -2, -2, -2, -2, -2, -2, -2, -2, -2, -2, -2, -2, -2, -2, -2, -2, 470, 246, 261, 976, 520, 403, 402, 329, 487, 768, 260, 760, 276, 551, 175, 858, -2, -2, -2, -2, -2, -2, -2, -2, -2, -2, -2, -2, -2, -2, -2, -2, -2, -2, -2, -2, 357, -2, -2, -2, 540, 642, 639, -2, -2, -2, -2, 282, -2, -2, 543, -2, -2, -2, 599, -2, -2, -2, -2, 883, 514, 775, 980, 979, -2, -2, -2, -2, -2, -2, 562, -2, -2, -2, 581, -2, -2, 466, -2, -2, 510, 455, 240, 591, 994, 889, -2, -2, -2, -2, -2, -2, -2, -2, 783, -2, -2, -2, 891, 94, 866, 639, 452, 562, -2, -2, -2, -2, -2, -2, -2, 405, -2, -2, -2, 507, -2, -2, -2, -2, 618, 589, 248, -2, -2, -2, -2, -2, 893, 489, -2, -2, -2, -2, -2, -2, -2, -2, -2, -2, 366, 524, 967, 209, 333, 13, 698, 945, 545, 980, 574, 757, 65, 581, 405, 562, 974, 199, 66, 153, 836, 781, 840, -2, -2, -2, -2, -2, -2, -2, -2, -2, -2, -2, -2, -2, -2, -2, -2, -2, -2, -2, -2, -2, -2, -2, -2, 631, 258, 831, 521, 328, -2, -2, -2, -2, -2, -2, -2, -2, -2, 639, 40, -2, -2, -2, 709, 515, 840, 952, -2, -2, -2, -2, -2, 571, 209, 184, 930, 540, -2, -2, -2, -2, -2, -2, -2, 261, 45, 589, 581, 921, 463, -2, -2, -2, -2, -2, -2, -2, -2, -2, -2, 81, 396, 889, 868, 547, 186, 641, 571, 828, 602, 427, 883, 734, 715, 452, 415, 540, 131, 187, 446, 499, 946, 389, 261, 884, 117, 986, 937, 586, -2, -2, -2, -2, -2, -2, -2, -2, -2, -2, -2, -2, -2, -2, -2, -2, -2, -2, -2, -2, -2, -2, -2, -2, -2, -2, -2, -2, -2, -2, -2, -2, -2, 428, -2, -2, 858, 601, 564, 753, 927, 72, 60, -2, -2, -2, -2, -2, -2, -2, -2, 290, 452, 30, 405, -2, -2, -2, -2, -2, 39, 21, 91, 921, 155, 693, 902, 184, -2, -2, -2, -2, -2, -2, -2, -2, -2, 489, 867, 135, 735, 152, 836, 709, 333, 889, 301, 491, 10, 543, 402, 730, 927, 57, 366, 228, 357, -2, -2, -2, -2, -2, -2, -2, 261, -2, -2, -2, -2, -2, -2, -2, -2, -2, -2, -2, -2, -2, -2, -2, -2, -2], "threshold": [0.08975163847208023, 0.08970047533512115, 0.15998461842536926, 0.10904437303543091, 0.10151965916156769, 0.12046018242835999, 0.13387711346149445, 0.11282149702310562, 0.09512654691934586, 0.10570276528596878, 0.11105651408433914, 0.11834076792001724, 0.13480928540229797, 0.121490478515625, 0.1626788228750229, 0.150552436709404, 0.10257111489772797, 0.14167790114879608, 0.12224496901035309, 0.18689382076263428, 0.47498220205307007, 0.16515861451625824, 0.34438376128673553, 0.09336231648921967, 0.1721203774213791, 0.45778146386146545, 0.3663497567176819, 0.19720619916915894, 0.6573819518089294, 0.39440466463565826, 0.6825440526008606, 0.38583335280418396, 0.5633755773305893, 0.27794456481933594, 0.19624722003936768, 0.2818971574306488, 0.3187444508075714, 0.18886826932430267, 0.18821631371974945, 0.2921959310770035, 0.19355490803718567, 0.11857640743255615, 0.8708473145961761, 0.09710189700126648, 0.12774385511875153, 0.3481726348400116, 0.043385669589042664, 0.4532640129327774, 0.2854663282632828, 0.10131174325942993, 0.23826929926872253, 0.20356501638889313, 0.15062688291072845, 0.3851214796304703, 0.36338505148887634, 0.520802691578865, 0.6038645207881927, 0.6382458209991455, 0.07289750874042511, 0.04517101123929024, 0.03171292319893837, 0.3905193656682968, 0.10563505440950394, 0.10086052864789963, 0.3208286762237549, 0.0759621262550354, 0.10301055759191513, 0.1010415330529213, 0.10896867513656616, 0.10218564420938492, 0.0952150821685791, 0.11882078647613525, 0.08667948096990585, 0.17140963673591614, 0.07412557303905487, 0.10098905116319656, 0.07263892143964767, 0.12170087546110153, 0.048235394060611725, 0.10400888323783875, 0.0845504105091095, 0.07882270216941833, 0.18259580433368683, 0.1836741864681244, 0.1538405865430832, 0.12422990053892136, 0.10620489716529846, 0.12433701008558273, 0.09489728510379791, 0.1461142748594284, 0.09370357543230057, 0.10632355511188507, 0.5, 0.13667748868465424, 0.14906665682792664, 0.11815004050731659, 0.8120804131031036, 0.1877293884754181, 0.08502606302499771, 0.1520279347896576, 0.16733546555042267, 0.2643285393714905, 0.13246461749076843, 0.08296088129281998, 0.10805067420005798, 0.2357769012451172, 0.20250898599624634, 0.1753924936056137, 0.07239038497209549, 0.1229187548160553, 0.14393454790115356, 0.08108958601951599, 0.14484363794326782, 0.10103254020214081, 0.21393458545207977, 0.1123451367020607, 0.25135311484336853, 0.13128814101219177, 0.33187416195869446, 0.20881478488445282, 0.18774133920669556, 0.2282664030790329, 0.12060318887233734, 0.2181985229253769, 0.12419823557138443, 0.09901820123195648, 0.14862686395645142, 0.23968948423862457, 0.1873016506433487, 0.14958317577838898, 0.16240745782852173, 0.12253168970346451, 0.1362164318561554, 0.21958602964878082, 0.13190166652202606, 0.1937306672334671, 0.15963397920131683, 0.10266272723674774, 0.7942016124725342, -2.0, -2.0, -2.0, -2.0, -2.0, -2.0, -2.0, -2.0, -2.0, -2.0, -2.0, -2.0, -2.0, -2.0, -2.0, -2.0, -2.0, -2.0, -2.0, -2.0, -2.0, -2.0, -2.0, -2.0, -2.0, -2.0, -2.0, -2.0, -2.0, -2.0, -2.0, -2.0, -2.0, -2.0, -2.0, -2.0, -2.0, -2.0, -2.0, -2.0, -2.0, -2.0, -2.0, -2.0, -2.0, -2.0, -2.0, -2.0, -2.0, -2.0, -2.0, -2.0, -2.0, -2.0, -2.0, -2.0, -2.0, -2.0, -2.0, -2.0, -2.0, -2.0, -2.0, -2.0, -2.0, -2.0, -2.0, -2.0, -2.0, -2.0, -2.0, -2.0, -2.0, -2.0, -2.0, -2.0, -2.0, -2.0, 0.25381556153297424, 0.41892877221107483, 0.13681195676326752, 0.34977543354034424, 0.39861568808555603, 0.24324201047420502, 0.38194671273231506, 0.30246269702911377, 0.18868213891983032, 0.328715980052948, 0.10367441922426224, 0.3256712555885315, 0.2650259733200073, 0.36874815821647644, 0.2929539382457733, 0.17792998254299164, -2.0, -2.0, -2.0, -2.0, -2.0, -2.0, -2.0, -2.0, -2.0, -2.0, -2.0, -2.0, -2.0, -2.0, -2.0, -2.0, -2.0, -2.0, -2.0, -2.0, 0.377643346786499, -2.0, -2.0, -2.0, 0.20080117881298065, 0.37471848726272583, 0.5971267223358154, -2.0, -2.0, -2.0, -2.0, 0.4113704264163971, -2.0, -2.0, 0.19622443616390228, -2.0, -2.0, -2.0, 0.15420565009117126, -2.0, -2.0, -2.0, -2.0, 0.20471160113811493, 0.12248514592647552, 0.1399550884962082, 0.2895353436470032, 0.1929662972688675, -2.0, -2.0, -2.0, -2.0, -2.0, -2.0, 0.25741246342658997, -2.0, -2.0, -2.0, 0.28103017807006836, -2.0, -2.0, 0.39610564708709717, -2.0, -2.0, 0.1150500476360321, 0.21480116248130798, 0.16099077463150024, 0.1260635107755661, 0.22072093188762665, 0.24970409274101257, -2.0, -2.0, -2.0, -2.0, -2.0, -2.0, -2.0, -2.0, 0.31795942783355713, -2.0, -2.0, -2.0, 0.2120092660188675, 0.21896952390670776, 0.18849574029445648, 0.19081895053386688, 0.1404542177915573, 0.43893879652023315, -2.0, -2.0, -2.0, -2.0, -2.0, -2.0, -2.0, 0.1477760672569275, -2.0, -2.0, -2.0, 0.3418431878089905, -2.0, -2.0, -2.0, -2.0, 0.1723635047674179, 0.14757023751735687, 0.16674591600894928, -2.0, -2.0, -2.0, -2.0, -2.0, 0.30753540992736816, 0.12034296244382858, -2.0, -2.0, -2.0, -2.0, -2.0, -2.0, -2.0, -2.0, -2.0, -2.0, 0.1268795281648636, 0.13725852966308594, 0.12791508436203003, 0.1943231225013733, 0.13982319831848145, 0.19926688075065613, 0.20360788702964783, 0.17220136523246765, 0.12765413522720337, 0.336925745010376, 0.16241897642612457, 0.15105828642845154, 0.19877561926841736, 0.1462220549583435, 0.13475292921066284, 0.13949410617351532, 0.2796262204647064, 0.24535907804965973, 0.2316482812166214, 0.2933194637298584, 0.16720464825630188, 0.19215011596679688, 0.8595145046710968, -2.0, -2.0, -2.0, -2.0, -2.0, -2.0, -2.0, -2.0, -2.0, -2.0, -2.0, -2.0, -2.0, -2.0, -2.0, -2.0, -2.0, -2.0, -2.0, -2.0, -2.0, -2.0, -2.0, -2.0, 0.20581459999084473, 0.23898151516914368, 0.33176422119140625, 0.15946851670742035, 0.19227024912834167, -2.0, -2.0, -2.0, -2.0, -2.0, -2.0, -2.0, -2.0, -2.0, 0.10593210905790329, 0.11952223628759384, -2.0, -2.0, -2.0, 0.14459867775440216, 0.2391294687986374, 0.11754021048545837, 0.30621886253356934, -2.0, -2.0, -2.0, -2.0, -2.0, 0.14670874178409576, 0.12808525562286377, 0.38647203147411346, 0.38985756039619446, 0.1665651649236679, -2.0, -2.0, -2.0, -2.0, -2.0, -2.0, -2.0, 0.1515570431947708, 0.18837212026119232, 0.20130173861980438, 0.19625799357891083, 0.12072066217660904, 0.21813710033893585, -2.0, -2.0, -2.0, -2.0, -2.0, -2.0, -2.0, -2.0, -2.0, -2.0, 0.15546804666519165, 0.4491589665412903, 0.08152244985103607, 0.2593684494495392, 0.1267140805721283, 0.2341604381799698, 0.13868652284145355, 0.13046707212924957, 0.17386309802532196, 0.14913581311702728, 0.16894710063934326, 0.12398342043161392, 0.1499607414007187, 0.20096875727176666, 0.20077255368232727, 0.10539959371089935, 0.3737271726131439, 0.15562832355499268, 0.16613642871379852, 0.24347198009490967, 0.2207900583744049, 0.19142653048038483, 0.17384734749794006, 0.24950744211673737, 0.1571512222290039, 0.22871285676956177, 0.1730227917432785, 0.36701416969299316, 0.8000057935714722, -2.0, -2.0, -2.0, -2.0, -2.0, -2.0, -2.0, -2.0, -2.0, -2.0, -2.0, -2.0, -2.0, -2.0, -2.0, -2.0, -2.0, -2.0, -2.0, -2.0, -2.0, -2.0, -2.0, -2.0, -2.0, -2.0, -2.0, -2.0, -2.0, -2.0, -2.0, -2.0, -2.0, 0.18411701917648315, -2.0, -2.0, 0.09710920602083206, 0.1750127077102661, 0.1366637498140335, 0.20840367674827576, 0.09103585034608841, 0.12807664275169373, 0.18744656443595886, -2.0, -2.0, -2.0, -2.0, -2.0, -2.0, -2.0, -2.0, 0.13175109028816223, 0.07522106915712357, 0.136422261595726, 0.11319936811923981, -2.0, -2.0, -2.0, -2.0, -2.0, 0.13718107342720032, 0.12194579839706421, 0.13395176827907562, 0.20479123294353485, 0.11029016226530075, 0.13169370591640472, 0.13486763834953308, 0.11511895805597305, -2.0, -2.0, -2.0, -2.0, -2.0, -2.0, -2.0, -2.0, -2.0, 0.26124347746372223, 0.11102151870727539, 0.1287984699010849, 0.1892394721508026, 0.14287085831165314, 0.17814503610134125, 0.10444280505180359, 0.08350959420204163, 0.11346743255853653, 0.16569949686527252, 0.13169854879379272, 0.1430584341287613, 0.143539160490036, 0.1338423788547516, 0.16434332728385925, 0.16435863077640533, 0.22034971415996552, 0.1737537384033203, 0.17923666536808014, 0.17274698615074158, -2.0, -2.0, -2.0, -2.0, -2.0, -2.0, -2.0, 0.12611430883407593, -2.0, -2.0, -2.0, -2.0, -2.0, -2.0, -2.0, -2.0, -2.0, -2.0, -2.0, -2.0, -2.0, -2.0, -2.0, -2.0, -2.0], "value": [[0.8667472793228537, 0.1332527206771463], [0.8816728167281673, 0.11832718327183271], [0.89198606271777, 0.10801393728222997], [0.9076962413704934, 0.09230375862950652], [0.9151186790505675, 0.0848813209494324], [0.9222366710013004, 0.07776332899869962], [0.9270397489539749, 0.0729602510460251], [0.9304096638655462, 0.06959033613445378], [0.9316329213778596, 0.06836707862214042], [0.9370536895001322, 0.06294631049986776], [0.9390405512854493, 0.06095944871455076], [0.945557963163597, 0.054442036836403036], [0.9476112920738328, 0.05238870792616721], [0.9509670389539635, 0.0490329610460365], [0.9556528880372297, 0.04434711196277032], [0.9571899012074643, 0.042810098792535674], [0.9600880814753647, 0.039911918524635284], [0.9637821398949405, 0.036217860105059445], [0.9664355062413315, 0.03356449375866852], [0.9680377987770984, 0.03196220122290161], [0.96884561891516, 0.031154381084840057], [0.9691151919866444, 0.030884808013355594], [0.9707357859531772, 0.029264214046822744], [0.9728671328671329, 0.027132867132867132], [0.9774607703281027, 0.02253922967189729], [0.9777397260273972, 0.02226027397260274], [0.9782981153626499, 0.021701884637350087], [0.9791368962560731, 0.020863103743926838], [0.9799771167048055, 0.02002288329519451], [0.9805380652547224, 0.019461934745277618], [0.9816618911174785, 0.01833810888252149], [0.9819432502149613, 0.018056749785038694], [0.982209469153515, 0.017790530846484937], [0.9827734711455641, 0.017226528854435832], [0.9833141542002302, 0.01668584579976985], [0.9838802533103052, 0.016119746689694875], [0.9847306251800634, 0.015269374819936617], [0.985578309777906, 0.01442169022209403], [0.985862665897288, 0.01413733410271206], [0.9861431870669746, 0.013856812933025405], [0.9878013360441475, 0.012198663955852455], [0.98837547224644, 0.011624527753560012], [0.9903846153846154, 0.009615384615384616], [0.9909620991253645, 0.009037900874635569], [0.9915080527086384, 0.00849194729136164], [0.9923776018762827, 0.007622398123717385], [0.9926578560939795, 0.007342143906020558], [0.992226368159204, 0.00777363184079602], [0.9928415810768751, 0.0071584189231248055], [0.9933753943217666, 0.006624605678233439], [0.9932104752667313, 0.006789524733268671], [0.9935316946959897, 0.00646830530401035], [0.9938471502590673, 0.006152849740932643], [0.9948136142625608, 0.005186385737439222], [0.9951282884053264, 0.004871711594673595], [0.9957696062479662, 0.004230393752033843], [0.9960873818063254, 0.0039126181936746], [0.9964122635355512, 0.003587736464448793], [0.9970597843841882, 0.0029402156158118264], [0.9969737726967047, 0.003026227303295225], [0.9968976215098242, 0.0031023784901758012], [0.9967637540453075, 0.003236245954692557], [0.9970728137577753, 0.0029271862422246614], [0.9970149253731343, 0.0029850746268656717], [0.996958174904943, 0.003041825095057034], [0.99733739064283, 0.0026626093571700264], [0.9972941631233089, 0.002705836876691148], [0.9972255251684503, 0.0027744748315497426], [0.997163695299838, 0.0028363047001620746], [0.9971038477451386, 0.0028961522548613984], [0.997043918918919, 0.0029560810810810812], [0.9970136518771331, 0.0029863481228668944], [0.996969696969697, 0.0030303030303030303], [0.9968875055580257, 0.0031124944419742106], [0.9977748108589231, 0.0022251891410769915], [0.9976348155156102, 0.0023651844843897824], [0.9976030680728667, 0.0023969319271332696], [0.9974836436839456, 0.0025163563160543532], [0.9974066390041494, 0.0025933609958506223], [0.9973161567364466, 0.0026838432635534087], [0.9972557628979144, 0.0027442371020856204], [0.9971395881006865, 0.002860411899313501], [0.9970828471411902, 0.0029171528588098016], [0.9970518867924528, 0.00294811320754717], [0.996998799519808, 0.003001200480192077], [0.9969641772920461, 0.0030358227079538553], [0.9969306322897483, 0.003069367710251688], [0.9968808484092326, 0.0031191515907673115], [0.9968294229549778, 0.0031705770450221942], [0.9967234600262124, 0.00327653997378768], [0.9966887417218543, 0.0033112582781456954], [0.9966124661246613, 0.0033875338753387536], [0.9965034965034965, 0.0034965034965034965], [0.9972008397480756, 0.0027991602519244225], [0.9971448965024983, 0.0028551034975017845], [0.997103548153512, 0.002896451846488052], [0.9970674486803519, 0.002932551319648094], [0.9985315712187959, 0.0014684287812041115], [0.9985163204747775, 0.001483679525222552], [0.99848828420257, 0.0015117157974300832], [0.9984697781178271, 0.001530221882172915], [0.9984555984555985, 0.0015444015444015444], [0.9984375, 0.0015625], [0.9984114376489277, 0.0015885623510722795], [0.9983935742971888, 0.001606425702811245], [0.9983291562238931, 0.001670843776106934], [0.9983150800336984, 0.0016849199663016006], [0.9982978723404256, 0.001702127659574468], [0.998274374460742, 0.001725625539257981], [0.9981949458483754, 0.0018050541516245488], [0.9981718464351006, 0.0018281535648994515], [0.9981515711645101, 0.0018484288354898336], [0.9981360671015843, 0.001863932898415657], [0.9981203007518797, 0.0018796992481203006], [0.9980988593155894, 0.0019011406844106464], [0.9980824544582934, 0.0019175455417066154], [0.9980582524271845, 0.001941747572815534], [0.9980295566502463, 0.0019704433497536944], [0.9980119284294234, 0.0019880715705765406], [0.997997997997998, 0.002002002002002002], [0.9979654120040692, 0.002034587995930824], [0.9979338842975206, 0.002066115702479339], [0.997907949790795, 0.0020920502092050207], [0.9978354978354979, 0.0021645021645021645], [0.9978142076502732, 0.002185792349726776], [0.9977949283351709, 0.002205071664829107], [0.9977753058954394, 0.002224694104560623], [0.997737556561086, 0.0022624434389140274], [0.9977116704805492, 0.002288329519450801], [0.9976608187134502, 0.0023391812865497076], [0.9975786924939467, 0.002421307506053269], [0.997563946406821, 0.00243605359317905], [0.9975369458128078, 0.0024630541871921183], [0.9974779319041615, 0.0025220680958385876], [0.9974391805377721, 0.002560819462227913], [0.9974093264248705, 0.0025906735751295338], [0.9973890339425587, 0.0026109660574412533], [0.99734395750332, 0.0026560424966799467], [0.9972936400541272, 0.0027063599458728013], [1.0, 0.0], [0.7142857142857143, 0.2857142857142857], [1.0, 0.0], [1.0, 0.0], [1.0, 0.0], [1.0, 0.0], [1.0, 0.0], [1.0, 0.0], [1.0, 0.0], [1.0, 0.0], [1.0, 0.0], [1.0, 0.0], [1.0, 0.0], [1.0, 0.0], [1.0, 0.0], [1.0, 0.0], [1.0, 0.0], [1.0, 0.0], [1.0, 0.0], [1.0, 0.0], [1.0, 0.0], [1.0, 0.0], [1.0, 0.0], [1.0, 0.0], [1.0, 0.0], [1.0, 0.0], [1.0, 0.0], [1.0, 0.0], [1.0, 0.0], [1.0, 0.0], [1.0, 0.0], [1.0, 0.0], [1.0, 0.0], [1.0, 0.0], [1.0, 0.0], [1.0, 0.0], [1.0, 0.0], [1.0, 0.0], [1.0, 0.0], [1.0, 0.0], [1.0, 0.0], [1.0, 0.0], [1.0, 0.0], [0.0, 1.0], [1.0, 0.0], [1.0, 0.0], [1.0, 0.0], [0.0, 1.0], [1.0, 0.0], [1.0, 0.0], [1.0, 0.0], [1.0, 0.0], [1.0, 0.0], [1.0, 0.0], [1.0, 0.0], [1.0, 0.0], [1.0, 0.0], [1.0, 0.0], [1.0, 0.0], [1.0, 0.0], [1.0, 0.0], [1.0, 0.0], [1.0, 0.0], [1.0, 0.0], [1.0, 0.0], [1.0, 0.0], [0.0, 1.0], [1.0, 0.0], [1.0, 0.0], [1.0, 0.0], [1.0, 0.0], [1.0, 0.0], [1.0, 0.0], [1.0, 0.0], [1.0, 0.0], [0.0, 1.0], [1.0, 0.0], [1.0, 0.0], [0.9791666666666666, 0.020833333333333332], [0.9761904761904762, 0.023809523809523808], [0.975, 0.025], [0.972972972972973, 0.02702702702702703], [0.9714285714285714, 0.02857142857142857], [0.9705882352941176, 0.029411764705882353], [0.967741935483871, 0.03225806451612903], [0.9655172413793104, 0.034482758620689655], [0.9642857142857143, 0.03571428571428571], [0.9615384615384616, 0.038461538461538464], [0.96, 0.04], [0.9583333333333334, 0.041666666666666664], [0.9545454545454546, 0.045454545454545456], [0.95, 0.05], [0.9473684210526315, 0.05263157894736842], [0.9444444444444444, 0.05555555555555555], [1.0, 0.0], [0.0, 1.0], [1.0, 0.0], [1.0, 0.0], [1.0, 0.0], [1.0, 0.0], [1.0, 0.0], [1.0, 0.0], [1.0, 0.0], [1.0, 0.0], [1.0, 0.0], [1.0, 0.0], [1.0, 0.0], [1.0, 0.0], [1.0, 0.0], [1.0, 0.0], [1.0, 0.0], [1.0, 0.0], [1.0, 0.0], [1.0, 0.0], [0.6, 0.4], [1.0, 0.0], [0.0, 1.0], [0.0, 1.0], [0.8333333333333334, 0.16666666666666666], [0.8, 0.2], [0.6666666666666666, 0.3333333333333333], [0.0, 1.0], [1.0, 0.0], [1.0, 0.0], [1.0, 0.0], [0.6666666666666666, 0.3333333333333333], [1.0, 0.0], [0.0, 1.0], [0.8333333333333334, 0.16666666666666666], [1.0, 0.0], [0.0, 1.0], [0.0, 1.0], [0.75, 0.25], [1.0, 0.0], [0.0, 1.0], [0.0, 1.0], [1.0, 0.0], [0.9534883720930233, 0.046511627906976744], [0.9512195121951219, 0.04878048780487805], [0.9473684210526315, 0.05263157894736842], [0.9411764705882353, 0.058823529411764705], [0.9354838709677419, 0.06451612903225806], [1.0, 0.0], [0.0, 1.0], [1.0, 0.0], [1.0, 0.0], [1.0, 0.0], [1.0, 0.0], [0.3333333333333333, 0.6666666666666666], [0.0, 1.0], [1.0, 0.0], [1.0, 0.0], [0.8333333333333334, 0.16666666666666666], [1.0, 0.0], [0.0, 1.0], [0.25, 0.75], [0.0, 1.0], [1.0, 0.0], [0.8666666666666667, 0.13333333333333333], [0.8, 0.2], [0.75, 0.25], [0.7142857142857143, 0.2857142857142857], [0.6666666666666666, 0.3333333333333333], [0.8, 0.2], [0.0, 1.0], [1.0, 0.0], [0.0, 1.0], [1.0, 0.0], [1.0, 0.0], [1.0, 0.0], [1.0, 0.0], [0.0, 1.0], [0.2222222222222222, 0.7777777777777778], [0.0, 1.0], [1.0, 0.0], [0.0, 1.0], [0.7142857142857143, 0.2857142857142857], [0.8333333333333334, 0.16666666666666666], [0.9375, 0.0625], [0.9285714285714286, 0.07142857142857142], [0.9230769230769231, 0.07692307692307693], [0.9166666666666666, 0.08333333333333333], [1.0, 0.0], [0.0, 1.0], [1.0, 0.0], [1.0, 0.0], [1.0, 0.0], [0.0, 1.0], [0.0, 1.0], [0.5, 0.5], [1.0, 0.0], [0.0, 1.0], [0.0, 1.0], [0.25, 0.75], [0.0, 1.0], [1.0, 0.0], [0.0, 1.0], [0.0, 1.0], [0.7142857142857143, 0.2857142857142857], [0.8333333333333334, 0.16666666666666666], [0.6666666666666666, 0.3333333333333333], [1.0, 0.0], [0.0, 1.0], [1.0, 0.0], [0.0, 1.0], [0.0, 1.0], [0.75, 0.25], [0.5, 0.5], [1.0, 0.0], [0.0, 1.0], [1.0, 0.0], [0.0, 1.0], [0.0, 1.0], [0.0, 1.0], [0.0, 1.0], [0.0, 1.0], [0.0, 1.0], [0.0, 1.0], [0.7428571428571429, 0.2571428571428571], [0.7647058823529411, 0.23529411764705882], [0.7878787878787878, 0.21212121212121213], [0.8, 0.2], [0.8387096774193549, 0.16129032258064516], [0.896551724137931, 0.10344827586206896], [0.9122807017543859, 0.08771929824561403], [0.9074074074074074, 0.09259259259259259], [0.9056603773584906, 0.09433962264150944], [0.9230769230769231, 0.07692307692307693], [0.9411764705882353, 0.058823529411764705], [0.9387755102040817, 0.061224489795918366], [0.9787234042553191, 0.02127659574468085], [0.975, 0.025], [0.9736842105263158, 0.02631578947368421], [0.9714285714285714, 0.02857142857142857], [0.9696969696969697, 0.030303030303030304], [0.9666666666666667, 0.03333333333333333], [0.9642857142857143, 0.03571428571428571], [0.9629629629629629, 0.037037037037037035], [0.9615384615384616, 0.038461538461538464], [0.96, 0.04], [0.9565217391304348, 0.043478260869565216], [1.0, 0.0], [0.5, 0.5], [1.0, 0.0], [1.0, 0.0], [1.0, 0.0], [1.0, 0.0], [1.0, 0.0], [1.0, 0.0], [1.0, 0.0], [1.0, 0.0], [1.0, 0.0], [1.0, 0.0], [0.0, 1.0], [1.0, 0.0], [0.0, 1.0], [0.0, 1.0], [1.0, 0.0], [1.0, 0.0], [0.0, 1.0], [0.0, 1.0], [0.0, 1.0], [0.0, 1.0], [0.0, 1.0], [0.0, 1.0], [0.38461538461538464, 0.6153846153846154], [0.45454545454545453, 0.5454545454545454], [0.4, 0.6], [0.25, 0.75], [0.6666666666666666, 0.3333333333333333], [1.0, 0.0], [0.0, 1.0], [0.0, 1.0], [1.0, 0.0], [1.0, 0.0], [0.0, 1.0], [0.0, 1.0], [0.0, 1.0], [0.0, 1.0], [0.14285714285714285, 0.8571428571428571], [0.16666666666666666, 0.8333333333333334], [1.0, 0.0], [0.0, 1.0], [0.0, 1.0], [0.16666666666666666, 0.8333333333333334], [0.3333333333333333, 0.6666666666666666], [0.2, 0.8], [0.3333333333333333, 0.6666666666666666], [0.0, 1.0], [1.0, 0.0], [0.0, 1.0], [1.0, 0.0], [0.0, 1.0], [0.125, 0.875], [0.14285714285714285, 0.8571428571428571], [0.18181818181818182, 0.8181818181818182], [0.2857142857142857, 0.7142857142857143], [0.4, 0.6], [1.0, 0.0], [0.0, 1.0], [0.0, 1.0], [0.0, 1.0], [0.0, 1.0], [0.0, 1.0], [0.0, 1.0], [0.3333333333333333, 0.6666666666666666], [0.375, 0.625], [0.42857142857142855, 0.5714285714285714], [0.3333333333333333, 0.6666666666666666], [0.2, 0.8], [0.25, 0.75], [1.0, 0.0], [0.0, 1.0], [0.0, 1.0], [1.0, 0.0], [1.0, 0.0], [0.0, 1.0], [0.0, 1.0], [0.0, 1.0], [0.0, 1.0], [0.0, 1.0], [0.6419753086419753, 0.35802469135802467], [0.6133333333333333, 0.38666666666666666], [0.6301369863013698, 0.3698630136986301], [0.6865671641791045, 0.31343283582089554], [0.71875, 0.28125], [0.7931034482758621, 0.20689655172413793], [0.8070175438596491, 0.19298245614035087], [0.8214285714285714, 0.17857142857142858], [0.8363636363636363, 0.16363636363636364], [0.8333333333333334, 0.16666666666666666], [0.8490566037735849, 0.1509433962264151], [0.8653846153846154, 0.1346153846153846], [0.8444444444444444, 0.15555555555555556], [0.8372093023255814, 0.16279069767441862], [0.8571428571428571, 0.14285714285714285], [0.8780487804878049, 0.12195121951219512], [0.8484848484848485, 0.15151515151515152], [0.9333333333333333, 0.06666666666666667], [0.9230769230769231, 0.07692307692307693], [0.9166666666666666, 0.08333333333333333], [0.9047619047619048, 0.09523809523809523], [0.9, 0.1], [0.8888888888888888, 0.1111111111111111], [0.8461538461538461, 0.15384615384615385], [0.8333333333333334, 0.16666666666666666], [0.8, 0.2], [0.7777777777777778, 0.2222222222222222], [0.75, 0.25], [0.7142857142857143, 0.2857142857142857], [1.0, 0.0], [0.0, 1.0], [1.0, 0.0], [1.0, 0.0], [1.0, 0.0], [1.0, 0.0], [1.0, 0.0], [1.0, 0.0], [1.0, 0.0], [1.0, 0.0], [1.0, 0.0], [1.0, 0.0], [1.0, 0.0], [0.0, 1.0], [1.0, 0.0], [0.0, 1.0], [0.0, 1.0], [1.0, 0.0], [1.0, 0.0], [0.0, 1.0], [0.0, 1.0], [1.0, 0.0], [0.0, 1.0], [0.0, 1.0], [0.0, 1.0], [0.0, 1.0], [0.0, 1.0], [0.0, 1.0], [0.0, 1.0], [1.0, 0.0], [0.0, 1.0], [0.0, 1.0], [0.0, 1.0], [0.125, 0.875], [0.0, 1.0], [1.0, 0.0], [0.047619047619047616, 0.9523809523809523], [0.05, 0.95], [0.05555555555555555, 0.9444444444444444], [0.0625, 0.9375], [0.07142857142857142, 0.9285714285714286], [0.2, 0.8], [0.5, 0.5], [1.0, 0.0], [0.0, 1.0], [0.0, 1.0], [0.0, 1.0], [0.0, 1.0], [0.0, 1.0], [0.0, 1.0], [0.0, 1.0], [0.03225806451612903, 0.967741935483871], [0.04, 0.96], [0.045454545454545456, 0.9545454545454546], [0.0625, 0.9375], [0.0, 1.0], [1.0, 0.0], [0.0, 1.0], [0.0, 1.0], [0.0, 1.0], [0.08571428571428572, 0.9142857142857143], [0.08823529411764706, 0.9117647058823529], [0.10714285714285714, 0.8928571428571429], [0.15, 0.85], [0.2, 0.8], [0.42857142857142855, 0.5714285714285714], [0.5, 0.5], [0.75, 0.25], [1.0, 0.0], [0.0, 1.0], [0.0, 1.0], [0.0, 1.0], [0.0, 1.0], [0.0, 1.0], [0.0, 1.0], [0.0, 1.0], [0.0, 1.0], [0.3177570093457944, 0.6822429906542056], [0.2980769230769231, 0.7019230769230769], [0.32978723404255317, 0.6702127659574468], [0.29213483146067415, 0.7078651685393258], [0.2840909090909091, 0.7159090909090909], [0.27586206896551724, 0.7241379310344828], [0.25882352941176473, 0.7411764705882353], [0.3492063492063492, 0.6507936507936508], [0.4, 0.6], [0.5365853658536586, 0.4634146341463415], [0.5789473684210527, 0.42105263157894735], [0.6470588235294118, 0.35294117647058826], [0.7096774193548387, 0.2903225806451613], [0.7586206896551724, 0.2413793103448276], [0.875, 0.125], [0.9130434782608695, 0.08695652173913043], [0.9047619047619048, 0.09523809523809523], [0.8823529411764706, 0.11764705882352941], [0.9375, 0.0625], [0.9333333333333333, 0.06666666666666667], [1.0, 0.0], [0.0, 1.0], [1.0, 0.0], [0.0, 1.0], [1.0, 0.0], [1.0, 0.0], [0.0, 1.0], [0.2, 0.8], [0.0, 1.0], [1.0, 0.0], [0.0, 1.0], [0.0, 1.0], [0.0, 1.0], [0.0, 1.0], [0.0, 1.0], [0.0, 1.0], [0.0, 1.0], [1.0, 0.0], [1.0, 0.0], [1.0, 0.0], [1.0, 0.0], [0.0, 1.0], [1.0, 0.0], [0.0, 1.0], [0.0, 1.0]], "impurity": [0.23099286621856951, 0.20865172194157366, 0.19269385327004096, 0.16756754954474462, 0.15535296460662373, 0.14343238732347918, 0.1352741056266522, 0.12949504250229504, 0.127386042365629, 0.11796814498864394, 0.11448678865393758, 0.10295620292301355, 0.09928826241598787, 0.09325745955418874, 0.08476089124666364, 0.08195478846781801, 0.07663791456863633, 0.0698122534289396, 0.06487583703478561, 0.06188123783177668, 0.0603675712481212, 0.05986187329466752, 0.05681563964608893, 0.05279334930803459, 0.04406242559538953, 0.04352950835053482, 0.04246182568107448, 0.040855669292193975, 0.03924393487948308, 0.03816633568249639, 0.03600364529026856, 0.03546140714447843, 0.03494805571737036, 0.03385955111612626, 0.03281485669943229, 0.03171980091270987, 0.03007244202508985, 0.028427410146463994, 0.02787493977436073, 0.02732960333672907, 0.02409971310708925, 0.022978796216133412, 0.019045857988165715, 0.017912434444831704, 0.016839668245124728, 0.015128594341121904, 0.014576473657767708, 0.015426404977599617, 0.01421435192329168, 0.01316144055568269, 0.013486854174330043, 0.012852932661008953, 0.012229984361996293, 0.010318974280843385, 0.009695956041623877, 0.008424995041473204, 0.007794619225090282, 0.007149729223020929, 0.005863141495888735, 0.0060341385032079975, 0.006185507475758967, 0.006451545333626574, 0.0058372356458560315, 0.005952327912675415, 0.006065144790296184, 0.005311039737162293, 0.00539703064697572, 0.005533554241917704, 0.0056565201516198815, 0.005775529113956068, 0.0058946853314463254, 0.005954859695511905, 0.006042240587695091, 0.006205613640645757, 0.0044404753487268245, 0.004719180773489207, 0.004782373288939934, 0.0050200485338900425, 0.005173270949191622, 0.005353280497780166, 